{"layers":[{"DenseLayer":{"weights":[0.71857333,-0.4075935,0.53103733,0.4981277,-0.3526907,-0.9294777,0.17030907,0.34785795,-0.80557895,0.33707023,0.76390934,-0.60252523,-0.7945473,0.96900225,-0.5072892,0.6149869,0.9841163,-0.93804884,-0.9172449,0.43490696,0.5201125,0.7829778,-0.009869337,0.1990819,-0.370965,-0.78817487,0.8679657,0.6928625,-0.15566206,0.5071044,0.15081906,-0.72870135,0.70767593,-0.9601269,-0.06331992,0.8616483,-0.4632218,0.39071727,0.18400192,-0.7441864,0.44329572,0.6610091,-0.6110103,0.074018955,-0.9278381,0.013439417,0.8066461,-0.904078,0.25769615,-0.14372921,-0.5764053,0.44147086,0.9620135,0.097429276,-0.6391003,-0.5781419,0.59297323,-0.42207146,-0.12816215,-0.21295619,-0.5416982,0.44687557,0.52429986,-0.21281171,-0.66395974,-0.99112916,0.22503304,0.33139348,0.13406777,0.06361675,-0.28748155,0.15768433,-0.22333908,-0.19479895,-0.051246166,0.2471497,0.011940002,-0.71004677,-0.24840307,-0.4828725,0.23505759,0.49239254,-0.058266163,-0.818388,-0.20850039,-0.6424334,0.7452307,0.12885165,0.12580085,-0.612118,-0.67676306,-0.06902194,-0.3307122,0.93205297,-0.03792819,0.57441187,-0.38410145,-0.41835076,0.914003,0.76453036,0.44283327,-0.92327005,-0.17074159,0.6595018,-0.6234033,-0.8388194,0.96357304,0.51627463,0.8940312,0.46070313,0.9008939,0.66657305,-0.25353312,0.5367391,0.7978523,0.8101888,0.79759693,-0.21386886,-0.17839766,0.7431731,0.69060636,-0.8475446,-0.08459836,-0.80965275,0.12505911,-0.0634015,0.24550532,-0.5900229,0.8552854,-0.10812092,-0.012710301,0.42415097,0.827391,0.28534517,-0.49556234,0.8382162,-0.39897862,-0.70359516,0.99299645,-0.27866864,0.4823079,0.23887753,0.061842203,-0.22150564,-0.18390036,0.8455235,-0.46386358,-0.32073745,-0.9584524,0.65723383,-0.20756432,-0.7384682,0.18434215,-0.7404588,0.06629176,-0.24918997,0.27690035,-0.6601995,0.7212069,-0.30877143,0.0946883,0.39010492,0.5331434,-0.6508933,-0.922858,0.5009141,0.20253229,0.040105343,-0.36685467,-0.80224586,-0.3968892,0.46854186,-0.19130997,0.636877,0.5190593,0.8377074,0.50936735,-0.3011116,-0.61436474,0.18613337,-0.66781205,0.37587598,0.7356274,0.28795177,0.27720958,0.52269286,0.09475574,-0.9789651,-0.55557835,-0.6065382,0.29170704,0.44498524,0.9039687,-0.8550138,-0.41471314,-0.25482488,0.81101894,-0.14299536,0.43636775,-0.9759631,0.36979347,0.35062444,-0.376008,0.26890838,0.5309467,0.78386134,0.19707921,-0.2946754,-0.59179515,-0.9818239,0.067512654,0.21860231,0.12739107,-0.15241574,-0.29334664,-0.24879956,0.66966033,0.68991446,-0.10358701,0.38832042,-0.85949343,-0.33254972,0.64267516,-0.5451174,0.7261052,0.7658498,0.7418599,-0.4444945,-0.11881308,0.39742133,-0.9593586,-0.9243927,0.103769034,-0.93814737,-0.588384,0.022862835,-0.7279919,-0.92463887,-0.5197805,-0.60349584,-0.90034574,0.13027482,0.68671155,-0.7256483,-0.9686329,-0.09432555,0.5320064,-0.053428475,-0.8227959,0.41844845,0.42916656,-0.8654666,-0.9648628,-0.4640813,0.12709069,-0.82360387,-0.82013345,0.048615888,0.81079006,-0.6898868,0.0064340895,-0.23434141,0.79611236,-0.5572614,0.973418,-0.25100848,-0.56223893,-0.35373616,-0.6318623,-0.7311936,-0.16399895,-0.17979127,-0.69262743,0.11687336,0.58089393,-0.3877256,0.24287678,0.06698182,-0.19740367,0.3868296,0.09987879,0.26674294,-0.122484446,0.31453395,0.24523805,0.44768932,0.4492079,0.05325813,0.016541887,0.8448289,-0.98330396,-0.19221132,-0.76423776,-0.2770271,-0.045586776,0.63456583,0.14486125,-0.08526767,-0.78399456,0.13380457,0.5165815,0.77083564,0.57910204,-0.63321775,0.41186988,0.24599594,-0.108196974,0.3388586,-0.21028876,0.77025723,0.7947078,0.3472848,-0.9292905,-0.43078607,0.5617328,-0.59926486,0.3080999,0.21195275,-0.14171718,-0.9666579,-0.4143497,-0.98588437,-0.121123545,-0.108401865,-0.7721088,0.5139643,0.53956354,0.80168396,0.8792271,-0.58395445,-0.5023974,-0.9142928,0.62214917,0.5072291,0.010221958,0.3073578,0.7254989,0.86690307,0.6811006,0.8660124,0.91808236,-0.86656713,-0.5869612,-0.4798186,-0.5403661,0.7748832,-0.028457498,-0.17375588,0.32720318,0.81177163,-0.9737743,0.5004431,0.7704005,-0.96419555,-0.23632905,-0.73694414,0.30510622,-0.5574881,-0.9581492,-0.1867925,0.38549256,0.0036094189,0.869539,-0.38832998,0.28948498,0.30676126,0.77188516,-0.28380892,0.6994653,0.6914591,-0.9921185,0.6070463,-0.05513272,-0.26187405,-0.73517185,0.86876845,-0.4187364,-0.8192075,-0.7817435,-0.9580326,-0.11663734,0.052721966,-0.14360125,0.41684365,-0.19291121,0.02879623,-0.54410297,0.624645,0.56813294,0.5086849,-0.71047544,0.5341449,0.0463531,-0.36940813,0.29038692,0.41028756,-0.06903494,-0.014187362,0.5802657,0.33815652,0.87294036,0.7734811,0.91839546,-0.03222865,-0.5665065,-0.84021163,-0.41281125,-0.17222925,-0.48999518,-0.50408703,-0.7646831,-0.78201497,-0.39024138,0.47315887,-0.83555984,-0.95716333,-0.7573631,0.63596916,-0.4042101,0.21807146,-0.3445046,0.70607805,-0.99975157,0.03383469,0.44432563,0.8164735,-0.8884985,-0.657008,0.4437661,-0.70555776,-0.94114584,-0.14667071,-0.08636852,-0.21572556,-0.36931282,-0.75757635,0.26167592,0.00025813322,-0.92894965,0.40910608,-0.10571677,-0.88815755,-0.9448544,-0.049759805,0.5369655,0.81222796,0.49207664,0.13131022,-0.5480938,0.05112505,-0.91413,-0.24847564,0.77476275,-0.6135513,0.444102,0.7409955,0.5804046,-0.68742836,0.6555023,-0.35060805,-0.5334876,0.9349339,-0.13064341,-0.81723696,0.018398887,0.06279504,0.369529,-0.199873,-0.5207305,0.46625623,0.9940962,-0.73301506,0.0245454,0.6376331,0.880553,0.99798656,0.046347857,0.94312143,-0.50233173,-0.27864876,-0.4025448,0.33769086,0.6116801,-0.5883805,-1.021419,-0.28167027,-0.64681524,0.7695039,-0.4900945,0.5243651,-0.3317129,-0.18453936,-0.105087206,-0.43979242,-0.5198174,0.70770276,0.29698446,-0.79366106,-0.9863496,-0.64162284,-0.86505365,-0.56936,-0.4700439,0.09461093,-0.04433441,0.9818444,-0.6071303,0.8192816,-0.63867116,0.27616945,0.8731266,-0.20809352,-0.7133227,0.6531813,-0.77224183,-0.01463714,0.17227162,-0.04138565,0.8127735,-1.0101392,-0.47253406,-0.9300871,-0.31408456,-0.6192507,-0.0019363156,-1.0137248,-0.20941322,-0.87206155,0.5506542,-0.3228655,0.69638586,-0.83382154,0.06278825,0.55385184,-0.19875479,-0.5310259,0.9593004,0.8600817,-1.0101378,-0.91458213,0.46875396,-0.47262546,0.99419004,-0.07273857,-1.000746,-0.86501586,-0.40326703,0.35062376,0.15209752,0.37384868,0.16050665,0.30586347,0.40081546,-0.5127588,-0.9454895,0.6897639,-0.37738204,0.3779595,-0.9430022,-0.29437685,0.32911897,0.9031594,-0.8473828,-0.43349317,-0.0055222474,-0.78890926,-0.48638654,-0.15263258,0.53992057,0.68215543,-0.55096066,-0.8461544,0.34200418,0.10004398,0.8577877,0.710899,0.2665738,0.20249377,-0.6099838,0.9162286,0.072095044,-0.2289462,0.60509384,0.8386148,0.14022473,-0.091763735,0.20715022,0.13170218,-0.73595095,-0.4397812,-0.15665245,-0.45442703,-0.07842511,-0.32669884,-0.68220633,-0.49202436,-0.054496948,-0.077578835,-0.12563291,-0.34173447,0.5922589,-0.9381603,-0.8932889,0.8028111,-0.67311096,0.54882836,0.1431673,-0.98154825,0.62072194,-0.8100611,-0.78248155,-0.00196926,-0.93316483,0.95156336,0.96644044,-0.8762963,-0.7292762,0.9164591,-0.50942636,-0.1629684,-0.9453924,0.51395726,-1.0073572,0.84233856,-0.40313375,-0.73004824,0.096869804,-0.501796,0.6641139,0.64320153,0.1538608,0.79500586,-0.42870748,-0.74502033,0.04688705,0.7953328,-0.6257565,0.3710244,0.920391,0.5290023,-0.8090835,-0.11334014,-0.7206712,-0.94626856,0.6822612,0.91556525,-0.07201886,0.5506108,-0.6837218,0.4795046,0.7045443,-0.18158041,-0.08012759,-0.864482,0.84616977,0.912414,-0.47919014,-0.6660935,-0.25190774,0.21824928,0.84458524,0.054902364,-0.29594707,-0.7653064,-0.032332342,0.486617,0.8766787,-0.34032747,0.6193063,-0.89173913,-0.027767181,0.5132148,-0.4540174,-0.59753513,-0.82833815,-0.35102248,0.52552915,-0.21410108,-0.39084244,0.25329083,-0.59629875,0.15588687,0.68788767,0.1204266,-0.06891434,0.58293355,-0.42921346,0.8462082,-0.32501006,0.7656128,0.98360753,-0.44178626,-0.21108603,-0.9482744,-0.03798747,-0.43891,0.50710464,0.7893336,-0.60134387,-0.25167155,0.00015759468,-0.31087303,0.56301,-0.15863395,-0.33005786,0.7896633,-0.68799543,-0.9225066,-0.34203932,-0.8169392,-0.16993833,-0.85694414,0.28746572,0.7738518,-0.9994091,-0.5411396,0.18260965,0.19887143,0.5233078,-0.30662173,0.9504256,-0.029401302,-0.14606977,0.09186435,0.90561366,-0.9405644,-0.56882167,-0.21569395,0.33716702,-0.8373797,-0.51172924,-0.31239176,-0.041547537,-0.5304816,-0.63247085,0.76970816,-0.7186289,-0.4961176,0.2542696,-0.019522667,0.1421094,-0.9399786,0.41567016,-0.9791479,0.568762,0.44315255,-0.58776367,-0.25770593,-0.9564419,0.37040758,0.17585325,-0.60378385,0.71449614,-0.75275207,-0.93811893,-0.66858363,-0.22478032,0.26388288,0.385823,-0.65540934,-0.030048847,0.53253984,0.88743377,0.47045207,-0.06637049,-0.11250925,0.23280358,-0.9525218,0.44952536,-0.26986647,-0.22982407,0.7883401,0.605824,-0.8249272,0.62102556,-0.10582852,0.759048,-0.9756167,-0.16173577,0.6294944,0.78490186,0.054005146,0.12982059,-0.48389816,0.17489123,0.9541359,-0.76017976,0.19116545,0.9681959,0.9011419,0.6869247,0.36546993,0.9495387,-0.4205804,0.79185677,-0.14569712,0.88448143,0.5583956,-0.07382774,-0.5060985,0.64568114,-0.29580784,-0.78011584,-0.20070314,-0.5721278,-0.74700236,0.3848667,-0.8735237,-0.48686337,0.03564334,-0.6070931,-0.20651174,0.28477716,0.91639566,-0.35030317,0.23885274,0.5924344,-0.59379554,-0.9941139,-0.52948046,0.7237854,-0.16304302,0.31866956,0.79549885,0.05279088,-0.5555041,0.12408924,-0.32787824,-0.006603241,-0.20338726,0.33165717,0.93454933,-0.09061432,-0.6889317,-0.8891406,-0.26207995,-0.08231187,-0.7978046,0.37249637,-0.65886736,0.24879909,0.38608074,0.9016237,0.16627598,0.04799199,-0.50720835,-0.70873666,0.78247166,0.14121532,0.89919925,-0.7514638,-0.36017326,-0.78640914,0.6925659,0.20153192,0.14727986,0.4403053,-0.3975768,0.96477604,-0.3920803,0.85901594,0.5997617,0.8885162,0.8995912,-0.31572437,-0.0778451,-0.49693823,-0.21947598,-0.20592713,0.121678114,0.7395222,-0.7608793,-0.44045568,0.28039217,0.039784193,-0.100726604,-0.4165721,0.9988091,0.28794605,-0.27171496,-0.977654,-0.86921936,-0.44616997,-0.17276414,0.5171953,-0.82431155,-0.047907207,-0.9002497,-0.19902825,-0.14408064,-0.6549485,-0.7375972,0.70071435,0.031274557,0.9305756,0.6319022,-0.93423414,-0.40327573,-0.9009185,-0.6088953,-0.6962619,0.89503694,0.4844166,-0.6292869,0.8999855,0.78743845,0.58600116,0.638844,0.26841912,-0.000692684,0.043567277,0.27951893,0.86469567,0.8440801,0.097701155,0.59857935,0.08016779,0.7862361,0.19422223,-0.2505901,0.81880236,0.74713206,0.55671954,0.9008298,0.622612,-0.38460374,-0.32671595,-0.07864666,0.9472089,0.8329847,0.556506,0.4594664,0.21916476,0.6824926,-0.497624,-0.053617146,0.6454786,-0.49340907,-0.0011732761,0.49778363,0.5472396,0.50499743,0.7114029,0.33480972,-0.704461,-0.0039020162,0.7977358,0.2049847,-0.20043135,-0.40928888,0.89732194,0.2016623,0.8284452,0.73604965,-0.5063331,-0.46731782,0.8955207,-0.6092504,0.88768834,-0.563755,0.30344,-0.75604266,0.66113025,-0.32117894,0.95568365,-0.5788196,-0.71465683,0.5584399,-0.5425126,0.1626813,-0.81394506,0.1122694,0.5982828,0.40808484,-0.834697,0.5266908,0.19780445,0.40278125,0.99794316,-0.71964073,-0.11043024,0.9093852,-0.58435535,0.6753895,-0.41097492,0.8988219,0.49084923,-0.34003487,0.6020262,-0.25938,0.98188776,0.73196703,0.9205853,0.32462087,0.35966465,0.13322584,-0.08832641,0.36069372,0.55385125,0.51221395,0.02822684,-0.35224223,-0.74598986,0.9627781,-0.08600061,-0.5084252,0.90675473,-0.70077395,-0.8618579,-0.1800611,0.35417852,-0.87235165,0.59358263,0.90893495,-0.8611975,0.56699955,-0.31385696,-0.81017154,0.21901622,0.16491044,0.35274902,0.27441958,-0.68103606,-0.3400169,0.58240294,0.25776058,-0.26377466,0.36435217,0.6471994,0.43888593,0.51281655,0.123555996,0.24243575,0.14820985,-0.8183811,0.9348757,0.99760413,-0.07923007,0.784686,-0.8707867,-0.7477488,0.81324595,-0.4675992,-0.17840882,0.56709117,0.037584938,0.5598244,0.08315434,-0.54271907,0.50811356,0.4240658,0.9855635,0.050462067,-0.86837393,-0.66588885,-0.6132449,-0.66961163,0.16731608,-0.2490892,-0.4991507,-0.6353262,-0.31547368,0.865438,0.80108976,0.122231245,-0.93450904,-0.12067145,0.06975463,-0.40064728,0.4811916,0.371652,0.6479007,0.5372449,0.08426048,0.71299195,0.7962861,0.48301527,0.7851322,-0.35919136,0.43499872,1.0464053,0.41248468,-0.6849015,0.07344597,0.08248093,-0.25676686,0.042915057,-0.5786676,0.7175029,-0.42332146,-0.2821584,0.46638942,0.7771561,-0.7217138,0.43910953,0.88879085,0.17335454,-0.73186314,-0.36040038,-0.74288803,-0.8486812,0.022184387,0.118079916,1.0235219,-0.2279708,0.58746076,-0.4246184,-0.4191043,-0.3184223,0.26384702,0.73175275,0.95034826,-0.6079628,0.2116438,-0.41485244,-0.13781042,-0.20637344,0.53770447,-0.78228253,0.39287806,0.8867645,-0.6526866,-0.31581354,0.860469,-0.17199524,0.09381242,0.59407747,0.79667836,-0.86573195,-0.27855003,0.34540182,-0.030141259,0.5729402,-0.55779517,0.12352849,0.32178733,0.421036,0.58281696,0.23217408,-0.34566063,-0.10504811,-0.94560105,0.35482314,-0.82130253,0.60085785,0.90095425,-0.50081134,-0.46789098,-0.034680843,0.381047,-0.15757632,0.10563497,0.8161722,-0.43335167,-0.49332273,0.8483146,0.57201153,0.9135205,0.83364916,0.17277525,-0.3635952,0.44171265,0.3782949,0.19722953,-0.29345584,-0.13981196,-0.24568568,0.7889136,0.9552681,0.040941585,-0.3405784,0.7291072,0.4693552,-0.6407976,-0.23328471,0.8066137,-0.7532389,-0.32420683,0.7996719,-0.87161833,-0.64033794,-0.37398955,-0.32449925,0.6363542,-0.62104356,-0.47212338,0.9240972,0.7080713,0.7268698,0.9625889,-0.27124164,0.8531183,0.75906295,0.43738455,0.9077984,-0.30057633,-0.6349443,-0.7533246,0.5566897,0.30750144,-0.49707764,0.81069493,0.93201256,-0.054826736,-0.2617674,-0.25902104,0.94163704,-0.25612092,-0.6271048,0.6546506,-0.62103486,-0.28896883,0.7373398,0.5758455,0.5565331,0.54228204,-0.4879896,0.701234,-0.5531297,-0.8875354,0.556329,-0.007204842,-0.5367498,0.16219229,0.74612254,-0.15729497,-0.40148064,-0.8207382,0.49209455,0.06743252,-0.2543037,0.17239332,0.45644093,-0.00740695,-0.5303557,-0.9624232,0.9519105,0.43951303,-0.33918208,0.39581794,0.92425567,-0.5379729,-0.74691045,-0.14765087,0.25095102,-0.07856915,0.6414478,0.81560266,-0.6373428,0.6414161,-0.3455447,0.011226435,-0.24569863,-0.14851415,0.5591116,-0.19296287,0.28756553,-0.0022251606,0.45497155,0.3505292,-0.45439553,0.4735875,-0.23744154,0.5529213,-0.31869838,0.22329807,0.6337955,0.22513536,-0.19947487,0.3448105,-0.8522866,-0.75262785,-0.29766786,0.6764189,-0.07599829,-0.2283763,-0.72446126,0.82041085,0.6441086,0.6884176,-0.45180115,0.1905284,0.47676668,0.6521724,0.9665293,-0.23224854,-0.54518485,-0.71311235,-0.69693494,-0.67989707,-0.09330273,0.6393047,-0.33199558,-0.1289518,0.6027917,-0.33570743,0.83923775,0.61325264,-0.5216652,-0.47671837,0.2790673,-0.024719073,0.48574904,-0.5451323,0.09054952,0.06312955,0.8782301,-0.664197,-0.27179155,0.70800084,-0.50671655,-0.18692532,-0.7720299,-0.17188501,0.5878191,-0.51644063,-0.44779325,-0.8523004,-0.38488483,-0.17507513,0.09900688,0.21054184,0.76182634,-0.1445262,0.5090869,0.18025775,0.6418586,0.13991696,0.8612259,-0.19629006,-0.13412938,0.4170264,0.54473907,-0.3600838,-0.67417973,-0.3354043,-0.113090895,0.79061615,0.25620097,-0.3785898,-0.148343,0.57451797,0.9579549,0.3563888,-0.7311299,-0.37846184,0.38869667,-0.7544945,-0.95619607,0.12598312,-0.93394524,0.28856418,-0.010769667,-0.13565262,0.54555917,0.19302624,-0.5227853,-0.3635125,0.9199636,0.69891375,0.8419466,-0.023157274,0.7058516,0.068908416,0.34787145,0.018358702,0.18730596,0.66053766,-0.44831663,0.12482262,-0.790138,0.32820606,0.025874615,0.55258393,-0.32749486,-0.93211156,-0.19520229,0.9549403,0.4793213,0.512399,-0.5106418,0.74059206,-0.85355383,-0.7356593,0.561078,0.072791874,-0.7807992,-0.47399884,-0.44572067,-0.5216712,-0.88558185,0.56313306,-0.57699084,-0.7303922,0.6342239,-0.19596486,-0.0331525,-0.54778385,0.29378867,0.5559623,-0.85531306,-0.072322845,-0.64718246,0.6568555,0.21477637,-0.20431115,0.4716107,1.0049746,-0.13997853,-0.44025886,0.2392246,0.49542376,0.23903115,0.012656835,0.3177282,0.68880457,-0.86960876,0.94482774,-0.79606414,-0.42279136,-0.46541676,-0.36846432,0.60623163,0.3436478,-0.7215307,-0.9343748,-0.4435804,-0.1594069,0.4682672,0.21960878,0.93190074,-0.8962851,-0.8375713,0.13492586,0.20691317,-0.9154235,-0.7664126,-0.4841563,0.6853226,-0.580185,0.1651497,0.46850395,-0.94388217,0.016235953,-0.014237503,-0.49826804,0.8494262,-0.8096423,-0.75367945,-0.36633456,0.18617103,-0.5290432,0.07743621,-0.46424246,-0.4327345,0.53252435,0.23208523,-0.88828826,-0.34157017,-0.13309287,-0.86908513,0.47070488,0.2852703,0.6492067,0.40361726,0.32950363,0.22101589,0.69510037,-0.78997123,0.614498,-0.27646407,-0.46350342,0.9830341,0.8623825,0.19636136,0.021355642,-0.16928242,0.99929154,-0.5943404,0.855385,0.9461584,-0.9343114,0.8470173,-0.95511246,-0.2685566,0.9380944,0.13358998,-0.41862154,0.43873763,0.5008364,-0.50963736,0.13751315,0.42667317,-0.06659986,0.44295406,0.0635941,0.29871082,0.9257092,0.03997206,0.05574475,-0.635409,0.7821916,-0.8562981,-0.77636456,0.6165374,0.11495388,-0.341609,0.58835745,0.34193063,-0.6651726,0.7437246,-0.71259356,-0.3007717,0.0050313473,-0.048364162,0.07193947,-0.7747419,0.9577079,0.46676397,-0.18986297,0.36210847,0.8400955,-0.09835267,0.21647358,0.61045694,0.9588039,0.8335783,-0.106281474,-0.42974657,-0.61123145,0.5526902,0.9629197,-0.7290061,0.9145207,-0.8546853,0.12348986,0.5897865,0.20457244,0.05054927,-0.051402092,-0.6446388,-0.6487384,-0.53783584,-0.0068182945,0.8806529,0.08463287,-0.1345849,-0.5426829,-0.71389985,-0.9145689,0.05188918,-0.8595567,-0.3423257,0.25489253,-0.35034186,0.23380558,-0.6417104,-0.56694543,0.3625609,0.7981303,0.6913811,-0.2629333,-0.8436651,-0.9627671,0.39490724,0.19037437,-0.022347927,0.2775352,-0.21184707,-0.30622435,-0.7612035,0.6211579,-0.40137076,-0.9912858,0.13705301,-0.89387965,0.52058005,-0.7655237,-0.14184952,-0.5348046,-0.97659373,0.60498613,-0.010135174,0.75713253,0.33517075,0.29854608,-0.8655038,-0.549973,-0.26013565,-0.57600117,-0.8305888,-0.73095226,0.10504222,0.9904809,0.38677382,0.4929142,0.01766777,-0.7108228,-0.53279376,0.06170106,0.3166511,-0.004677514,-0.6878557,-0.82795525,-0.78259104,0.28973436,-0.01066975,-0.90090007,-0.0046977317,0.28539157,0.37681744,-0.56842494,0.51320916,-0.8202456,0.22212072,-0.5625566,0.23220275,0.56098723,-0.66230375,0.9833834,-0.14137316,-0.5769448,0.6996937,0.5914078,0.25050902,0.9488559,-0.07785382,-0.10940802,-0.37118915,-0.6090458,-0.7573792,0.6756686,0.661151,-0.59747744,0.60258234,0.7144421,0.122239195,0.2713294,0.72824204,-0.0069287983,0.13244465,0.48490515,-0.40040416,-0.33849746,0.20268255,-0.2666872,0.6568826,-0.25953072,0.25740618,-0.8769004,-0.6728504,-0.38355064,0.39602065,-0.90284634,-0.62031144,-0.59336096,-0.45292976,0.035770055,0.90582955,0.35075626,-0.29135045,0.7250737,-0.19854844,0.9265414,-0.4315261,-0.38046473,-1.1493702,0.7192463,-0.7037322,-0.9782775,0.27090558,0.63163334,0.06454738,-0.32923055,-0.9306652,0.35450447,-0.89165574,0.40967453,-0.9816756,0.6557007,-0.38156962,-0.4648292,-0.5974032,0.69081724,-0.4531082,-0.6820709,-0.24121508,0.5541987,0.750947,0.86854774,0.17089583,1.0492681,-0.04470268,0.17231049,-0.003483212,-0.8274798,-0.8234254,-1.0078957,0.16349156,-0.9577361,-0.04619046,-0.29877916,-0.12089787,0.14289396,0.70310634,0.08714119,0.3144554,-0.461688,0.5929327,0.25443554,-0.55781287,0.38544473,-0.82764274,-0.5131484,-0.50776094,-0.59466535,-0.039042123,0.088041775,0.2565929,-0.5048765,-0.6503361,-0.7312886,-0.43503803,-0.8649366,-0.0534827,-1.6455172,-0.37027842,-1.044615,0.5486134,0.07379875,0.39737055,-0.41109225,-0.41147494,0.38171434,0.83287597,-0.8312552,-0.5361593,-0.22799633,0.15485586,0.84875906,-0.6229638,-0.08937236,-0.9668383,-0.8471123,0.67769015,-0.68442523,-0.071789615,-0.87299144,-0.21078837,-0.16619492,0.44879413,0.17647517,-0.6329186,-0.26258162,-0.69960874,-1.388901,-0.26885897,0.8746828,0.62983555,-0.46082696,-0.10228198,0.18225713,0.12644866,0.6242275,0.06946897,0.42322466,-0.5931605,-0.7538334,-0.7737512,0.7368143,-1.029369,0.66179866,0.67377573,0.4859336,-0.5735509,0.9301749,0.9661024,-0.017382232,0.5911832,0.61152035,-0.40772825,0.7194975,-0.6811031,-0.8659567,0.56716174,0.51143086,0.42637578,-0.7071175,0.44982523,0.078193046,0.0017968263,-0.61371887,0.46725532,0.79701966,0.85784596,-0.686417,-0.3412184,0.024760772,0.23781437,0.27440742,0.39883006,0.5738792,1.1164408,1.018362,0.39126787,-0.85524595,0.1822017,-0.58738846,-0.09539705,-0.8321142,-1.5994987,-1.7428168,-0.78366804,-0.38307527,-0.9745766,-0.660566,-0.19775732,-0.8318648,-0.038505875,-0.76817536,-0.65562105,0.7114597,0.53513825,0.110398,-0.1580563,-0.58240914,0.7861171,-0.18129815,-0.13329089,-0.674486,-0.57785743,0.46805203,-0.1489742,0.5698503,-0.35150632,-0.40726176,-0.4429935,0.39467502,-0.6907117,-0.5624499,-0.42125353,-1.016214,0.7833331,-1.2942927,-0.5773384,-1.0860124,0.049252655,-0.7809048,-0.24659887,-0.47230798,-0.41709784,-0.7848627,-0.42231837,-0.1203078,0.3055939,-1.1410996,0.7825956,-0.8181554,-1.0016999,0.5063584,-0.32271254,0.7354544,0.74023896,0.68770695,-0.6054542,-0.2452585,-0.4699714,-0.09878605,-0.45881188,-0.5705519,-0.71764934,-0.25651687,-1.2334287,0.53689873,0.37692815,-0.27260256,-0.42855436,0.48286852,0.26503083,-0.16801761,-0.4023026,0.65421295,0.6563396,0.41371477,0.26555192,0.64807147,0.49830285,0.84458095,-0.02981991,-1.2323841,0.0007725129,0.21138136,-0.4596358,0.4582838,0.5275661,-0.28806442,-0.27744287,0.5711231,1.1057411,-0.712771,-1.1157591,0.07834218,-0.6536714,0.3474923,-0.5906882,-0.22677504,0.71221584,0.15127744,0.33023125,1.0213088,0.9208023,-0.23559143,-0.9122178,0.44309652,-0.49359253,-0.29154134,-0.50166696,0.20276417,-1.4483492,-0.6690812,0.67955965,-0.38595802,0.393507,1.308932,1.4489261,1.1018203,-0.17280106,0.1754744,0.3887266,0.20875345,-0.7001409,-0.22259815,-0.18565619,0.3695811,-0.6923996,0.6024341,0.06396172,-0.44428357,-0.60446876,0.13968602,0.020047434,-0.7864503,1.1159743,0.22212541,-1.2953583,-1.3216921,-1.1383655,-0.72929776,0.29383248,1.1535034,0.42293894,0.97507733,-0.029421683,0.7893567,0.6877207,-0.023533104,-0.3837874,-0.91483605,0.0432348,0.5724053,0.58698106,-0.74006677,0.9423321,-0.14432548,-0.18947245,0.936517,0.16988803,0.17794135,0.19863705,-0.018438652,-0.9448248,-1.3598598,-0.75667816,-1.4148016,-0.9400464,0.45298266,0.6907806,1.3719964,1.6963396,0.06449336,0.8935088,1.090565,0.8804654,0.49348536,0.46251523,0.5840741,0.543795,0.11825525,-0.44558,-0.9886045,0.12762664,0.61425364,-0.29225114,0.9312718,-0.7904556,0.10285176,1.2234968,-0.10860534,0.4506594,-1.3748664,-0.16434908,-1.6353732,0.68500805,1.3758239,1.7489551,0.9623263,0.56469345,1.1447374,0.609836,0.88874245,0.016309733,-0.63536763,0.30590966,-0.48917672,0.22960459,-0.52788156,-0.22637464,0.41316986,0.5610761,-0.07481605,-0.5739772,-0.54496425,0.28257996,0.55287224,0.28989092,0.19979745,0.71613497,-0.22014879,-1.2496912,-0.66401917,0.9968407,0.41637406,2.0311332,2.1491404,0.12715136,0.9115256,-0.02570164,0.34430844,-0.28467715,0.35002884,0.64756256,0.45831335,0.70699203,-0.25275388,-0.19732356,0.16954736,-0.9751646,0.12100945,0.30432552,-0.9979448,-0.23608959,0.62100494,-0.47802126,0.23004232,-0.75886726,1.2430817,1.211287,0.7689175,1.7985175,1.9173888,0.39688626,-0.05547266,-0.09562406,0.55162454,-0.5406675,0.17605281,-0.21705301,-0.7467396,-0.39031148,-0.08680135,-0.782841,0.36262846,-0.5211949,0.98394525,-0.056001507,-1.059326,-0.94559044,0.058463108,-1.6704746,0.4879775,-1.0250999,-1.0768281,-0.93488723,0.581066,-0.2318188,1.5847704,1.2157587,1.1082078,-0.045287084,0.63543695,-0.84544736,0.043610215,-0.13048825,0.48146892,0.3300023,0.30829152,-0.9456955,0.8892816,-0.5584854,-0.37217683,0.3781407,0.051139485,-0.8513644,-0.16764301,0.3521074,-0.51646805,-0.81882894,-0.41584185,-1.1143906,-0.96693105,-0.58750314,-0.6311325,0.52269894,-1.2925184,-0.07524078,-0.9447639,-0.34049627,-1.091375,0.21395656,-1.1910449,-0.60354793,-0.7260097,-0.98715913,-0.79070187,-0.3162046,0.92263824,0.6885379,0.008764458,0.028981686,0.35968632,0.5707152,-0.712801,0.6452891,0.38496265,-1.3143651,-0.9970179,-1.4234535,-0.69124347,-1.272032,-1.1144319,-1.8894908,-1.1326147,-1.0705557,-0.6138998,-0.10758693,-0.8127108,-0.47581574,-1.4599283,-1.8412955,-0.27518848,-0.02884636,0.028303815,-0.14636415,-0.2739575,0.6143775,-0.28940436,-0.7715053,-0.42686212,0.38358727,-0.0852614,-1.2886544,-0.38375866,0.054204382,-0.85111594,-0.60739905,0.15989342,-0.6425821,-0.5493674,-2.003125,-0.5926396,-0.15221773,-0.47119483,-1.1657392,-0.24846974,-1.5828145,-0.026941797,-0.16449936,-0.2595203,0.41048193,0.38106552,-0.002744224,0.2236479,0.8019973,-0.35451195,0.034616165,-0.6246228,-0.21840277,-0.592309,0.16240644,0.07217272,-0.89961106,0.4865519,-1.2017595,-0.023937,-0.23188594,-1.6967202,-0.37724662,-0.95669806,-0.9690293,0.17793302,0.038578264,-1.851456,0.16795363,-1.0977051,0.5143093,0.057581708,-0.7407431,0.714803,-0.3335082,-0.04748131,-0.36399883,0.5337978,0.24563456,-0.63570905,0.15735063,-0.32354945,0.06123154,-0.65166384,0.9340142,-0.20490038,-0.10207218,-0.26571354,-0.06166855,0.12040036,-0.7126084,-0.59728384,-0.6636009,0.3748443,-0.18675187,-0.4112875,-0.024890369,-0.82043546,0.16560587,-0.46047732,-0.37001747,-0.7434544,-0.7906641,-0.83221394,-0.29440844,-0.024202585,-0.89556956,0.048750162,0.25546482,0.66797674,-0.34480914,0.37159002,0.3246516,0.23064011,0.3084388,-0.21454975,-0.9129955,-0.91011274,-0.8722759,-0.174017,-0.08257881,0.02546719,0.3862003,-0.07786838,-0.96710217,-0.4562033,0.40810996,-0.8744352,-0.04132647,0.8708788,0.77592725,0.35710663,-0.38482866,0.91568804,0.2607758,-0.09615445,0.39495823,-0.8690925,-0.6758162,0.85108423,1.0962715,-0.29046017,0.6983905,-0.484479,1.0948853,0.49932107,-0.06940213,0.11430357,-0.09983409,-0.25809568,0.08637793,0.42733657,0.5127081,-0.6627755,0.15349098,-0.21360277,-0.23212865,0.6458378,-0.80721766,-0.15215924,-0.15103689,0.43121338,-0.9792175,-0.869323,0.73747635,-0.39238593,-0.5508851,0.11103367,0.16928269,0.37731093,-0.6148958,0.6711587,-0.6892587,0.72291714,0.036470164,-0.560023,-0.0354631,0.18091777,0.692838,-0.5318629,0.39670202,0.43491307,0.6079213,0.5353786,-0.1939344,0.04666877,0.87247443,0.10741819,0.46619105,-0.3108585,0.15725517,-0.4713068,0.34009743,0.96181846,0.5625669,-0.5029364,-0.13951685,-0.111528076,0.3153127,-0.12930842,-0.12923129,0.10374714,-0.5759172,-0.57918906,0.1817241,-0.44394124,0.5086338,-0.075574644,0.14902918,-0.009450767,0.18268313,-0.48106652,-0.7359753,0.9366835,0.42818308,0.6088214,-0.46328735,-0.32426286,-0.9383061,-0.99723697,0.009637594,-0.6603377,0.17282581,-0.20719671,-0.6587219,-0.5067742,-0.30728436,0.54164886,0.7851813,-0.36121893,-0.22719312,0.13443589,-0.3017447,0.24914145,0.9979391,0.084647655,0.46076417,0.0823822,0.19411802,0.32842493,-0.6912899,-0.98819065,0.05169177,0.011726618,-0.58376837,0.8125615,-0.28762603,0.7699094,-0.12526774,0.36758184,-0.9409025,-0.5919709,0.5125072,0.8484034,0.1390726,-0.6643114,0.56838506,0.44417062,0.8746834,0.44067603,-0.69635963,0.62578595,-0.4348474,-0.23567575,-0.15481186,0.7591121,-0.29793465,-0.7990555,0.59082735,0.07818365,0.27137113,-0.8473511,0.055921555,0.94469523,0.20307517,-0.98701096,-0.64520764,0.7914579,-0.4982295,0.99953055,-0.3500926,-0.29969105,0.37493637,0.07852864,0.08874764,0.24169332,0.42319396,0.56476456,0.02883507,-0.6478089,-0.34571835,0.88549995,0.16108051,0.43363377,-0.9686025,-0.93840045,0.88153166,-0.0054892814,-0.69120073,-0.86852956,0.22984648,-0.39695668,-0.7087529,0.25700974,-0.98058677,0.3484526,-0.32927188,-0.6846301,-0.5824771,-0.7390795,-0.22933412,0.02199862,-0.5300047,-0.6163923,-0.30555975,0.47008723,-0.6769634,-0.44601592,-0.4889461,-0.16028272,0.81875277,-0.52888644,1.0737664,-0.29844287,-0.6755845,-0.30677488,0.29214,-0.36057714,0.48730206,0.61980796,0.95032954,-0.8712995,0.7536293,0.20978975,-0.30457246,-0.38075325,0.32784587,-0.39756432,0.2393316,-0.6816567,0.27688137,-0.25719613,0.13289687,-0.55871403,-0.15981549,0.32951483,0.7345647,-0.17143022,0.9773043,0.97405076,0.038808003,-0.40936399,-0.13212875,0.2130717,-0.26928434,0.8034434,-0.7094279,-0.7500119,-0.92157817,0.8301666,-0.358652,-0.80772936,-0.8279851,0.82061714,0.25772372,0.26368397,-0.5538496,0.86656106,-0.9045574,-0.86945593,0.60579324,-0.20852855,0.035250947,1.4921172,1.9239885,1.1723535,1.7638007,0.6022685,1.4413928,0.7890511,1.553048,1.1184165,0.015308988,-0.14337368,-0.8491811,-0.8546915,0.74714947,-0.18341821,0.32345474,-0.3270046,-0.17377193,-0.56214994,-1.0128927,0.030205643,-0.25763193,-0.44741973,0.12858337,0.24748617,-1.1363693,-2.0115557,-1.1795655,-0.3724268,-0.21624725,-0.55177015,-0.007818751,-0.1514677,-0.23851246,-0.07336345,1.154303,1.0148628,0.74877447,0.3871275,0.49461198,0.93475515,0.8234291,0.9592423,-0.1361536,0.9128622,-0.24082756,-0.87634206,-0.87843496,0.12147262,-0.23560797,-0.41701466,-0.376151,-1.5406166,-2.4948602,-2.208873,-2.4832757,-3.0633798,-3.339744,-2.3865738,-0.8843161,-1.0491939,-0.38051933,-0.00581467,1.2547657,0.8982544,0.37668005,0.42289832,-0.27636555,-0.42771015,-0.23791075,0.23616324,-0.86076164,0.77584946,-1.0634004,0.4931174,-0.8798192,-0.37374306,0.06223284,-0.42196023,-1.5146866,-1.9176958,-2.4811807,-2.8712115,-4.0492797,-3.166586,-2.210894,-0.96510845,0.018635277,-1.1379237,0.31329423,0.49758562,0.5385974,-0.31334558,-0.27227607,0.88377184,-0.635642,0.61061996,0.9199655,-0.5134384,0.028546989,-0.7200529,-0.67708594,0.023729622,-0.07953766,-0.35926393,0.10709303,-1.5649987,-1.4872802,-0.60971576,-1.8093553,-1.5668083,-3.7132907,-1.03333,-0.719222,0.679429,-0.44221163,0.11096177,0.019829908,0.38930112,-0.9877034,1.0170275,0.0037455983,-0.01969621,0.49212325,-0.44829807,0.052940223,-0.7636569,0.6866753,-0.9799977,-0.041836873,-0.9655755,0.07404153,0.31665316,-0.04972635,-0.8897722,-1.8929904,-0.027075524,-0.09090231,-0.60788697,-1.5829773,-0.30375737,0.5912839,-0.40546602,-0.9635527,-0.78212833,-1.507149,-1.0156518,0.059310824,0.7477263,0.92803156,0.92409545,0.09541176,0.70033807,0.25761184,-0.4965785,-0.14194529,-0.16601096,0.053316843,-0.43870446,0.095383614,-0.32640204,-1.1383832,-0.35619694,-0.3310173,1.3586755,1.7114042,-0.019326996,-0.22897907,-0.24712828,0.15155606,0.4194306,-0.33714634,-1.9637492,-0.7344184,-0.8637406,-1.5586413,-0.7812496,-0.94626945,-0.2548827,-0.35352087,-0.6339328,-0.7798538,-0.9081541,-0.6226976,0.72749543,-0.6703457,-0.43896085,0.5332122,-0.85814893,-1.2265736,0.8491285,1.1737962,0.90159076,2.3012493,1.521216,-0.25803772,-0.96535605,-0.18493657,-1.4785056,-0.6037636,-0.55978096,-1.0796452,-0.6672372,0.11003103,0.21648994,-0.0067057377,0.82571566,-0.21435775,-0.3288938,-0.46258807,-0.34538135,0.91939825,-0.7703009,-0.94613343,-0.45597455,-0.49388516,-0.49920076,0.4025257,1.0193347,1.3669366,1.9231791,2.306197,1.7182176,-0.526387,-0.10707844,0.736809,-0.45980725,-0.7239834,-0.9111407,-0.4220334,-0.26322544,-1.2435019,-0.46910575,-0.38549384,0.41091987,-0.6433785,0.6641481,0.8102474,0.056820128,0.5848919,-0.5694191,-0.052738834,-0.60649115,-0.10219907,0.5838867,1.4561138,1.938989,0.66813,2.0989614,2.363334,1.2918755,-0.5520492,0.89930636,-0.22610182,-0.5120043,1.0976194,-0.40878394,0.64403063,0.5346763,0.62078184,-0.949288,1.0685575,0.14150551,0.20129398,0.4520435,-0.16716361,-0.76989084,0.32473984,0.02860609,0.21443453,0.69830817,-0.031732056,0.974407,0.7162474,0.49247772,1.0375698,0.9614882,0.35148588,0.3906555,1.8381519,0.9680241,1.7013862,-0.34071523,0.81490725,-0.21010095,-0.32328063,0.17406079,0.27767897,0.47349188,-0.35228994,-0.38830897,-0.7693941,-0.033081114,0.91021824,-0.4726275,-0.1561561,0.40701506,-0.348323,0.60901743,-0.5096626,1.0607516,1.1610978,0.5549766,-0.9701289,-0.21736032,0.9180958,2.4200687,1.2692217,2.1514196,1.3086479,1.045572,1.2371296,-0.115710415,1.3643231,0.9320144,0.2620905,0.53089887,0.27098402,0.6808335,0.23097488,-0.85716295,-0.77003145,-0.6171376,-0.31825066,-0.5406556,0.55909234,1.157491,1.6387757,-0.19632182,0.3057289,-0.87525994,-0.09962466,0.32431626,0.32934916,-0.39612228,0.91463554,1.3347837,1.3664917,0.31423196,0.23308186,1.0868315,0.062248275,0.28353027,0.49048015,-0.052995175,-0.5196385,-0.71935874,-0.45806903,0.7582186,-0.11051621,0.41612598,-0.43277407,-0.8319711,0.850726,0.34233975,-0.17465849,0.76704025,0.77007735,0.28888986,-0.34399655,-1.0450366,-0.07510705,-0.045248225,-0.45486286,0.944965,-0.27716762,0.02003753,-0.010844353,-0.43363753,0.62833685,0.5747359,0.17082848,-0.28675422,0.24621396,-0.57789785,0.97346944,0.8996342,-0.0031029535,-0.86207384,-0.4527772,-0.6711503,0.03846031,-0.022742717,0.7861256,1.2248673,-0.013370295,0.15341122,-0.58611685,-0.48795974,0.9869943,0.6029982,0.40451935,0.06726078,0.24729303,0.6794547,-0.9555902,-0.6778109,-1.0519102,0.48292246,0.88668007,-0.23296517,0.17683427,-0.2866349,-0.46486995,0.06271904,0.4623084,0.7274342,0.8863315,0.43982637,1.1467618,-0.5491519,-0.24768578,0.15719402,0.6408564,0.1278072,-0.30790374,0.41745615,0.6958683,0.7056736,-0.30749705,-0.36886454,0.14238472,0.050237834,0.011214766,-0.4549182,-0.17314248,0.7492188,0.15705183,0.549043,-0.2824057,-0.90132016,-0.79243,0.3481567,0.41295263,-0.17075863,0.5062915,-0.52828205,0.18304992,0.86870867,0.80747485,1.6062028,-0.005731999,1.0023562,0.13578343,-0.78655654,0.2075031,-1.087228,-0.75903195,-0.051540878,0.22899348,0.15588431,0.76428753,-0.48387223,-0.7187635,1.0971868,-0.7955625,0.41282052,-0.92040396,0.9532342,-0.19380963,-0.110064246,-0.2555566,0.8089326,-0.81814176,-0.5955482,0.9283102,-0.19873606,0.6804626,0.33180663,0.6210212,-0.76016325,-0.26309285,-0.18718502,-1.2370926,0.041422058,-0.16895574,1.1875407,-0.20565945,-0.12831566,0.29898942,-0.2336629,0.5568246,0.5572054,0.6541749,-0.87622875,-0.17262651,0.8443436,-0.63786453,0.526896,0.31925082,0.5665581,0.55071735,-0.72030604,0.2917298,0.6472726,0.011808958,-1.0625088,0.49744105,0.95542866,0.09619123,-0.8063832,-0.8180789,-0.42852482,-0.18264148,-0.59659314,0.013746934,0.36110824,-0.28942943,0.4159342,-0.11864799,0.81365955,-1.1490464,-0.8190137,0.6725734,0.118290186,-0.2172781,0.14112282,0.6293516,0.85949326,-0.6962391,-0.34869775,0.30482355,0.67891306,-0.13895103,-0.92959034,0.29872483,0.9506143,-0.41403055,-0.48282176,-0.76531905,-1.0428408,-0.92522746,-0.8038667,-0.72257954,-0.43183205,-1.1388686,-0.86728615,-0.03539306,0.33613318,-0.19301267,0.46525455,0.9673051,0.25602597,0.98933965,0.06697774,0.6958127,0.6833105,0.76822156,-0.98922116,0.05704333,0.2229183,0.2637085,-0.6900363,-0.84082586,-0.22104725,-1.6525073,-1.9253736,-1.2322235,-1.867232,-1.7818474,-1.7262378,-0.69951725,-1.8591903,-1.0403051,-0.79847974,0.24156442,-0.4121339,-0.050438304,-0.55478555,-0.2905267,-0.35428393,-0.0893733,-0.69713473,-0.88152647,0.41285372,-0.39289713,0.11506183,-0.93778354,0.52290267,0.25513542,-0.68436307,0.7848804,-0.7145035,-0.23127401,-0.38139075,-1.3941139,0.2718637,-1.7867277,-1.1451981,0.10666897,0.2639368,-0.7880321,-1.5875299,-0.51221406,-1.0009251,0.6210544,-0.37627453,-0.97948337,0.65381384,0.5198021,0.15945077,0.06330061,-0.53009224,-0.5889354,0.60314846,-0.24604246,-0.46184826,0.72259605,-0.9941344,0.9907176,0.05770065,-0.65634745,0.24068372,0.24787638,-0.38636237,-0.1598317,-0.73638755,-0.68522,0.7581513,-0.6495968,-0.25856382,0.57941824,0.48317614,0.31848785,-0.80094886,-0.55647326,-0.26785922,-0.041357994,-0.7805078,0.47211027,0.99377394,-0.15657401,0.53865814,-0.46698833,-0.7008636,-0.2699983,-0.87941384,-0.42382288,-0.5379858,0.89372563,-0.9094007,0.95058036,-0.1603961,-0.19892669,0.6559286,-0.23413515,0.71042037,-0.34209943,0.56053114,0.68028355,-0.3439896,-0.7229099,-0.48152876,-0.01688695,-0.88138556,-0.8788302,-0.61392903,-0.13348913,0.19694519,0.51640344,-0.922621,-0.4468067,-0.06568844,0.76525664,-0.18354955,-0.90518594,-0.35006553,0.5528335,-0.9584103,0.92275554,0.79226875,-0.38891858,0.54753906,-0.12223341,0.82325363,0.03721293,0.05068934,0.72273713,0.12831296,-0.76122814,-0.48249674,-0.28579688,0.073839664,-0.7851732,0.53348446,-0.6235676,-0.003493309,0.2554333,-0.932282,-0.8899517,-0.33166263,-0.5422709,-0.7474614,-0.62283725,0.6258299,0.7816331,-0.06385829,-0.77326083,-0.73266435,-0.8873761,0.11297462,0.5288752,0.45171848,0.31598973,-1.0333967,-0.76295906,-0.5808869,0.23624457,-0.7458499,0.8739527,0.87536937,0.09821701,-0.9392204,-0.6472101,0.5022211,0.8800446,-0.28076193,-0.39239046,0.45767027,-0.19167328,0.009470551,-0.11785243,-0.4226538,1.2205498,-0.4757037,-0.31066793,1.2535766,-0.57377136,0.67657024,-0.383365,0.14531468,-1.1396762,-0.66560274,-0.38412973,0.12636362,-0.6809783,-0.7636562,-0.9022435,-0.20383719,-0.92635936,-0.16944695,-0.68583417,-0.57461476,-0.09650818,0.9807533,0.28595576,1.0119525,0.039706293,0.09233828,1.0751325,0.0018935098,1.4836522,0.79387885,0.39726707,0.6694365,0.21723725,0.94726187,-1.0486736,-1.5221843,0.31544554,0.32335424,-0.25344148,-0.9911358,0.46128926,-0.3798155,0.64232826,-0.99057806,-0.11829171,-0.5323587,0.27774572,0.60570526,-0.14525154,0.024265036,-0.8482587,0.24273928,0.6092896,-0.19997667,-0.30598035,-0.4915545,0.70513415,0.5027434,0.7892576,-0.2365992,1.7953441,0.00036187787,0.6677222,-0.8414999,-1.3118579,-1.1855509,-1.1293609,0.12574397,-1.6594372,-0.23362651,-0.6315632,0.87196445,-0.05874012,0.42396572,0.44548416,0.29300928,0.7469124,0.5734223,-0.4343267,-0.64805824,0.82213694,-0.10369902,0.9800325,-0.3048108,-0.45130256,-0.09916393,-0.45988363,0.51578474,1.4425687,1.2982961,2.2705328,-0.2019467,-0.03288474,-0.4152374,-1.3270702,-0.40450037,-0.81634593,-0.4187744,-1.4922915,-0.7802666,-0.044925306,0.8908575,-0.73940206,0.67968553,0.74232125,-0.70028734,0.7049829,0.24942215,-0.12047171,0.35086864,0.82808214,0.040368617,-0.17594495,-0.85632014,-0.94854975,0.036452807,0.62483335,1.4229183,2.1183612,-0.19314004,-0.07204155,-0.06493931,0.79861784,0.7518626,-1.7134887,-1.0036387,-0.45314062,-0.13013263,-0.17909795,0.49842253,0.4638095,-0.17657295,-0.78841347,0.1936465,0.8448602,-0.93447757,-0.9019139,0.40043592,-0.055480465,0.49762395,0.16887784,-0.8499065,0.14247163,0.5673757,1.8254818,2.7492206,0.9887973,1.1291823,0.8400739,0.78997374,0.50790954,-0.73295844,-0.5656369,-0.9138302,-0.10741879,-0.32593548,0.4762531,-0.39939508,0.540433,-0.98557144,0.70045245,-0.045759883,0.7858331,0.6100352,-0.026289044,-0.14892842,-0.2925256,-0.65360904,-0.44618157,-1.1428943,0.16406013,0.20610282,0.78733146,2.749992,0.864165,0.22438198,1.0522562,-0.0037502355,-0.030124864,-0.59391963,0.5846514,0.43376932,-0.038213644,0.3861289,-0.9376931,0.8295894,-0.23771334,0.88351095,-0.9007066,-0.35564536,-0.5078269,0.17727123,0.561242,0.15764964,0.40828833,-0.7488991,0.019139571,-1.027256,-2.1767592,-0.941905,2.086935,2.5106306,1.5047712,0.7626801,0.57121015,1.6200736,0.9349828,0.6444316,0.46832865,0.6899155,-0.50569284,0.7766727,0.58997524,-0.8074746,-0.83773386,0.3905723,-0.6777379,-0.5140647,-0.73728955,0.51576275,-1.1836249,-0.47157255,-0.58060056,0.66915065,-0.38682726,-1.4230793,-2.0467482,0.5912688,1.8451579,1.8229741,0.9485168,0.019204078,0.00013026192,0.19753958,1.3850015,1.0515306,-0.6928353,-0.6607312,-0.10122923,0.3059526,-0.065010116,-0.9954591,0.98585016,-0.113123536,-0.35245833,-0.5218246,-1.113194,-1.4394859,-1.1864183,-0.64489186,-1.5514302,0.5881742,-0.5556079,-0.75669765,-1.541236,0.33587453,1.6658396,1.3935311,1.3495698,-0.22543488,0.7291609,0.16227183,1.169486,-0.6518814,-1.0107301,0.035255745,-0.9480057,0.7384002,0.9490117,0.7864835,-0.3004501,0.11678867,0.28694835,0.6520487,-0.3966959,-0.75618994,-0.3826464,-1.2530464,-0.22714785,-0.6512646,-1.5331272,-1.249568,-0.62319034,1.6815575,0.9903185,1.0927017,0.7109157,0.56272227,0.87830454,-0.27035996,0.4338087,-1.3497306,-0.9574694,-0.06725874,-0.25283575,0.7577657,-0.5614206,0.1838077,0.7240895,0.44271982,-0.5230442,0.3085603,-0.7847566,-0.9379343,-0.9208036,-0.4335151,-1.2694312,-0.39022312,-1.6002336,-1.63956,-1.286996,1.9170434,1.9224919,1.8684231,0.5696981,1.2272286,0.81526655,0.049968753,0.20010102,-1.0010871,-1.591562,-0.97356844,0.28028524,0.47600165,-0.09394653,-0.48721728,0.40518993,0.9700991,0.30073816,0.28673273,-0.06732805,0.094728954,-0.87051994,-0.48068202,-1.1019131,-1.0313028,0.30632758,0.3419125,0.020338496,0.62329787,1.4901669,1.2991394,1.1263722,-0.005094678,0.44303495,-0.2800356,-1.1018292,-1.6532707,-0.40882626,-0.3645725,-1.042302,-0.5024855,-0.8084156,-0.81436354,-0.5239835,-0.008617954,0.611734,0.14694849,-0.8558787,-1.0260353,0.08023936,-1.8294439,-0.43551442,0.2199277,-0.25952867,-0.014949664,1.0021152,1.4066968,-0.034208573,0.5579017,-1.0295776,0.4727958,-0.65664,-1.9587686,-1.9405648,-1.0119163,-1.005026,0.4687118,-0.29368085,0.12520528,-0.65419847,0.39233422,-0.2595153,0.04346466,-0.8910967,-0.6655246,-0.67074984,0.78810763,0.24507399,0.4153196,-0.38940984,0.44863924,-0.05289556,-0.4782794,1.2663288,0.6180135,-1.0971376,-1.1594456,0.3474924,-0.91218925,-0.3092638,-0.78557783,-0.21514942,-0.6150614,-0.7853601,-0.84461266,0.63685626,-0.3136972,0.013082482,0.15334912,-0.13729295,0.27330238,-0.7282815,0.009891307,0.11156776,-0.12534383,-0.037459053,-0.6981723,1.1324683,0.11852935,1.4619975,0.014950818,0.096594535,0.679159,-0.13576025,-0.07252266,-0.32419553,-0.29354402,-0.22959276,-0.5698285,-0.9705171,0.81426454,0.96409625,0.24962683,-0.4833213,-0.18279357,-0.71808785,0.55187535,0.7942002,-0.6298984,0.4197275,-0.67615926,-0.6329104,-0.7345323,0.77463025,-1.0091503,0.67240256,0.010671558,0.90838706,0.8860037,-0.45781758,-0.70214134,0.07265645,0.54289675,-0.6008428,-0.09596731,-0.82969797,1.0073842,-0.016736742,0.87497723,1.1256111,0.7601457,0.6946185,-0.48815778,0.79901195,0.5372303,-0.77293634,0.63460225,-0.09073189,0.056418374,0.5294235,0.4473001,0.19759823,0.38355237,0.53206354,-0.27926278,-0.012110236,-0.30262548,0.20582992,-0.7070617,0.14470236,-0.44419292,-0.676683,-1.6339569,-0.29806992,-0.2500268,0.77160555,1.2202363,0.5502903,0.4310323,-0.057919923,0.8290434,-0.9580204,-0.981797,0.09846997,0.39877442,0.31046775,1.1330309,0.90665877,0.6480731,0.5662689,0.07584977,0.075927824,0.39238188,-1.066901,-1.3594917,-1.4286875,-0.7868208,-1.0891652,0.27742773,-0.8506555,0.009197615,-0.82212746,-0.3801065,-0.70445,0.25690505,0.96414673,-0.3324277,0.730805,0.046717387,0.5294418,0.24260828,0.675925,-0.40503716,0.4873558,0.69674087,-0.35433045,-0.27046278,-0.055078045,0.44406506,0.76099515,-0.39869902,0.4539444,-0.16489895,-1.5811461,-0.9160665,-0.13661945,-0.9698352,-0.9287934,0.2573004,-0.90208524,-0.011876867,1.4654942,0.73799616,0.98024195,1.262095,0.77692956,-0.36330497,-0.8974087,0.970033,-0.683264,0.053336143,0.6198738,0.17816377,1.001905,0.2474612,1.1321108,0.5443333,0.57005906,-0.77028245,-0.3728811,-1.0810393,-0.23933946,-0.5694936,-1.0695413,0.116118416,-0.43796813,-0.45224708,0.3456936,1.1711638,0.51889294,-0.4757901,0.92810833,0.3177784,1.0237566,0.5010403,0.028514285,-0.5539563,0.9385524,-0.8516116,-0.2613351,0.2622161,-0.31315896,0.091818124,0.34959108,0.11771135,0.8755404,-1.0638391,0.5819423,-0.35332263,0.019718455,-0.22301438,-0.64666635,0.12268861,0.9837073,-0.12696087,1.2229973,0.43239138,-0.17370982,-0.49942404,-0.24283367,0.513065,-0.03229197,-0.14987965,-0.7662811,-0.65603304,0.35588098,-0.10262966,0.3443084,0.18387583,-0.31351686,0.028935203,0.96942943,0.8381187,1.0170212,0.5265809,0.09012221,-0.22684707,-0.5271398,-0.5142387,0.5757933,1.1642128,-0.2618981,0.49940383,0.90747344,0.13351752,-0.48833606,0.2211284,0.49193585,-0.78796834,-0.7341791,0.9814956,0.21541667,0.026933432,0.52045727,0.84914017,0.56794786,-0.6589136,0.07803696,0.051025085,0.79133797,0.9698932,-0.30502802,-0.19085798,0.08634526,-0.05250068,-0.18801744,-0.3034016,0.55236745,0.537282,-0.22766998,-0.61621344,0.1464903,-0.23719034,0.36031762,-0.22835043,-0.10746839,-0.15628701,0.34536743,0.22780234,-0.35649276,0.56363106,-0.969342,0.8283937,0.53581977,-0.99741435,-0.35690522,0.76000214,-0.47097206,-0.6238796,-0.8750522,0.047046535,-0.960528,-0.5227803,-0.08304079,-0.44334272,0.31952855,-0.60703343,-0.11559455,-0.20015167,-0.42798313,-0.91668165,-0.43372032,0.04129947,-0.09691636,0.32465678,0.308311,0.17909932,0.85626006,-0.19084644,-0.8629422,-0.03792858,-0.51557136,-0.57417774,0.2290132,0.18212867,0.59245324,0.84415436,-0.35244918,0.23148489,-0.71704006,-0.62301826,-0.75578785,0.62413347,-0.8441721,-0.47958302,0.7160814,-0.3943901,-0.51643753,-0.82257414,0.99050283,-0.143857,-0.4465747,-0.6922412,0.9718909,-0.84889793,-0.58055973,0.65961456,0.16604185,-0.26795506,0.80558205,-0.17420793,0.9867945,0.06654143,-0.56315494,0.8269172,-0.50244343,-0.47057948,-0.28618562,-0.19202833,-0.41276386,-0.16664062,0.53186995,0.51664984,0.9576521,0.07801761,-0.88600415,0.05331325,0.23431939,-0.5480363,-0.4551187,0.03875187,-0.22912455,-0.83835506,0.21916842,-0.9441321,-0.46769452,-0.44601154,0.80322766,0.41919172,0.9000069,-0.18667889,0.8225313,-0.5106557,-0.95574564,0.66760993,-0.52044,-0.68424475,0.5159141,0.44459218,0.93170035,-0.2655432,-0.7548246,-0.6882656,-0.12649848,0.7818115,0.11818341,-0.9107148,0.71310914,-0.83219206,0.93292737,0.7791679,-0.1644969,0.26859546,-0.59743166,-0.45491862,0.7207558,0.77086425,0.94506043,-0.5906193,0.48700193,0.079908594,0.079196304,-0.20191677,-0.88967836,0.45870763,-0.8470189,0.25204933,0.017307945,-0.83280885,0.6951418,0.5136205,-0.10265827,-0.73222154,0.4383848,0.6535045,0.1751522,-0.20587401,-0.5840281,-0.19321513,-0.64373755,-0.9173548,-0.5661869,0.22969508,-0.7492776,-0.19495082,0.034093387,0.40295723,0.6164324,-0.8398489,-0.4086721,0.6027052,-1.0014815,-0.93788636,-0.9954694,-0.9434009,0.89588773,-0.8671751,-0.69918,-0.8589453,0.060595844,0.41165912,0.269413,-0.5168879,-0.077790886,-0.025850765,0.47890842,-0.17763303,-0.80708766,0.5403073,-0.044275045,-0.6941383,-0.6594053,-0.5871186,0.8295972,0.5169167,0.07763825,0.51626384,0.034719538,0.44096956,-0.04422722,0.086969264,0.4737171,-0.18796353,-0.13821243,0.3632027,0.7113115,0.40342683,0.4295863,0.49343595,-0.7987056,0.8112629,0.22784005,0.9714472,-0.034314793,0.89898807,0.010258648,-0.9561236,-0.030495405,-0.9658015,0.09889881,-0.6486025,0.60393286,0.2500122,-0.72684795,0.3144662,0.07493265,-0.7238853,0.6332576,0.9346595,0.009155656,0.3669777,0.19859195,-0.5032662,0.563701,-0.7631083,0.7330631,-0.8110504,0.11299087,-0.34087765,0.7848736,-0.55722576,-0.05261184,-0.74684316,-0.50020695,-0.26485887,0.48544073,0.3422086,-0.7231844,-0.14643218,-0.2648423,0.24483374,-0.33633417,0.5346258,-0.39034003,-0.82719487,-0.2237734,-0.94572234,0.18322198,-0.27916166,1.0822246,0.65181375,0.83264315,0.34321657,0.43543476,-0.3061796,0.8307983,-0.64187825,-0.43511626,-0.23746482,-0.6961255,-0.22748744,0.75144356,-0.4462404,0.31342196,0.2932841,0.8359932,-0.5830536,0.15102975,-0.24566029,-0.67157274,0.12515993,-1.0667994,0.6173699,0.6602369,-0.7516846,0.3617949,1.1269833,-0.2775497,0.02446588,-0.83684045,0.5086853,-0.09440915,-0.17403056,-0.13596977,-0.39060357,0.09873303,0.6183871,1.0026885,-0.3833851,0.8267,-0.034809828,-0.8089211,-0.7164589,0.7916879,0.6317206,0.5270313,-0.74365014,-0.11358485,0.376221,0.38871896,0.9264726,-0.05585899,-0.31099257,1.1119969,-0.036993705,-0.4345122,0.19590388,1.1445023,-0.5506781,-0.29778334,-0.5102222,-0.54871285,-0.8583248,-0.91582197,-0.39774236,0.66045654,-0.8974554,0.1664764,0.8629153,-0.29305863,-0.9654175,-0.023784159,0.89947355,-0.070740476,0.04815138,-0.48237446,0.3540118,-0.9736338,0.9759003,0.10581546,0.4932612,1.1054858,-0.3313502,0.950214,-0.59992707,-0.53802603,0.22285035,-0.7111301,0.1875531,-0.6595296,-0.10793644,-0.29972932,-0.44279635,-0.7719379,-0.89864,-0.74368656,-0.2061758,-0.17725396,-0.63157773,0.146776,0.6857578,-0.40977266,0.4191098,1.0732161,0.48267075,0.2223394,-0.35358378,-0.73396087,0.7161484,0.025597263,0.94675136,-0.4261799,0.84108955,0.86011994,0.81925505,0.25085482,0.90969646,0.54479903,-0.43666068,0.47129008,0.56825227,-0.30435896,-0.3161474,0.2956894,-0.1595366,0.2707765,-0.72827935,-0.45328403,-0.8920391,1.0814656,-0.48746514,0.7268734,-0.31606635,-0.644886,0.65059495,0.92440283,0.99080276,0.5043059,0.094889656,1.0914975,0.8315511,0.8350445,0.7777306,-0.2967436,0.15496032,-0.16100352,-0.86231357,-0.013069772,-0.48248103,1.0196915,0.21874729,0.20218182,0.47115174,0.6949096,0.951329,0.3793532,0.9775979,0.27570766,0.4112544,0.8093535,0.9339399,1.0052642,0.24702255,0.9069245,0.080133535,0.3445461,0.91445583,-0.07972177,0.6234578,-0.08816112,1.0045389,-0.8646075,-0.5310613,-0.38288882,-0.6576214,-0.32667974,0.8861252,0.8973984,0.92930174,-0.98703414,0.6006581,0.43813133,-0.67564845,-0.38632455,0.2849817,1.0082613,0.13887033,0.05702933,0.5898563,0.070361964,0.33546597,-0.3356336,1.008547,-0.25086692,-0.39090613,0.39322805,0.09034356,-0.57251215,0.72477484,0.75424266,-0.25810784,0.93685436,0.72544795,-0.44541353,-0.92417586,-0.51127857,-0.49534348,0.8008401,0.3277316,-0.44509172,0.46280956,0.7520594,0.30146855,0.43685845,-0.95369124,-0.49499798,-0.71141136,-0.58824164,0.18648517,1.0889165,-0.56732905,0.7741273,0.05294142,0.5576843,-1.0466802,0.25917518,-0.13246888,-0.7743832,-0.2783073,-0.23137462,0.34955642,-0.3569905,0.11838268,0.62432086,-0.3229662,-0.28031993,-0.34394646,0.33183408,-0.27617332,0.33894828,-0.74849564,-0.45906073,-0.13920341,0.3786372,0.8314356,-0.057416286,0.6684482,0.059162408,-0.5133455,0.7922094,0.06577043,-0.4560163,-0.5724103,-0.8869594,0.06206828,-0.24694635,0.09558658,-0.69860363,0.80444646,0.10642988,-0.60389507,-0.674955,0.9243519,-0.17160535,-0.47982764,-0.6544471,0.62466455,-0.41406238,-0.65358466,-0.5723698,0.06235076,-0.08821187,0.63968194,-0.46683076,-0.017707003,0.5080728,0.50753176,0.6834203,0.6040446,-0.90802854,0.060138166,-0.33271176,-0.5852313,0.35022798,0.76039046,0.32596928,-0.546339,0.9362851,0.5686728,0.9341048,0.79204446,-0.13237138,0.4551549,0.085442305,-0.36091232,-0.91353726,0.28034133,-0.22478172,-0.14779526,0.58710283,-0.39397627,-0.7351242,0.10122751,1.2292739,-0.16180237,-0.5402919,0.6348509,-0.51273215,-0.44262227,1.0211278,-0.18093602,-0.62680846,0.80557317,0.055798236,0.934671,-0.61969763,-0.401477,1.0036329,-0.080433264,-0.36438596,-0.20165132,-0.6031723,-0.50078106,-0.6113242,0.020103423,-0.024581233,-0.55182236,-0.6751501,-0.0070052235,1.0344979,-0.7379572,-0.5734014,-0.103508376,0.6637078,0.78208256,-0.035592426,0.96417,0.62347156,0.4519418,0.2863796,-0.2367283,0.14633729,0.1916492,-0.96738017,0.30488518,-0.645542,0.961264,-0.9827424,0.40283513,0.3281753,0.64660573,-0.7356863,-0.72594094,0.15690531,0.32526612,-0.874133,0.30473503,-0.22189347,1.0399982,0.07778626,0.09426233,-0.38521063,0.1307795,0.120816566,0.24255049,0.28260466,0.9558832,0.48091322,0.02180685,0.68559617,0.35632986,-0.27175584,-0.62847644,-0.44087428,-0.6021781,0.0034622932,-0.46730733,-0.9387729,0.8550515,0.6535191,-1.0119938,-0.43833712,0.6670136,-0.30942428,-0.3842359,0.9442642,-0.06886953,-0.013178599,-0.51597285,0.12310556,0.50833946,-0.31275794,0.34185222,0.85201323,0.016778028,0.22338767,0.5803328,-0.069730744,0.49580073,-0.57140493,0.61113054,-0.7143475,-0.28218296,-0.75805604,-0.74275875,-0.6787243,0.11148119,-0.031624008,-0.09820933,-0.8532861,-0.16317382,0.34964398,0.30043653,0.58172435,-0.027606137,0.05457129,-0.11435325,0.95109797,-0.3426773,0.5055819,0.8821435,0.7615345,0.9967283,0.1781625,-0.4014838,-0.77489203,-0.8076718,0.93209445,-0.6457335,0.25416195,0.07827125,0.46190238,-0.40225124,-0.84071803,-0.43817878,-0.0923115,0.67535067,-0.8932699,-1.041651,-0.20408332,-0.14123449,0.2644958,-0.26583895,0.09071268,0.79678917,-0.83399105,0.7667516,-0.29505187,0.3173344,0.21718901,-0.82907116,-0.41031587,0.78381103,-0.2323097,-0.9376965,0.0005854362,0.38186666,0.3938726,-0.0028345804,0.9237857,-0.8822291,-0.83968544,-0.66851187,0.37934875,-0.68631077,-0.414486,-0.46717542,0.8820948,-0.41099417,-0.54533416,0.91111386,0.3160155,-0.8899566,-0.7218989,0.4941436,0.9923838,0.06374387,-0.17385009,-0.5263844,-0.84463096,-0.16960372,-0.33621255,0.10705739,0.033684123,0.068087235,0.13109249,0.0019304277,0.46422315,-0.97981334,0.21479964,-0.7371719,0.5550332,-0.92967,-0.072646454,0.25496995,0.032773077,-0.73061115,-0.74899846,-0.4294766,0.42010796,-0.7598038,0.536325,0.24980327,-0.11092726,-0.1451566,0.9911938,0.4151677,-0.4626578,-0.44884628,0.8538003,-0.16986945,0.5073657,-0.16130632,0.3754445,-0.16029906,-0.6317353,-0.11610937,-0.30216694,0.7554207,0.72764015,-0.1390171,-0.29664773,0.5821238,-0.8493629,0.7345388,-0.25913775,-0.04900673,0.8504927,0.2306033,-0.21122774,-0.4855785,0.21638745,-0.18015511,0.9593456,0.25323424,0.43846434,-0.42469367,-0.08497042,-0.9540307,-0.25745597,-0.8626628,-0.47567582,-0.904902,0.1755178,-0.07231307,0.74539924,0.5506673,0.45382333,0.42541528,0.7426603,0.9457762,-0.74222344,0.10281258,0.68786633,-0.45193374,-0.0619025,0.5139472,-0.64827144,-0.19346087,0.3889312,-0.3251741,0.855302,0.20861475,-0.31283367,-0.3502949,0.5035724,0.12873581,-0.7101728,-0.3148942,-0.9034729,0.17813873,0.9053464,-0.67929125,0.0771842,0.09483838,-0.35662532,-0.5076697,-0.82418895,-0.562371,0.5147972,-0.37004924,-0.8600116,-0.8556559,0.6660161,0.7507458,0.49189445,0.118300125,-0.77129465,-0.6370344,0.9198189,0.15301943,-0.5487733,-0.49251795,-0.59115386,-0.6550021,-0.7344401,-0.63259554,0.10584116,-0.42660403,0.78514767,0.5464864,-0.1455102,-0.32239676,0.8624177,0.05556059,0.20427155,-0.44174314,0.03849415,0.34375727,0.014050454,-0.7480076,0.029145127,0.5253392,0.96381974,0.50412595,0.12696268,-0.583085,-0.8935351,-0.93057764,-0.23328461,-0.5005442,0.80762404,0.18125708,0.40456337,-0.04198678,0.92893124,0.78862,-0.61178255,0.4451809,0.054487944,0.6184745,0.82761395,0.7219779,-0.33359015,0.80843234,-0.4318498,-0.22327639,0.17598645,-0.88467616,0.9744399,0.49701136,0.80122215,-0.1940918,-0.22582671,-0.36497194,-0.24968608,-0.6045886,-0.07201221,-0.8572388,0.57974523,-0.7059471,-0.33155015,0.89277285,-0.7937529,-0.6273258,0.5126302,-0.35815787,0.78231,0.7300918,0.32125586,0.5182134,-0.85404766,-0.5693096,0.23195684,-0.7038843,0.80705553,-0.437636,0.668599,-0.021305617,-0.6338887,1.1262685,0.41889408,-0.20553157,-0.409333,1.0273138,-0.4290208,-0.75556195,0.8485294,-0.6182866,0.8273419,0.69940764,-0.6347364,0.85247767,0.8050715,-0.18056893,0.43551755,-0.6467507,-0.48409078,0.29850036,0.50005937,0.0462703,0.10520553,0.45940906,-0.012787279,0.1340553,-0.2019549,-0.3753781,-0.3619426,1.407033,1.0842701,0.06875229,-0.4288392,0.2000884,0.7106055,-0.25888327,-0.5060508,0.6284765,-0.78025424,0.06515134,-0.35791746,-0.57597166,-0.222946,-0.083006606,0.78507566,-0.9359131,-0.28491315,0.956083,-0.3996057,0.5735071,0.1392633,-0.89615387,0.69050133,0.27026734,-0.10452042,-0.16264941,-0.4994363,0.0745295,1.3014644,-0.024203204,0.20312302,0.029582378,-0.77882296,-0.82977533,-0.7089773,-0.22070591,-0.78289956,0.34319034,-0.8796558,0.53243876,0.38026142,0.21515664,-0.7405617,-0.5019442,0.18316844,-0.4013294,-0.46782833,0.32030323,0.1938118,0.30401388,0.76905876,-0.8327552,0.58533096,-0.49189183,0.1587697,0.2929591,-0.7870538,-0.45611566,0.05354607,-0.33077925,-0.34377712,-0.39530537,-0.2737408,0.27229205,-0.56583464,-0.62762696,0.7686327,0.41956162,0.56830275,0.05994704,-0.6383416,0.7361854,0.67037976,0.3068832,1.0239823,1.0801103,-0.69694346,0.28841385,-0.5806297,0.25122222,-0.2291561,-1.1778606,-1.1628156,0.088430166,-1.3894533,-1.3111962,-1.7073226,-0.37983054,-0.49538088,-0.9828794,0.30226046,-0.7349917,0.70753586,-0.05868319,-0.3310306,0.8593559,0.19632684,0.24465089,-0.10951082,-0.24339141,-0.50498015,0.9440706,0.9213941,-0.6812775,0.613067,-0.11397899,-0.6058987,-0.4344969,-0.30348536,-2.153962,-0.11077927,-0.36570746,-0.8399122,-0.3429428,-0.18634152,-0.82252836,0.34197393,0.38207287,0.31055254,-0.28358224,-0.4777798,0.1589411,0.8741226,-0.071652055,-0.7360199,0.33739027,0.9619065,0.9779542,-0.70910144,0.9784446,0.37868607,0.2916462,-1.3556685,-0.9227101,-0.027949294,0.56848323,-1.4970255,0.33909023,0.5525687,-0.06267815,1.045102,-0.8186572,-0.2339454,-0.07412699,1.2587543,0.2629265,0.8147907,0.50777423,0.61724085,0.8546811,0.44822913,1.0963945,-0.57986873,0.5279268,-0.11288071,-0.9144404,0.45391724,-0.13179316,-0.33109748,0.50548196,-0.40647212,0.530559,-0.26942024,0.33624655,0.05917058,0.53775454,1.7862874,0.41837174,0.38824803,0.9814389,0.37984943,1.3445811,0.56599265,-0.19213603,0.8294917,0.42836523,0.29440477,0.4097861,0.2167359,-0.71345043,0.30829984,0.14752947,0.39199185,0.822549,0.09809802,0.7302919,0.17123449,0.28105155,0.18639532,0.50959563,-0.776272,0.037516788,1.3588841,0.8645966,0.37374088,1.0706607,-1.284601,-0.12853025,-0.8434727,-0.117483616,0.5814082,0.10723301,0.078648575,0.047571603,-0.34331086,1.1315112,-0.024872834,0.01587037,-0.2667098,-0.93498945,0.99922824,-0.61842537,0.8246986,0.13697511,-0.6091883,-0.21856037,-0.12681593,-0.25200915,1.2023022,0.05343659,0.7474922,0.51767755,1.0587882,0.40553632,-0.6135589,-1.5215507,-0.58190465,-0.6111906,-1.3224396,-0.059075143,-1.2391059,0.6231229,-0.37630376,-0.57274795,0.24612238,0.9585559,-0.70420885,0.26727748,0.54727674,-0.97553474,0.69894403,-0.9324137,0.7128058,-0.23975432,-0.24553922,-0.64004344,0.8036879,-0.071037635,0.8332332,-0.5000792,-0.17016332,-1.0614103,-1.3406285,-1.283735,-0.53961205,-0.93901986,-1.0827221,-1.39824,-0.045552503,-0.8297098,-0.55046993,0.8728454,-0.4290419,-0.9506192,-0.5145564,-0.8484111,0.34041232,0.99308443,-0.6661022,-0.71766204,-0.15498637,0.1990533,-0.46852842,-1.0208864,0.34024045,-0.3986059,-0.8212036,-0.65158165,-1.9731442,-2.2063584,-2.2247446,-1.0839121,-2.0060003,-0.69268984,-0.48505384,-0.47854537,0.3426889,-0.46590057,0.5698532,-0.2394519,0.30052012,-1.0415546,0.91356844,-0.76837677,0.5472854,-0.87981725,-0.1859949,-0.8565053,0.14523694,0.4467303,-0.20587774,-0.019319493,0.2038008,-0.5437194,-0.30707213,-1.4574375,-1.5595297,-0.8960718,-1.261902,-1.6013554,0.051054332,-0.10843969,0.337443,0.20107202,0.4601534,0.48179758,1.1177697,0.31261927,0.7518049,0.8240659,-0.778848,-0.8436746,0.5927162,-0.9259097,0.783304,-0.19512206,0.7040938,0.70594126,0.5366728,0.6914914,0.026197987,0.6114665,-0.67639536,-0.95090723,-1.3317381,-0.6853299,-1.5728688,-1.2192668,-1.198708,0.03936868,0.70032656,-0.12651987,-0.4234486,0.4334355,0.4908995,1.0734776,0.4115631,-0.2857157,0.44597122,-0.13525634,-0.73872304,0.628266,-0.43686977,0.72807825,-0.46498406,0.34583482,0.24448973,0.9189192,0.4210594,0.16501561,-0.29209003,-0.3536182,-0.7813917,-1.5086249,-1.2023158,0.4278589,-0.56463677,0.35932684,-0.018729342,-0.11602958,1.0771956,0.55914825,0.9133278,-0.19006465,0.6543382,-0.8135201,0.246119,-0.018578045,-0.68566585,-0.5610175,-0.2983061,-0.011856474,0.6388192,0.6835053,1.43034,1.6692371,1.6759497,0.55395144,0.99634236,0.19577609,0.13580507,0.3581395,-0.83727366,-0.20868884,-0.5128389,0.69265395,1.0808306,-0.3296159,-0.40451494,0.4605241,0.5128504,-1.0864795,-1.0701922,0.73896253,0.68345314,-0.12940075,0.34592128,0.80759597,-0.5812124,-0.15852985,-1.270351,-0.3803868,0.20024136,0.2183395,0.47199935,1.5796304,1.3488467,0.32390758,1.1459987,-0.29636517,0.67448413,-0.28901595,0.44358054,1.4037341,1.1776913,-0.57193404,-0.17069359,-0.47040397,0.572906,-1.1269355,-0.005068702,0.10697323,-0.5678851,0.46720663,-0.08220601,-0.27549106,-0.26673445,-0.564405,0.29437608,-0.99261796,-0.44833976,0.813024,-0.24648054,1.0524681,0.24330623,0.39483646,1.835933,1.2308741,1.6782712,1.5131139,0.80127764,0.4762949,0.75106966,0.21132511,0.06568143,-0.7551224,0.070904665,-0.61787945,0.31266597,-0.9269295,-0.75003946,-0.13130386,-0.74967027,-0.8054551,-0.7201884,-0.6093316,-0.73680145,-1.3105339,-0.38365278,-1.2493913,0.50030434,1.0059115,1.1128318,0.4050451,-0.17049818,0.45721385,0.32096708,1.5224928,1.623324,0.7589299,-0.7184001,-0.03396939,0.5428284,-1.2205001,0.22277822,0.7886312,-0.090900116,0.0416481,-0.1577872,-0.064097404,-0.2882998,-0.09059341,-0.80737776,-0.20686845,-0.40783328,-0.342698,0.693751,-1.1242607,-0.90416527,-0.40192083,1.080792,0.30814052,-0.5998944,-0.06655065,-0.16852549,0.47828606,0.29173103,0.072630316,-1.0124605,-1.0122719,-1.1248451,-1.0681837,-0.954963,-0.4069469,-0.9438369,0.6639417,-0.7773831,0.30098605,-0.5087805,-0.6141083,0.32973886,-0.774186,-1.0375004,-0.38324082,0.81497014,-0.79315203,0.19652928,-0.48218253,-0.0900643,-0.8247653,-0.30641568,-0.77019364,0.47134486,0.49880385,0.1155941,-0.94032735,-0.3377785,-1.2289351,-0.86037433,-0.31354067,-0.64608717,0.8951065,0.065304235,-0.84019125,-0.23345721,0.16406274,0.1409831,-0.7425115,-0.7627825,0.26368317,0.2156697,0.0872138,0.16083845,0.12181893,-0.53440416,0.22072898,-1.3265105,0.04154048,-0.76555973,-0.6596921,-0.04566406,-1.0701137,-0.69303524,0.16875547,0.98790723,-0.575355,0.34691802,-0.19801426,-1.129899,-1.002972,-0.4220981,-0.50532424,-0.057347585,-0.6743903,0.375324,-0.7083359,-0.9418421,-0.04558984,-0.91767097,0.3660049,0.39248666,-0.08207067,0.33273968,0.5394015,-0.9059044,0.73854184,0.2131151,0.16399324,-0.073382504,-0.6749146,0.50363535,0.28017217,0.448153,0.80315006,0.6946473,-1.1880713,-0.49152544,-0.6868908,0.89225763,-0.8339572,0.78476095,-0.540751,0.9882083,-0.8077886,0.09893274,0.36255592,-0.55512977,-0.11638753,-0.079363056,0.7582847,-0.066105485,0.34787583,0.8145759,-0.5243362,0.8467523,0.86073565,0.5464792,0.9114876,0.3776963,-0.83783746,0.6718813,-0.2068099,-0.58718777,-0.0558084,-0.8275873,-0.9192694,-0.14050621,-0.58223367,0.20938253,-0.8284402,0.78957605,0.6895981,0.83223677,0.32467008,0.99222624,0.3632312,0.58476645,-0.43441314,0.38692498,0.7121275,-0.043469593,-0.44640598,0.62919503,0.058733445,-0.034176752,-0.029080363,0.25689796,0.896408,0.42525792,-0.53781736,-0.71542966,0.47062284,-0.7242891,0.106857926,-0.50314426,-0.4102962,0.19569302,0.48671865,0.22445917,-0.82009244,-0.18531299,-0.11282539,0.69442105,0.11584377,0.91601443,0.35626316,0.26715565,0.28245187,-0.17833376,-0.7206762,0.73568225,-0.087025404,-0.50295806,0.019755602,0.013050795,0.5836723,-0.7239678,0.0014972687,0.34896708,0.48183966,-0.9392972,0.05877185,-0.7493329,0.18638778,-0.2390852,-0.29707766,-0.39280486,0.36135268,0.90137076,-0.062414885,0.8978157,0.36499977,0.81407905,0.5624137,-0.23091581,0.5556873,0.68138295,-0.94904333,0.8341049,-0.28198406,-0.4773645,-0.9756599,0.46946654,0.75337857,0.26432183,-0.08874385,0.3077141,0.83284616,0.21852303,-0.43421626,0.55039024,-0.9039159,-0.33162475,-0.96692157,0.24786377,-0.09374046,0.46280026,-0.014649617,-0.18665151,0.04476266,-0.79697746,-0.7381144,0.41284105,-0.30801266,0.8205838,0.50595504,-0.0833604,0.8751958,0.43147227,-0.39040583,-0.8473523,-0.3747601,-0.8722171,-0.27667883,-0.0069583296,-0.13177411,-0.7400652,0.64267576,-0.75076896,0.48019236,0.089280844,-0.71940565,-0.30516052,0.88340735,0.44908524,0.9709504,-0.048116118,0.025753947,-0.75944144,-0.0036984757,0.2512998,-0.645207,0.4730537,0.3790069,-0.607943,0.1487085,-0.058904283,-0.68064785,0.12330426,0.2417042,0.9572243,-0.34120288,-0.32241523,-0.13515475,0.40028647,0.56376934,0.50738186,0.46616825,-0.62942314,0.7178881,0.23555303,0.24412194,0.32691932,-0.355477,0.63574487,0.18690667,-0.73236763,-0.21036339,-0.113024935,0.6701314,-0.7566501,0.028863221,1.1262414,0.2897406,1.1913363,0.1434203,-0.11393295,-0.49596664,0.5668203,0.68887055,-0.7555341,0.64386046,0.07431044,-0.36563122,-0.48527315,1.0193632,1.0234971,-0.76040983,-0.937809,0.39647818,0.61501,0.4881078,0.103174254,0.7794362,0.8049433,-0.5432324,-0.3886343,-0.11169791,-0.029997503,0.3549354,0.862344,1.5371667,0.2787373,1.3446333,0.8699412,1.8099804,0.17589477,1.2758266,0.46909097,0.95047784,-0.9296054,-0.0016483427,-0.81318825,0.92856395,0.76251423,-0.86990076,0.6405673,0.04762887,0.18232574,0.12484601,0.2276227,-0.612755,0.5689146,-0.2542106,-0.26674703,0.21103391,0.7303451,0.5367193,0.075657226,0.51670897,-0.10857878,1.6850863,1.2767109,1.0253291,1.3480341,-0.13079,-0.25125778,0.3921685,-1.0929686,0.6289841,0.6962618,0.96838,-0.4972362,-0.2528235,0.732178,0.65620035,0.10321387,-0.62908214,-0.20406136,0.7734562,-0.068526365,0.52468425,-0.33928314,0.455219,-0.39951682,0.11721612,-0.01456178,-0.2688927,-0.26293927,-0.9280693,-0.062539674,0.2579339,0.5711568,-0.014625946,0.011238228,1.2169673,-0.4150215,-0.25979346,-0.46848002,-1.013828,-0.88944805,0.13532504,0.13242841,-0.85976684,-0.4182879,-0.83717877,0.89202076,1.3927426,-0.40953624,1.625004,1.2791687,0.4666933,0.1400217,-0.69557005,0.7228508,0.75164133,0.32065687,0.1544594,-0.34423685,-0.26778433,-0.06620653,-0.60179394,0.6160854,-0.50120234,-0.60344154,-0.02711822,0.11714698,0.41697517,0.56075424,-0.75307804,0.8075546,0.2074372,0.57949096,0.9085049,-0.16912827,1.09188,1.1710614,0.9491538,-0.03852351,1.0095032,-0.0047235093,0.726077,0.95862305,0.90560627,0.5182388,1.3137006,0.46139953,1.3935945,0.93659425,0.13268021,-0.14604302,0.7265371,0.12416593,0.77443296,-0.23761462,0.3773964,-0.15967773,0.14714746,-0.34037364,0.24457008,0.24712047,0.6396466,-0.10650965,0.13425201,0.4662626,-0.4390196,0.5192578,0.5764794,0.49411637,0.520791,0.27115804,0.37214082,0.90386033,0.37933388,-0.43689147,0.27924827,0.36283702,0.2976671,-0.2595051,0.08413314,-0.15811315,-0.5148387,-0.586939,-0.6598956,-0.9029047,0.28170544,-0.24995166,0.9323972,0.1549617,-0.9565017,-0.34110227,0.5942429,0.30210274,0.013547607,-0.061844315,-0.19889282,-0.22819838,0.68235666,0.69302124,0.6884208,-0.15552537,-0.15245165,0.26716322,1.1517313,0.23634714,0.42391083,-0.6271946,-0.43089604,1.0213135,-0.3195047,0.1649441,0.9311282,0.12177384,-0.13332868,0.114228725,-0.92164844,0.5017745,0.45835602,-0.64137715,-0.5800895,-0.50025225,-0.9388866,0.23221786,-0.0747329,-0.63563526,-0.35208046,0.402865,-0.7575686,-0.9693738,-0.3534852,-0.3020561,-0.6735012,0.71915096,0.00021728012,-0.006320061,0.70744145,-0.6689803,0.4306105,0.45754525,0.07380969,-0.82682085,0.92100537,-0.33797947,-0.42325726,-0.4701367,0.761568,-0.07527267,-0.13676007,-1.3680921,-0.4359778,-0.7289454,-1.2171153,-2.1238964,-0.7223503,-0.6981734,-0.5225812,-1.150202,-1.2132477,-1.5604688,-1.2373066,-1.2069161,-0.42791197,-0.51745033,-0.7069507,-1.1390566,-0.92665607,-0.60891795,0.47627532,-0.4693808,-0.96619636,-0.30331925,0.1279789,0.81866586,-0.45836914,-0.55090505,-0.040996697,-1.2135551,-0.953178,-1.3225946,-1.402499,-1.4207354,-2.13136,-1.4528852,0.1531728,-0.54746,-0.6583208,-0.88461536,-0.52617115,-0.23321128,0.14227927,0.22499686,-0.9385712,0.9962939,-0.19012336,-0.92999214,0.5699469,0.45289394,-0.87749314,0.6446738,-0.21720934,0.5053619,0.3529242,0.35492653,0.3152849,-0.75635105,-1.4240708,-0.39380714,-1.38025,-1.1503658,-1.0195616,0.40329978,-0.009107019,0.69541323,-0.6038916,-0.86275804,-1.020841,0.06535344,-0.16128048,-0.005769095,-0.09266119,-0.7157368,0.8267696,-0.8622956,0.1039255,-0.8926249,0.9147128,0.7970159,0.23195349,-0.78282857,-0.4262471,-0.13877197,-1.2091962,-0.2763091,-0.80384696,-1.1672945,-0.8588922,-0.6252457,-1.0081078,-0.042145085,-0.27753246,-0.87481844,0.37935376,-0.7136905,-0.5987015,-1.4207668,-0.3771263,-0.3471892,0.5228328,-0.08654341,-0.09850073,-0.9219216,0.43361303,-0.72322977,0.1365634,-0.41713572,0.18992795,-0.40728492,0.31595594,0.06984626,-0.37960327,-1.582082,-1.7459717,-1.3036528,-0.32037657,-0.74679667,-0.34297633,0.3090623,-0.26051864,0.47086522,0.39384156,-0.81596816,-0.3520722,0.12975791,-0.53429395,-0.5463373,-0.4642813,-0.6501785,-0.42761475,-0.55816656,0.5665359,-0.5467978,0.100154296,0.52346146,0.6229798,-0.06464877,0.068845384,-0.17386772,-0.55680543,-0.7836863,0.34784698,-0.51217055,0.4771477,-0.7805475,0.3789312,-0.36104894,-0.44178683,-1.1356957,-0.9007236,-1.4314203,-0.4941652,0.2942747,-0.27961484,0.40215242,0.51844335,-0.24622455,0.967113,-0.6956851,-0.040255204,0.7592685,0.51570076,-0.9830076,0.09199636,-0.26483247,0.44673023,-0.28529462,-0.5067028,-0.3469709,-0.001235496,-0.29094106,0.6435831,0.4376782,0.0084201675,-0.076501586,0.017289348,-1.5966544,-0.35138637,-1.1052033,0.33894596,-0.17580952,-0.29962686,-0.4195067,0.579056,1.1837516,0.97382456,0.7111217,-0.22996847,-0.55848944,0.53256005,-0.7453575,-0.14874616,0.15985623,-0.82904565,-0.57438236,0.1453715,1.0449138,-0.7139772,0.48901847,-0.5765863,0.860049,-0.6751673,0.24808693,0.38623077,-0.98529804,-0.03048218,0.5186435,-0.13117495,0.27231875,0.1514462,0.54510504,-0.35922238,0.6262705,0.54293054,0.5954654,0.8921966,0.719725,0.70880723,0.39250016,-0.83489865,0.33827457,0.42179194,-0.52288306,-0.71469265,-0.5354367,0.98922217,0.2802859,0.6623027,-0.1262419,0.21616909,1.2113603,0.9915498,0.72155726,1.422855,0.025131555,-0.21593799,0.3161951,0.6761651,0.37242967,-0.3341081,-0.65658015,0.518453,0.20512982,-0.33156103,0.74698514,-0.91841435,0.320822,-0.17739178,-0.37834325,-0.6755827,1.0336075,0.88491225,0.59459,-0.2111757,1.0502168,1.7327578,1.1378399,1.2648863,1.7461379,0.305202,0.7553742,0.97490394,1.518304,1.1297466,0.51935875,-0.4961875,-0.3809448,0.25244516,-0.243923,-0.68172055,0.9366905,0.25969577,-0.895727,0.14091349,-0.9607527,-0.36033487,0.05872664,0.071225084,0.9204797,0.18411663,0.5994979,0.996504,1.4683172,0.645153,1.8695307,0.5942972,1.3671558,1.613818,1.4575227,1.6657363,1.0736179,0.937048,0.935354,0.3235558,0.8414821,0.28224757,-0.26293224,-0.7356958,-0.55651546,0.81682885,-0.51999235,0.039578438,0.24185658,0.5459652,-0.14969964,-0.5211119,0.43907803,-0.23454353,0.1937125,0.2576917,1.0576149,-0.2723212,0.16623197,0.44397664,0.46052283,-0.3428953,0.3569873,0.8591038,0.9039356,-0.4931292,0.35267198,-0.9369812,-0.0740937,0.23139194,-0.98167795,-1.0598061,0.43962348,0.974409,-0.25368538,0.17996049,0.26641917,0.27965188,-0.005411317,0.82297736,-0.20150048,-0.61229384,-0.56788695,-0.31927484,-0.6499091,0.85544395,0.085009225,-0.4403397,-0.23653261,-1.2038267,0.14266865,0.36325163,-0.56869644,-0.43226725,-0.3757216,0.8085775,0.5447089,-0.42691118,-0.47457,0.7236296,0.22614473,0.8748938,-0.39370432,0.07594013,0.77629423,-0.802567,-0.86404824,0.15500247,0.46708974,-0.5587722,-0.3514108,0.2524006,-0.56326383,0.41555688,-0.3178882,0.82292616,-0.50904757,0.42857435,-0.39656395,0.09279328,0.14394353,-0.124018155,1.1568621,-0.70884156,-0.71210223,-0.31689048,0.1580169,-0.55201876,0.9395971,-0.6578224,-0.13738775,0.16801453,0.84868693,-0.4117725,0.22759628,-0.20507932,0.81240016,-0.84258646,-0.79629934,0.9698467,-0.2436807,0.73511,-0.79200244,-0.2785791,0.4282696,-0.3404997,0.7682715,0.016730636,-0.13273591,0.078455344,-0.94881624,-0.1026657,-0.40502903,-0.5249498,0.7941369,0.034890406,-0.503844,0.2920897,-0.5123658,0.44976616,0.19891047,0.5095155,-0.06383562,0.17316818,0.5076215,0.8769994,0.052594423,0.09294033,0.9207065,-0.6656952,0.5931661,-0.72622275,0.036093608,0.20946747,-0.89459896,0.35999107,-0.016746998,-0.25903678,-0.6693795,-0.12904286,-0.7125628,-0.1200397,-0.79900026,0.87899804,0.4768722,0.9345162,-0.99200296,0.059356213,0.09978604,0.23135376,0.16529036,-0.18734407,-0.99118036,-0.24146922,-0.32956094,0.051012702,0.32426456,-0.93194896,0.8896501,0.91282874,0.014470324,-0.9238626,0.55663085,-0.5398555,-0.88938254,-0.013929304,0.42810276,0.6890938,-0.7641773,0.1534173,-0.6978062,0.6769443,-0.18759418,0.92432237,-0.6717818,0.2756636,-0.112247705,0.89845157,0.9944563,-0.20921373,-0.018787244,0.98090035,0.73248166,-0.77330846,-0.043477118,-0.42415494,0.30550122,-0.9571379,-0.5497605,0.47641072,0.6932211,-0.4447593,0.09559927,-0.28792816,-0.3168586,-0.76827604,0.64819276,-0.19714151,-0.02461287,0.44697794,-0.83672905,-0.80458343,0.8849993,-0.09273219,0.10998726,-0.84729147,0.8446419,-0.80499625,0.8945394,0.80652875,-0.749674,0.587122,0.049018644,0.28920463,-0.37464806,-1.0405381,0.27701366,0.7711091,-0.48718527,-1.2702363,-0.558993,0.16814977,-0.3162357,0.539352,-0.5695761,0.08111059,-0.66662925,-0.7606208,0.50833094,0.7951601,-0.7173638,0.65476346,-0.8448808,0.79590666,-0.7662677,-0.39463073,0.5052431,0.2329324,-0.4750726,-0.31448242,-0.56977105,0.28975555,-1.0750637,-0.9359972,1.2786535,1.0669914,-0.33514655,0.320752,0.5361635,-0.5467673,0.023601223,-1.068342,-0.020402448,-0.41598934,0.62316877,0.87266046,0.17363285,-0.86793,0.54594696,-0.41954765,-0.6611657,-0.15858293,0.08897544,0.2937482,0.42611992,0.6142246,0.36592048,-0.5326406,0.07991043,0.78218514,0.6882555,-0.33199787,0.3790163,-0.41783723,0.48398766,0.75020766,-0.6804536,-0.3949691,-1.4802171,-0.94848365,0.57861924,0.6305644,0.9383085,0.135421,-0.091557205,-0.26205552,-0.8302326,-0.012293185,0.9275534,-0.4739368,0.6454756,0.5297086,-0.95501536,0.099824,-1.1912692,-1.2137189,-0.4334644,-0.9385095,0.37222016,0.18165435,1.0407113,0.86274034,-0.8978083,0.66732556,-0.38485995,0.15790465,0.099700846,0.85036266,-0.26431513,1.0632592,0.24415733,1.1713948,0.22165819,-0.70983905,-0.82642347,0.88009703,0.4981928,-0.18931949,-0.57079184,0.9293504,0.8919332,-0.5937273,-0.8654235,-0.6869051,0.5914641,-0.60884213,0.37231135,-0.41238177,-0.7109624,0.123451255,-0.9253716,-0.70042807,-1.4662807,-0.017775835,-0.3132166,0.14562392,-0.43312138,1.1731156,-0.05925121,1.3788083,1.3977561,1.0003307,-0.7231828,0.084522314,0.035137415,0.12431557,-0.1938243,-0.96594,-0.2616598,-0.0099506425,-0.63756275,-0.16328491,0.44210052,-0.38170412,-0.036411226,-0.38631728,-0.7890709,-0.51168436,-0.9428506,-0.35090044,-0.3494223,-0.49714115,-0.5815117,-0.21691005,-0.32991204,0.22652784,0.91974086,0.45821372,-0.19792743,0.11405402,-0.8657466,0.63646686,0.38555986,0.14793956,-0.5204422,0.053184576,-0.53293616,-0.7857065,0.8014197,0.55329484,0.1652999,0.73818046,-0.5744443,-0.4106016,-0.57800627,-1.1723477,-1.2084749,-0.49677777,-0.64849263,0.13679774,-0.52233905,0.041086793,0.028551525,1.2188475,-0.03958577,1.499209,0.4449819,0.7600415,-0.901326,-0.75639975,-0.6501281,0.23983756,-0.100062415,0.24096473,-0.44846404,0.091763444,0.72422266,-0.3209325,1.2018673,0.94689155,0.86188734,0.6559136,0.1951579,-0.11102095,-0.4134213,-0.29320318,0.7061489,0.38996714,1.3568699,0.68677866,0.29500583,-0.0006445823,-0.73838145,0.78974,1.077237,0.09825319,-0.36436877,-0.26365206,0.8509301,0.5647094,-0.2237237,-0.21111938,-0.1226783,0.38279325,0.8140244,-0.011218623,1.2434711,0.8013947,-0.09205286,0.3026841,1.4587064,1.1846454,1.0251571,0.43402073,2.1938803,0.46457312,1.2218854,0.8184482,-0.77582014,-0.9608429,-0.4225054,0.8146415,-0.52733535,0.39345023,-0.6574573,-0.034255143,0.5545341,-0.63392365,-0.34782252,-0.8037601,0.029074062,-0.51997346,0.8130311,-0.19252428,0.3418815,-0.18392995,0.48396435,0.40462968,1.3809906,1.6017511,0.55794704,0.51556623,2.148094,1.7179672,0.6686625,0.66438466,-0.29646188,0.55706424,0.633733,-0.9083528,-0.7967792,-0.25523376,0.32792187,-0.21454023,-0.4061327,-0.547313,-0.42879075,0.29806942,0.024945537,-0.068474084,-0.28262556,0.72136796,-0.20514536,1.1604837,-0.90290517,-0.014255487,1.0308261,1.2242396,1.5247644,0.51531607,1.8791406,1.794467,0.9652335,0.27866825,-0.6197777,-0.57196623,-0.6795574,-0.8275606,-0.8849674,-0.2993418,0.4163245,0.36105916,-0.778774,0.78834873,0.11573174,0.0908085,0.38399276,0.62206256,-0.2382299,-0.021107836,0.26463065,-0.8183176,-0.081405215,-0.42001024,-0.74647963,0.6130533,1.2442015,0.68793494,1.6884392,0.3697081,-0.018152544,-0.11415131,0.3024159,0.20985599,-0.3669447,-0.4649954,0.5641206,-0.4155266,0.66502565,0.9170881,0.3042972,-0.92277354,0.79042906,0.06517249,-0.8091968,0.3249216,-0.73187125,0.16753429,-1.0501479,-1.37139,-1.4892219,-0.22715679,0.28263444,0.77822655,-0.25675735,0.6426597,0.106178656,0.20970501,-0.5792989,-0.8808115,0.07285568,-1.4222124,0.7148753,0.54442245,0.8884216,-0.03718496,0.07838682,-0.22363111,-0.95301366,0.48130718,1.0420583,1.0679492,-0.2844261,0.078211896,-1.1009996,-0.6360741,-0.5470035,-0.8381945,-1.5627187,-0.8269948,0.84295326,0.4209687,0.8169005,1.0469074,-0.20806555,0.45864844,-0.61098397,-0.88895315,-1.2216587,-0.9494593,-0.029607475,-0.4310779,-0.95796883,0.34339297,-0.7796759,-0.008624384,-0.6108208,0.16385862,0.88952047,0.22529355,-0.38762304,-0.41595054,-1.0813056,-1.6649325,-0.42294973,-1.5277965,0.18882032,-1.2524396,1.1742136,0.37494227,1.1217129,-0.2721155,-0.010673512,-0.6940702,-1.1755686,-0.8290836,-0.7151174,-0.2861333,-0.78846353,0.5300152,-0.6209564,-0.035429444,-0.012857032,-0.5695832,0.11025047,-0.80965984,0.531758,-0.22805089,0.39289063,0.6545765,-0.030563785,-1.3886564,-0.8851846,-1.3044875,-1.2831591,-0.581159,-0.80032414,1.2546418,-0.07559582,-0.9266399,-0.24406898,-0.53157526,-1.000778,0.06657373,-0.5375122,0.22243468,-0.6768839,0.33443227,-0.28535774,-0.5165827,-0.27778396,-0.7641534,0.15666413,0.52300155,0.10560538,0.19960108,0.25373274,0.13504495,-0.7246496,-0.43839115,0.5708097,0.130415,0.58052033,-0.3774206,0.7247969,0.8620264,-0.2305391,0.6719167,-0.4694326,-0.7540602,-0.7817904,-0.7765914,-1.0093268,-1.1882104,-0.6968613,-0.5093557,-1.175693,0.22592112,0.7864627,0.88333213,0.032749653,-0.053086936,-0.6309985,0.7530374,-0.71198046,-0.16724929,-0.14894669,0.027127888,0.95242774,-0.18200308,-0.19643426,0.28717443,0.18772778,0.09263761,1.427682,0.40416485,0.29362294,0.20988467,-1.17124,-0.4460118,0.2109433,-1.3395098,-0.84014463,-0.023643937,-0.760918,-0.96257144,0.39170766,0.6630893,0.19653463,0.55487734,0.6809225,-0.67421055,-1.027575,-0.3321262,0.4408693,-0.7663614,-0.30581662,0.74306226,0.47915104,0.2713398,0.44539577,1.1006387,1.2384332,1.4001714,1.3282813,0.3748523,-0.8498729,-0.4155479,0.29794204,0.6760091,-0.008275278,-0.1937141,-0.698388,0.8201936,0.06789147,0.81691504,0.9559922,-0.5028095,-0.15098521,0.17459403,0.64938664,-0.74302965,0.4067751,-0.7107099,0.4974802,0.6549563,-0.06667317,0.41354236,1.2696409,0.63488835,-0.11072952,1.2463031,-0.21574448,0.82943183,0.7518582,-0.14299658,-0.6385362,0.711093,-0.85178196,0.8056069,0.20786013,0.7338211,0.88267076,-0.9841776,0.4623494,0.1873343,0.5017327,0.5663101,0.78101516,0.207003,0.036024176,-0.12016636,-0.4605849,0.17574663,0.38789764,0.27954072,0.9009095,0.050013445,0.03170469,1.4997847,1.0983785,0.739127,0.08052544,0.59605354,0.9308034,0.15436034,0.61473435,-0.51483655,-0.5487362,-0.0009808604,0.4080053,-0.37386012,0.021594524,-0.6179979,-0.60156745,0.028362948,0.35369837,0.39585266,-0.22089641,0.5021928,-0.68731296,-0.3984103,0.4027847,0.5046538,0.4607422,0.9056926,1.1474568,0.69770426,-0.34092414,-0.7328098,0.23504192,0.05029411,0.2404316,-0.29114893,0.17322566,-0.16993855,0.14869776,-0.59379596,-0.722394,0.2124269,-0.4996512,-0.6720927,0.44381914,0.5823445,0.95456743,0.62250715,-0.14296404,0.19782294,0.30011886,-0.12954557,-0.7881361,0.5504857,-0.46821213,-0.30105737,0.25831094,-0.58412355,0.50259274,-0.4733972,-0.19182913,-0.54999244,0.74559754,-0.870576,0.40003726,-0.7165862,-0.11068616,-0.45137882,-0.9593842,-0.48528528,0.73590183,0.98991084,-0.3518598,0.58951116,-0.24732946,0.1537971,0.40109155,-0.3669682,0.42935395,0.24212056,-0.598067,-0.74585754,0.22771645,0.79585636,0.6881465,0.759573,0.3385322,0.32344127,-0.7168814,-0.06214499,0.34434375,0.7115915,-0.07578121,-0.90033185,0.58332086,0.5437904,-0.30152035,0.7768245,0.8518915,-0.02342081,0.6674161,-0.4812088,0.31484187,0.013679593,-0.2938883,0.75343204,-0.19029668,-0.6858589,-0.55677116,0.65872914,0.068214215,0.33531684,0.50366277,0.4993262,-0.9676865,-0.07324389,0.6835963,-0.57930243,0.0642008,0.5048952,0.023494575,-0.42652756,0.6857116,-0.897748,-0.12053442,-0.8103268,-0.20224094,0.62984395,-0.83574533,0.20170712,-0.33600736,-0.53589344,0.8872752,0.65096474,-0.15143561,0.7729087,-0.8268039,-0.74292684,0.37174582,0.1489799,0.20708728,0.31881046,-0.13853717,-0.4505403,0.5016558,-0.2991662,-0.31685543,-0.83576727,-0.15498972,-0.9213011,0.992481,-0.41625524,-0.829725,-0.6396804,-0.100982666,-0.17022324,-0.29663706,0.47610545,0.94036937,-0.43769193,0.8980627,0.8152158,0.07375431,0.3256073,0.7868006,-0.63957,-0.2956965,0.45333552,0.0121446345,-0.008325787,0.41418758,0.5572691,0.20452332,0.6491375,0.8043997,-0.33294463,0.68921185,-0.46037745,0.5405481,-0.86551213,0.11436939,0.3605759,-0.510854,0.1856184,0.21889424,-0.018851519,-0.0692544,-0.21459007,0.94656754,0.71715564,0.004744732,0.99137527,-0.83269036,0.7650108,0.7116407,-0.024084633,-0.534624,0.5872065,0.3530378,0.2583787,0.2440265,-0.18714517,-0.0024936574,0.71891546,0.5599326,-0.73881847,0.046367884,0.38663626,-0.11915779,-0.068976164,-0.7534833,0.5819237,0.18097544,-0.44223022,0.6197586,0.15038502,-0.5694165,-0.63245016,-0.47768,0.9589134,0.015165524,0.7768787,0.4088656,0.21751803,-0.4113266,-1.1225418,0.6819227,-0.40569457,-0.045310266,-0.5679362,-0.51824206,-0.82766426,-0.3149081,-0.59536475,0.30889946,0.8355112,0.2641251,0.5193894,0.26616812,-0.33701563,0.14790697,-0.36277246,0.20380925,-0.60784197,0.08721181,0.84209704,0.35462645,1.2323357,0.5376643,-0.22489409,0.520282,0.43753976,-0.053764023,-0.14656153,-0.4687054,0.107279204,0.14558862,-0.758736,-0.22101554,-0.9377158,0.1065978,-0.6308253,-0.92002964,0.958632,-0.1803189,-0.5421021,-0.54951453,-0.11530638,0.55251783,0.72040826,-0.78340036,-0.023973532,0.49637553,0.6211626,0.105333254,1.0498791,1.1090673,-0.34828326,0.4632657,-0.23083723,-1.1282042,-0.03053598,-0.6814088,-1.3325453,-0.9473288,-1.1881061,-0.6348853,-1.0708212,0.50541914,-0.3798986,0.78674144,-0.009973581,0.50665504,0.45262328,-0.8262727,-0.54475474,-0.044914,0.6223371,-0.03414464,0.8858312,0.5872052,-0.04891158,1.6757231,0.37666315,0.55498415,-0.6131289,0.15011391,0.06719693,0.5776764,0.8521741,-0.88681984,-0.62718886,0.2463986,-1.1243308,-1.2422463,0.52660114,-1.2207695,-1.2139316,-0.15988454,0.33902374,-0.018842319,0.22603865,0.23756981,-0.20092317,-0.7128522,-0.51666355,1.0467409,1.297324,-0.1413336,0.5109297,-0.65012944,-0.30230287,0.6471023,0.40545836,-0.8003552,0.1770378,-0.2856049,0.16980822,-0.7885648,0.042776637,-0.12733364,-1.5897051,-1.1415342,0.41829434,0.23242612,-0.90776616,-0.2041022,-0.9054966,-0.4762055,0.27662182,-0.46016026,-0.75207573,-0.18334879,-0.1724485,0.9070371,0.15637012,1.1246823,1.153244,0.5416939,-0.04973874,0.6072183,0.039307576,-1.2016857,0.41942576,0.6316396,0.9719317,-0.72927356,0.45778602,0.39631966,-0.55235857,-0.16968644,-0.0035577565,-0.8064505,-0.6764693,0.6280338,-0.5415504,-0.5628066,-0.0748161,-0.49508476,0.97567534,-0.67533875,-0.39768398,-0.26015958,-0.104988426,0.23588312,0.5419785,0.48600215,-1.2616785,-0.5811001,-0.2793582,-1.1850322,0.24892332,0.6480074,-0.025905803,1.1717216,1.0043716,-0.3609803,0.12857915,0.6475335,-0.6196478,-0.64146614,0.33779272,0.14426422,0.23532353,-0.08481268,0.8246831,0.5764997,0.14404358,0.39428917,0.52675813,0.86897653,0.23109628,-0.34768927,-0.63891685,-1.1668938,-1.7052656,-2.299425,-1.6336204,0.5664126,0.023095654,1.9210192,0.93419373,1.4558923,0.01641271,-0.24620444,-0.64769727,0.7160779,-0.55700684,0.2323687,-0.042646907,-0.47855172,-0.82553536,-0.97540027,0.69066936,0.33152914,0.11137391,-0.9171504,-0.28918633,-0.68478936,-0.26693586,-1.3522619,-1.063787,-1.2423538,-1.962678,-1.0900999,-0.2759063,-0.10446102,1.145893,1.3342646,0.98371786,-0.38453045,0.67892706,0.0132114645,0.40951392,0.47153562,-0.045223832,0.24961191,-0.37156922,0.9076279,-0.15087432,-0.570793,0.03345878,-0.35317445,-0.8647136,0.003332294,0.65932727,-0.42543703,0.2885923,-1.0399421,-1.7937394,-0.6449518,-0.13752761,-1.0820653,0.70254874,0.26984707,0.82596546,0.5169222,0.4803202,0.15312533,0.8183414,0.4769533,-0.7167868,-1.0554365,0.32886183,0.664683,-0.06995634,-0.16184868,0.7563973,-0.98005664,0.2998565,-0.13957518,-0.029425666,0.6701932,-0.27392974,-0.26931357,0.107736595,-0.6912968,0.19522202,-0.65071714,-0.93654454,1.0141588,0.64629894,0.4865413,0.63274777,0.2522503,0.3689861,0.4596083,-0.6934141,0.19446987,0.40233082,-0.64278364,-1.2381217,-0.93140346,-0.1948163,-0.5425466,-0.7876147,-0.59222806,-0.5018445,0.06043148,0.8545509,0.11052512,-0.17701237,-0.79367614,-1.1604378,-0.93580604,-0.41280878,0.35026008,-0.12661488,-0.15946747,-0.3171124,1.4096761,0.7071528,1.3210505,0.55848885,-1.7192752,-1.8208824,-0.31786847,-0.61075246,0.53109556,0.7764419,-1.025302,-0.5592313,0.29570618,0.8250157,0.9290144,-0.037734017,-0.6726067,0.086902715,0.71171075,0.8340276,0.604935,-0.94951624,0.09476556,-1.2140261,0.76942974,-1.0451732,0.3661418,-0.6064391,-0.12483864,0.9257311,0.16622597,-0.55077004,-0.9455782,-1.066091,-0.4322745,0.035253372,-0.17846727,-0.14005052,0.2600186,0.14652103,-0.5153403,0.54583985,-0.42898044,0.35597146,-0.17625165,-0.85434896,-0.33640146,-0.011690318,-0.8531456,-0.57036406,-0.10924613,-0.6886768,0.2600903,-0.15066974,-0.15999791,-0.22428267,-0.61538756,-0.008015027,-0.7212649,0.148368,-1.565646,-0.81436366,-0.28955105,-0.13743389,1.2976147,0.080868736,1.365096,-0.522896,0.5206585,-0.086993106,0.58378863,0.09830328,0.9041493,0.44040063,-0.5439201,0.90139145,0.12535936,-0.4407888,0.37789053,-1.5424032,-1.3684644,-1.652697,-1.4401265,-0.48255476,-1.2993675,0.25031117,-0.31524995,-0.6349793,-0.02557616,-0.35542962,-0.594774,0.1268059,1.1371917,1.1125634,0.47543475,-0.49860868,0.80084914,-0.33844534,-0.8506928,-0.57677996,0.16066128,-0.5886942,-0.26660687,-0.31771317,-0.29384005,-0.5424035,-0.5487547,-0.36855346,-1.2321095,-0.14194328,-0.9731974,-1.6761914,-0.5584744,-1.22129,-1.1987838,-0.9176927,-1.1672192,-0.90430504,-0.9729199,-0.57161915,0.67462456,0.36664015,0.7992813,0.05695897,0.016581869,-0.4526228,0.8117158,-0.9923819,0.9084141,0.7155874,0.471206,0.37625048,0.61053854,0.92635876,-0.24679707,0.3215581,-1.0520409,-0.61455244,-1.1374437,0.16607977,-0.43242347,-1.2586994,-1.567073,-1.6989509,-1.051274,-0.06097981,0.5026534,0.6379585,1.0030806,1.5624313,-0.21549152,-0.5946112,0.40766233,-0.64818126,0.49187645,-0.07908962,0.5647936,0.64638424,0.10661193,0.056151956,1.1940155,1.2141861,-0.022029575,-0.6529618,-0.69114935,-0.32345033,-0.1848847,-1.4073704,-1.017258,-0.35170078,0.26971945,-1.1396928,-0.03416042,0.69137657,0.879992,1.1219562,0.05357127,1.1295443,0.46393356,0.20082141,0.3369092,-0.35476354,0.97383267,-0.9909115,-0.12187123,-0.5345472,-0.85006046,0.0015099633,-0.46216103,1.2034113,0.101303644,0.3267072,-0.46844673,-0.87437457,-1.3134867,-0.82071465,0.007233328,-0.8946388,0.11345327,0.5042277,0.24134499,-0.17307006,-0.81281847,0.42131117,0.71091014,0.20349093,0.6727403,-0.56671554,0.735348,-0.21297477,-0.50791585,-0.1713419,0.14433622,-0.58683497,-0.4924438,-0.17390071,0.07941993,-0.013236389,1.4101099,-0.17905888,-0.8300566,0.28701818,0.5206385,0.6186045,-0.27596068,1.0247455,-0.32233223,0.11904607,0.7357718,-1.2238926,0.009103773,0.92510146,-0.42415053,-0.075527586,-0.33331853,0.50440437,-0.4097872,-0.4541389,-0.9973745,-0.23503828,-0.75508213,0.9035797,0.061660416,-0.10840616,-0.20371859,0.31740063,0.7031815,0.086110294,0.86548513,0.18713894,-0.16318458,0.5727347,0.13786046,1.3460101,1.1827472,-0.4886079,-0.09866971,0.14422937,0.4353851,-0.540002,-0.9660608,0.3034577,-0.8779646,-0.03461886,0.7504883,-0.42587858,0.60557884,-0.06319451,0.22143817,0.7829981,0.7709278,0.8567867,-0.62082416,0.12816268,0.20843062,1.126229,0.8402449,1.1235883,1.2510456,1.7358721,0.1642562,1.0937488,-0.63093185,-1.0093113,-0.26873982,-0.9096481,-0.23564984,0.46284306,-0.39203435,-1.0441774,0.43036342,-0.20291303,-0.77353513,-0.09018692,-0.9427304,-0.26269937,-0.19761276,-0.31671023,0.5446242,0.7760473,-0.9657283,-0.23701419,0.73573977,0.22365443,0.8942218,-0.6448082,0.54961514,0.56207883,0.28105888,1.1258525,-0.29600948,-0.07825236,0.23874481,0.08463225,-0.29587194,-0.9583958,0.3774147,0.7411157,-0.37158436,0.7563469,0.9104727,0.07633543,-0.30429292,0.38245344,-0.80125356,0.21083307,0.81489944,-0.86490315,0.16462564,0.83648443,0.989042,0.31187958,0.5720335,-0.5767192,0.8732253,0.30300334,0.18941423,0.8342659,-0.776642,-0.5299698,-0.18045743,-0.72156125,-0.66529834,-0.9736522,0.32241708,0.53703076,-0.49934244,-0.46041435,-0.29365993,0.66166425,-0.29717422,0.23161411,0.8231697,0.7240796,0.3124969,0.91082764,-0.39476496,-0.4165849,0.16529052,-0.29882246,-0.44153205,-0.12856571,0.099248834,0.41596282,0.26807332,-0.061346095,0.85806876,-0.4606261,-0.78503597,-0.44213563,0.1431228,-0.92709076,0.79060555,0.8867046,0.691472,0.7526058,0.7657416,0.07734227,-0.26462507,0.09418321,0.89126134,-0.37078643,0.30350804,-0.84094286,-0.68631554,0.78407454,0.09045243,0.1544807,-0.30512953,0.19268131,-0.96378183,-0.26399946,-0.56607294,-0.19660807,-0.776103,0.7480607,0.52713585,0.08209658,0.74315476,-0.7580359,-0.5469594,-0.95919466,-0.022229433,-0.6693275,0.18621588,0.3149252,-0.08234501,0.24297714,-0.62095,0.7154288,-0.65862775,0.94880867,-0.018711805,0.6922147,-0.4841237,0.9845395,-0.5149205,-0.30631876,-0.9313395,-0.97322357,-0.64698887,0.9910578,-0.26445597,0.9190706,0.10917481,-0.5885756,-0.2728994,0.070234776,0.20941472,0.71275306,0.89190054,-0.25663662,-0.86262727,0.4214511,0.005166769,0.107786655,0.27634215,0.96718645,-0.75981283,0.1673398,-0.19009852,-0.8655009,-0.6080036,0.54679346,-0.23691563,-0.7185171,-0.5548084,-0.92171293,-0.56399333,0.7329107,-0.649933,0.37340295,-0.95032185,0.828911,0.8257139,0.2684277,-0.74381214,1.0016605,-0.7805429,0.12890981,0.9704554,0.25157046,0.24647427,-0.09697747,-0.025518894,0.59386706,0.32098484,0.0322845,-0.26495957,0.770571,-0.27834767,0.7348748,-0.36748403,0.97005075,-0.4353952,-0.1850118,0.109691784,-0.38930595,0.2454812,-0.8793252,0.32236806,-0.9530285,0.64249516,-0.5206921,0.43956867,-0.30936256,-0.70829064,-0.5674618,0.81172276,-0.7525346,-0.6811867,0.46626282,0.35862064,0.79909015,-0.36958814,-0.7805505,0.37197948,-0.47270086,-0.09064089,0.2694293,0.90194255,-0.3931867,0.53690815,0.8514542,0.83768934,-0.29125333,-0.9664775,0.7705382,0.0951921,-0.6071684,-0.08654405,-0.77788496,0.20759144,0.24584845,-0.8126012,-0.047729928,0.8894549,0.8331331,0.97462463,-0.62730527,-0.48359466,0.39451218,-0.37087917,-0.4736035,-0.8131689,-0.29776758,0.75437695,-1.0205152,-0.58258474,0.07784035,0.10195484,-0.7596869,-0.12844424,-0.36066687,-0.6286787,-0.8973815,-0.53279454,-1.0654006,-0.2065473,0.8829579,-0.34863752,-0.069581725,-0.39203033,0.77049947,0.61343694,0.5594046,-0.5210172,0.5769954,0.9607649,-0.24963999,-0.96995294,0.6342426,0.027929496,0.6232801,-0.738736,-1.0397271,0.54046714,-0.55262303,-1.0512663,-0.020859124,0.3010326,0.669844,0.5596401,0.43196908,0.49801496,0.27871597,0.5322381,-0.58649796,-1.0030057,-0.77464545,-0.0893271,-0.39155915,0.79025173,-0.0028370374,0.013345066,-0.5658834,0.80527973,-0.068241335,-0.52373433,-0.0031164705,-0.4590442,0.9498034,0.61521363,0.48713562,0.6204496,-0.68349445,0.584394,-0.0675721,0.17740744,0.6181449,-0.52711856,-0.16436443,-0.7200707,0.8669633,-1.0620427,0.00039610697,0.81152,-0.5925651,-0.49694586,0.8094564,-0.8794143,0.18327305,0.18842469,-0.10960841,-0.35818076,0.22141619,-0.586905,-0.52197534,0.41641408,-0.06228653,0.8746665,-0.0558062,-0.22427166,0.5587098,-0.8675691,-0.67011845,-0.8548094,-0.42839321,-0.41757643,0.42868727,0.48437342,-0.60903543,0.06253726,-0.63361007,0.13364974,0.18976854,-0.940836,-0.5551591,0.99365824,0.19358164,0.30076492,0.13155484,-0.25156903,-0.2632126,0.4003926,-0.5276613,-0.5126938,-0.71261704,0.7117638,-0.3553863,-0.53382397,0.045573104,0.04660461,-0.2661628,-0.37004507,-0.030806566,0.36960903,-0.43611914,0.24083622,-0.23185594,0.091069385,0.41833594,-0.27645817,0.4937691,-0.411586,0.9488102,-0.5502893,-0.103499085,-0.15925242,-0.9476142,-0.8618312,-0.94175553,-0.1318955,-0.15171522,0.81487113,-0.5017227,0.058808763,-0.9911543,-0.46320167,-0.70762426,0.7462583,-0.9957554,-0.39092174,0.39271307,-1.0240947,0.678877,-0.40441167,0.12233955,0.41631678,0.43399116,0.5362827,0.8608855,-0.007121434,-0.242678,-0.9121938,-0.18814197,-0.7891681,-0.91160846,0.5895765,-0.3859146,-0.30276003,-0.41267648,-0.93159014,-0.7012331,0.49098924,-0.24359621,0.2821256,-0.39095193,-0.81592983,0.39450607,-1.0597768,0.6290611,-0.5111793,-0.8453852,0.089297675,0.72863865,0.61360484,0.0771346,-0.828984,0.6922654,-0.062927976,0.4432196,-0.08534354,0.31490096,-0.99164915,0.63958716,0.64181566,0.6441884,-0.8771286,0.60567683,-0.37065434,0.5099889,0.2662643,0.40864292,-0.8009817,0.3123081,-0.29052588,0.1455331,0.5038987,-0.9616043,-0.12526278,0.16294205,-0.15586522,-0.6254532,-0.13962968,0.73401684,0.5752432,-0.24139151,-0.7939119,0.7511926,0.18408442,-0.058949143,-0.3918891,0.34402132,-0.11349368,0.5234184,-0.42590618,-0.86464626,-0.41104254,-0.97747135,0.097347364,-0.7129463,-0.88054645,-0.60415196,0.7772396,0.025143877,0.2805375,0.6116057,-0.33692878,-0.34345326,0.48073995,-0.6183925,0.62222403,-1.1805607,-1.0870484,-0.98506993,-0.49363595,0.05306898,-0.3477214,0.93646526,-0.603321,-0.41411972,0.53708196,-0.74835706,-0.5029373,-0.95252126,-0.09683642,-0.51260316,-0.57666904,0.49595934,0.33555296,-0.59429646,-0.2228909,0.13609247,-0.78905,-0.56194097,-0.08582366,0.07154593,0.7780443,0.6952488,-0.96092516,-0.84014374,-0.3151948,0.39737007,-0.015487824,0.518625,-0.9265616,-0.6228879,-0.01588792,0.38511038,-0.22896385,0.33297062,-0.85936093,-0.32632703,-0.65072644,0.024092365,0.35328135,-0.73751724,-0.62666583,-0.7241281,-0.26799083,0.084647484,-0.68811065,0.7960892,-0.3504468,-0.5123516,-1.0951502,-0.61991876,0.15458025,0.6617641,-0.19841644,-0.6583586,-0.71146154,0.043554693,-0.55115914,0.37153503,0.5482214,-0.26034594,-0.41238356,0.08941102,0.02133292,0.28674906,0.99243116,-0.7932876,-0.5837636,-0.38245812,-0.13629767,-0.734546,0.80033046,-0.7286657,-0.019204574,-0.6859436,-0.5095896,-0.07052392,0.2430843,-0.41903216,-0.6006791,0.31446618,-1.0854688,0.20473447,0.73425394,-1.0095795,0.11446903,0.024876023,-0.16701293,-0.00030970573,0.3043239,0.8252518,-0.34128454,-0.8571133,0.6998533,0.4643329,-0.10596392,0.74708676,0.34843108,0.08488291,-0.27382162,-1.0603733,-0.9271242,-0.10696163,0.60688204,0.766479,-0.24322106,0.2848438,-0.52519214,-0.28185937,-0.31724855,0.86938673,-0.6464939,0.22817022,0.73581994,-0.59955287,0.48397112,-0.41319895,0.97129893,0.24573667,0.057766516,0.23119982,-0.3782482,-0.8770383,-0.82010627,0.39832085,-0.60167617,-0.87966835,0.2715937,-0.7354407,0.21162653,0.67448175,-0.82476497,-0.70863026,0.110021345,-0.34266928,0.3754887,0.057927754,-0.2574178,0.46468872,0.53359026,-0.07683779,0.41971484,-0.19816722,-0.7121034,-0.115472555,-0.90859985,0.17232144,-0.22558467,-0.18779996,0.50052553,0.6806471,0.34699535,-0.52916425,0.17375407,0.22051628,-0.68830484,0.22046083,0.08887933,-1.0037023,-0.85195583,0.25905648,0.73707217,0.0021376768,0.461541,0.6897592,-0.6850944,0.17894804,-1.0342168,-0.9935225,0.13387662,0.06161206,0.3576447,0.3417902,-0.57406855,-0.32259205,-0.43859598,-0.8893927,0.9341382,0.41621375,-0.075625695,0.12987596,0.23163337,-0.18463992,0.5843881,-0.064292334,0.3216501,0.20725201,0.6974925,-0.019830044,-0.2620621,-0.57608306,0.6265192,-0.5540859,-0.8258605,0.026958581,0.94092685,-0.9713531,-0.58247685,-0.12498694,0.25370264,-0.37289715,0.36875105,0.31072262,0.51646525,0.23304155,0.63829994,-0.674825,-0.7840087,0.822842,0.40431178,-0.6217206,-0.6759444,-0.9951223,0.23197745,0.65701425,-0.24740149,-0.8809382,-0.43742782,0.5520437,-0.30098626,0.49308693,-0.38311678,-0.65613973,0.2595387,-0.39254394,0.79613686,-0.08047483,-0.108888626,-0.37769413,0.090118885,0.32614985,0.04408638,0.1319377,0.25436068,0.18747738,0.46331373,-0.20786181,0.51843685,-0.11235746,0.15543458,-0.44983664,-0.97648513,-0.3708853,0.85195297,-1.0856525,-0.076941215,-0.2869204,0.8518865,-0.60143614,0.8285074,0.18129697,-0.24817891,0.41592705,0.3685802,-0.46634513,0.047162056,-0.30876064,-0.56609344,0.30977607,-0.041204125,0.98615474,-0.66019434,-0.777814,-0.3606627,-0.58880687,0.8147276,-0.5340746,-0.020241134,-1.008994,0.3336552,-0.8723898,-0.4755834,0.72678363,0.23773493,-0.09467897,0.62916344,0.122552305,0.87243533,-0.6550137,-0.6519081,0.7691162,-0.05567392,-0.44767457,-0.7365496,0.8904395,0.991065,0.48305583,-0.65296173,-0.35145298,0.71361893,0.6261927,-0.31126633,0.4729295,0.65182364,-0.47104847,-0.29093456,-0.18686292,-0.2148825,0.35555458,-0.61325127,0.76243144,-1.0416416,0.31389275,-0.24870901,-0.610785,-1.0026155,0.59975964,0.81927127,-0.8033883,-0.5749071,-0.11131061,0.2692306,-0.42188478,-0.076835155,-0.7285726,0.23207664,-0.71225,0.2657127,0.31278598,-0.11500676,-0.013326838,0.9507321,-0.542529,-0.6828276,0.2568602,-0.17476395,-0.037651792,-0.6995493,-0.37046695,0.4933335,0.47473246,0.3737679,0.64079887,0.7231289,0.62696403,0.10035383,0.5744674,0.80558157,-0.5167136,-0.17139816,0.917469,0.6735084,-0.9276087,0.89255476,-0.2088449,0.0051132045,0.34011817,0.24235334,0.034412563,-0.6874934,0.5241224,-0.3363253,-0.86453,-0.4844479,-0.3286399,-0.21134327,-0.24036059,0.78375155,-0.2901653,0.8363705,-0.043506593,0.9452269,0.059306234,-0.26111048,0.7969177,0.48580456,-0.9084873,-0.13501287,0.7773702,-0.02453518,0.5087147,0.38489652,-0.7329781,0.38871312,-0.13073802,-0.8183875,-0.6904383,0.14145136,-0.8984549,0.28137732,0.724597,-0.9267795,-0.82539725,-0.4395516,-0.5660644,0.9096541,-0.49661893,-0.72538567,-0.23479295,0.96762586,0.048084736,0.84993577,0.20683265,-0.57279634,0.91162014,0.96605897,-0.7903664,0.70994544,-0.7160742,-0.66625047,0.026309729,-0.33598948,0.4780023,-0.028533697,0.85876036,0.63466644,-0.28750992,-0.43068838,-0.7883756,0.42187333,0.5251808,0.6733546,0.8531647,0.5971525,0.16745758,-0.89112663,-0.42384672,0.7729788,-0.7062974,0.5376785,-0.25774765,-0.4135077,0.6584878,0.679513,0.070574045,0.6499405,0.6148701,-0.45148826,0.98609185,-0.36239338,0.4375081,0.45716405,0.7107506,0.5320997,0.6744869,-0.8738572,-0.65351206,0.005692424,0.40541238,-0.14745022,0.9866411,0.8613289,0.42046565,0.8081727,0.55162215,0.9401209,-0.32784358,-0.4067508,-0.13775349,-0.9138,0.4515915,-0.35966277,0.7332978,0.697844,-0.3753929,-0.49623108,-0.23259091,-0.5688031,0.71764636,0.13646406,0.5834961,-0.40681344,-0.06957647,0.23355173,-0.6808743,-0.6984168,-0.12818281,0.661542,-0.29075646,0.58446556,-0.19236092,-0.44043317,-0.96782565,-0.8793317,0.37221763,0.6128739,0.7949094,-0.08134757,0.5798951,0.58603,0.23919964,-0.8041971,-0.98571324,-0.49011874,-0.4860983,-0.8289261,0.8650739,0.43163478,0.91642886,0.8760991,-0.9309367,0.46525645,0.16538882,-0.55141664,-0.8320039,0.16492593,-0.30365315,0.105058245,0.621069,0.83694345,-0.65909606,-0.8152367,-0.04231383,-0.71036315,0.8210246,-0.36605227,0.028071713,-0.3894186,0.21748781,-0.820652,0.1275928,-0.3338127,0.71705866,-0.4455557,0.27419662,-0.4067099,-0.8455001,0.3471133,-0.7474253,0.067128636,-0.26629078,-0.8559335,0.40683666,-0.5535984,0.5528209,0.45718133,0.32313493,0.30729634,0.18808043,-0.6698158,0.39512953,-0.64936507,0.47181123,0.3199752,-0.9790213,0.5490775,0.87739086,-0.15618896,-0.60615516,0.8579669,0.35860682,0.23554277,0.57124555,0.9238073,-0.49571258,-0.2182861,0.015520499,-0.15907675,0.8635119,-0.46712416,0.7143149,0.22692987,0.58005583,0.29815236,-0.58818537,-0.70513535,-0.6287055,0.3819662,0.17104974,0.87103736,-0.13695796,0.3577356,-0.94669384,0.6554084,-0.48657823,-0.77058625,0.1321125,0.816567,-0.06477097,-0.6388514,0.3610802,-0.68296355,0.40331218,0.53075194,-0.62288284,-0.8622618,1.024163,-0.44028217,-0.017081562,0.27042547,-0.16593824,0.88453335,0.22596213,-0.06428683,-0.94745713,-0.10778581,-0.44403875,0.7205342,-0.004818128,-0.08269321,-0.2766315,0.6817541,0.87905884,0.18815112,0.5982971,0.9234061,-0.9973434,-0.87328863,0.35587832,0.8349203,0.76303005,0.23024015,-0.81519276,0.72864795,-0.26427987,-0.019573934,-0.060694758,-0.099159434,-0.09175536,0.8354538,0.90817064,0.08787377,-0.6719538,-0.11407952,0.88589364,-0.2179638,-0.9220218,0.12556188,-0.84253263,-0.24825335,-0.35373235,-0.8636751,-0.8688335,0.8449987,-0.29280978,0.6986405,0.30647403,0.528237,-0.1343076,0.30068472,-0.48713723,-0.51239806,-0.54810494,0.5555929,0.05538739,0.5536071,-0.22117141,-0.5782392,0.4100739,0.09440735,0.8889092,-0.39010373,0.53053606,-0.22465816,0.56223416,-0.18815379,-0.53842664,0.6520362,-0.7391751,-0.5405209,-0.5825439,-0.8083423,-0.74877,-0.5174754,-0.73481596,0.476753,0.19024228,0.58539844,-0.0760369,0.1770086,0.042979166,-0.65316176,0.8335002,-0.8006982,0.06912351,0.15240365,-0.5373126,0.7873253,0.784594,0.35965547,0.028926676,0.5160076,-0.8987691,0.8958136,0.53579026,0.29068732,-0.68028736,-0.28047013,-0.123229995,-0.18142317,0.18704887,-0.86088526,1.0249746,0.64355844,-0.67496717,0.2934381,0.98245746,0.38017735,-0.6745567,-0.57576966,-0.58157516,-0.41065913,0.7022267,-0.5008358,0.7144689,-0.5388251,-0.60363024,0.35037327,0.657298,0.57968044,0.83078337,0.12723155,-0.61451733,-0.13741279,0.6713543,-0.51138353,0.45747912,0.99445456,0.55086577,0.65239435,-0.29343,-0.87159544,0.71676207,-0.69696546,-0.28365952,0.6574622,0.3618062,0.9160854,0.51958454,0.53389686,0.36694923,0.21551399,-0.069658644,1.1341916,-0.17361474,0.8648924,0.3499197,0.7845159,0.52924377,0.681577,0.38450608,-0.9466994,0.8073833,0.11212945,-0.12520671,0.5879307,-0.055951066,-0.8061111,0.19792336,-0.86552376,-0.7127587,0.5754847,0.5808178,-0.52234036,-0.08106197,0.55108845,0.3168354,-0.42011273,0.8662309,-0.07156317,0.35191506,0.33483037,0.7536926,-0.8708176,0.5816417,0.845482,-0.9696787,-0.21205428,0.06834852,-0.0953741,-0.78087544,0.3479724,-0.31229115,0.94000053,0.23027071,-0.31619027,-0.8325267,0.85691077,0.18619616,0.56501,-0.63154835,-0.6016529,0.6732981,0.18706901,0.81710905,0.8071878,0.5405838,0.13748313,0.32464078,