{"layers":[{"DenseLayer":{"weights":[-0.8341589,-0.80070615,0.97842264,0.2154162,0.45363522,-0.9274695,0.6879544,0.05689335,-0.40985012,-0.3510058,-0.7407789,0.18235326,-0.68927366,0.93357426,-0.71257824,0.571708,0.83967066,-0.7360904,0.91122055,-0.3137436,0.046880007,-0.55071425,0.0647285,0.06890702,-0.65721655,-0.10617685,0.5752976,0.9455123,0.7707131,-0.718379,-0.5707469,-0.06724548,0.29504347,0.30415034,0.7141873,-0.59488034,-0.38510066,-0.027411286,-0.72554886,0.9780299,-0.28806356,-0.66546285,0.28842658,0.28798154,0.5601937,-0.121524975,-0.50181293,0.6253833,-0.41609746,-0.6648684,0.28082284,0.7155369,-0.8607762,0.043273926,-0.01456809,0.12363672,0.8733213,-0.09190798,0.14665143,-0.50472164,0.37258562,-0.7623333,-0.49910066,-0.50606644,-0.61306566,0.41601363,-0.9114135,-0.540852,0.25133505,0.78877145,0.208049,0.27072242,-0.4639831,0.4393821,0.78213894,0.13867946,-0.5498539,0.11960882,0.3148367,-0.29923725,0.98742825,-0.38592917,0.5164914,-0.11550379,0.4692893,-0.29962373,-0.26622102,0.023539407,-0.604385,-0.076277725,-0.85153276,-0.70631576,0.14909187,0.9425053,-0.46365175,-0.53551525,-0.43930122,0.5352532,-0.46520144,-0.019314662,0.19664708,-0.14965965,0.4075131,-0.2502143,-0.7639039,-0.06704221,-0.25549203,-0.85759574,0.50173897,-0.33101732,-0.18632197,0.3909874,0.76271963,-0.8404727,-0.82171607,-0.3880247,0.04470739,0.8872905,0.16915356,0.661821,-0.35271084,0.876596,1.0543003,0.65089065,0.325589,0.4491827,0.33085477,0.66166186,0.8063614,0.38498473,0.24508001,-0.1955257,0.015104199,0.017742202,-0.6844639,-0.8304468,-0.79459584,0.00081749214,-0.4451933,0.5609803,-0.5064163,-0.21218514,-0.14888754,0.20852813,-0.66515726,0.039488588,-0.03443994,-0.16546495,0.29222494,1.4080603,0.013697837,0.162351,0.29703823,0.8609824,-0.65776706,0.7994013,-0.33749878,-0.4112257,0.13347183,0.17478852,0.071186766,0.02554666,0.4172221,0.10627882,0.46047214,-0.26792276,-0.8280584,0.97342134,-0.20743012,-0.2461283,0.7140586,-0.8457141,-0.7101801,-0.56420183,-0.011894558,0.6329812,0.3670512,0.70019865,0.47911608,0.7160046,-0.5453187,0.3281204,-0.0029341874,1.0746756,-0.13622835,0.33855256,-0.08704871,0.58211476,-0.53758913,-0.9102182,0.20362292,-0.41281122,0.7039017,0.17054822,0.36660948,0.76613665,-0.44524458,0.38176814,0.6624098,-0.118058324,-0.5689522,0.74521714,0.9388282,-0.04940972,0.10039158,-0.5124464,0.71479046,0.51292807,-0.22206499,0.48394912,0.87875324,-0.48909596,1.1318393,-0.3435196,0.7660038,0.1731699,0.25063723,0.33270252,-1.0935467,0.24536489,-0.45109004,-0.537675,-0.7455143,-0.67518425,0.5910779,0.18271354,-0.42577112,0.670631,1.2993685,-0.2749321,0.4131629,0.3013308,-0.19464813,0.12778293,0.037444275,-0.13157018,0.33927453,0.12058333,0.16290705,0.029734315,0.034520097,0.9857372,-0.06293921,-0.4831054,0.53302824,-0.44885907,-0.7222706,-0.27048126,0.60517144,-0.83813405,-0.088136196,0.62017536,0.22853048,-0.069364935,0.17984599,-0.75692195,-0.4868467,-0.13816503,0.85404205,0.3203476,0.14687122,0.26169628,-0.36815026,-1.282018,-0.46474808,-0.29853734,0.039599266,0.68439126,-0.43918082,0.015428702,0.48820445,-0.67312413,0.6293119,-0.8315774,0.046207678,-0.5994572,-1.1642327,0.68184495,0.59886557,0.6163867,0.6955755,0.38987908,0.025291823,-0.7381603,-0.41696113,-1.1460673,-0.6698733,-0.4283761,-1.0818169,-0.61581016,-1.5282756,-1.0125798,-1.0447993,-0.60834336,-0.72962403,0.7519559,-0.093351535,0.6126049,-0.08292188,0.7429659,0.26940328,0.5252495,0.6151792,-0.57382894,0.89095896,0.47263837,-0.9723552,-0.4655695,0.05170083,-0.08470986,-0.6397627,-0.96006536,0.07326003,-0.9519815,-1.6052556,-0.23871961,-1.5740268,-1.9986582,-0.4605425,-0.9412416,-1.2337694,0.14986742,-1.1450523,0.58607894,-0.34756124,0.119494855,0.8039277,0.5882829,-0.54411423,-0.12957075,-0.8834312,-0.01243602,-0.6607049,0.5740111,0.47377846,-0.7641103,0.76497316,0.46819958,-0.8193199,-0.8977929,0.5831889,0.088212505,0.00036996187,-1.0468405,-1.4596441,-1.2640495,-0.018497754,0.13963138,-0.9938435,-0.7199902,-0.04032911,-0.78981346,0.8993973,0.51693326,-1.150305,-0.04159019,-0.8949336,-0.91295445,-0.904696,0.42173097,-0.9062649,0.34990355,0.7606966,-0.14033414,0.19401765,-0.9934726,0.46360523,0.5481625,0.34346482,-0.08513661,-1.6068754,-0.80243254,-0.9754217,0.5844546,-0.61896986,-0.5382744,0.35854894,0.20103303,0.24486405,-0.83672583,-0.5517788,-0.37922105,0.42135215,0.34379795,0.85420483,-0.8748871,0.5756887,-0.7002134,0.032749943,-0.45018956,-0.09911797,-0.39930797,0.56681657,0.7793921,0.5614428,-0.05377005,0.35907796,-0.74938047,-1.3433752,-0.8604256,0.354333,-0.7046696,-0.094139345,-0.37871525,-0.006196042,-0.73335916,-0.21419778,-0.13084985,0.07332559,0.65260196,0.4689458,-0.8278728,-0.45281988,-0.79299533,-0.2807109,0.44932222,-0.91122293,0.15957083,-0.29408473,-0.05301242,0.65075827,0.005972659,-0.6334613,0.53069216,0.91241795,0.9271987,-0.65632164,-0.107757755,-0.7876466,0.6005779,0.48720708,-0.3492114,0.40192518,1.0635903,-0.4870189,-0.1936495,0.4900797,-0.7630614,0.800344,0.1588119,0.6879422,0.7426974,0.6685049,0.4534779,0.82725155,0.88263315,0.84364796,0.6285913,-0.26219496,-0.67509323,-0.7717236,0.3164633,-0.6980704,-0.68421906,-0.9667948,0.34739193,-0.6052122,-0.42804438,-0.8237112,-0.6320264,-0.000013840945,-0.6922304,-0.4900325,-0.37751758,-0.19164509,-0.42411226,-0.25356802,0.80009097,0.43646893,0.9682479,0.05650206,-0.84869444,-0.29353747,-0.5035972,0.548861,0.21055613,0.07960105,0.8684312,0.11071825,1.0280102,-0.15116015,0.20830844,0.46142662,0.44812223,0.39044017,-0.27298293,0.45908138,-0.01349056,0.0073686126,-0.2640635,-0.2679867,-0.6049266,-0.14315902,0.545181,-0.48161328,0.1429097,-0.41064388,-0.6123772,0.23530409,0.95076436,-0.5367666,1.0255524,0.8853653,-0.40947968,0.3582933,-0.3539281,-0.3838939,1.0858545,-0.0718825,1.1384362,0.80135894,-0.1307071,-0.6757832,-0.47203913,-0.7957729,-0.48343828,-0.7117108,0.20894317,0.09383001,0.41241953,0.044523533,0.73100615,0.13125068,0.29542583,0.85458857,0.918075,0.31465182,0.72701156,-0.35874018,0.6957813,0.079338886,-0.56168526,0.82889605,0.9707375,-0.80342066,-0.45712152,-0.115323775,-0.13097732,0.88341945,0.030708,0.20503628,-0.36752224,-0.63931674,-0.03360712,-0.63258886,-0.3474389,0.18893111,0.13948932,0.84162676,0.36381385,-0.33785027,0.15681104,-0.28213271,0.55991715,0.9236885,-0.038747188,-0.49980122,-0.5351425,0.8572157,-0.3789549,0.31060195,-0.23642558,0.4633189,-0.28767145,0.19558395,-0.12551884,-0.22569285,1.0630032,-0.68614095,0.5331901,-0.24063468,0.71940786,-0.4452136,-0.43316343,0.20945019,0.33237365,-0.5768219,0.7563283,0.9244855,-0.1303791,0.40196484,0.80833447,0.07535244,0.41086125,0.37356877,0.59712684,0.86675227,0.0367918,-0.5548532,-0.8741038,0.6856081,-0.6936889,0.76033616,1.2008861,0.30734795,-0.17879207,0.25068834,0.8926378,-0.12733169,-0.7148584,0.59896374,0.28877673,-0.583723,-0.9373423,0.62467104,0.745703,-0.52243614,0.87124765,-0.34127444,1.2018147,0.067165405,0.37413174,-0.1137424,-0.6892196,-0.8968415,-0.73649555,-0.84826684,0.90014803,-0.17681707,-0.25625032,0.43346024,-0.14948003,1.2786741,0.6290264,-0.7029033,-0.3266101,0.057386793,0.829866,-0.337821,-0.64323694,0.5585678,0.2754628,0.2254487,-0.51639676,-0.023259182,0.3747539,-0.15709043,-0.62931794,0.45604575,-0.6883873,0.78194594,0.53701955,-0.5156935,0.28168282,0.8747184,0.1129663,-0.6492942,-0.00013280947,0.78562266,0.8015205,-0.34759283,-0.76801735,0.25522763,0.3350101,-0.2192031,-0.34346893,-0.92920405,0.43376875,-0.3713031,-0.56852627,-0.85939986,-0.15741184,-0.18993843,0.36299813,0.535763,-0.06035669,0.28892848,0.76527196,0.50589854,-0.42386204,0.632454,-0.52984595,0.72952676,0.08221626,-0.7286708,0.917775,-0.4495102,0.90784216,-0.32134694,0.6823508,0.3475681,0.28342873,0.2980367,-0.4007282,0.3239975,0.8026216,0.82813907,0.55386037,-0.37608758,-0.008047825,-0.6331405,-0.12811466,-0.7158768,-0.39109948,-0.21933144,0.50440085,0.98217344,-0.87620395,-0.72031665,-0.595649,0.99972296,0.061682224,0.77513736,0.37902313,-0.89624804,0.90260416,0.47297055,-0.45706147,1.0063673,0.023688097,0.2165525,-0.18020412,0.26715127,0.81407076,-0.3645147,0.019976145,0.8431628,-0.27280185,0.047295474,0.50251615,-0.57863975,0.18896402,0.6452483,0.08807079,-0.7412923,0.12336421,-0.9909849,0.8685231,0.5501678,0.08143449,0.1772418,0.0636456,-0.09691763,0.80052525,-0.32046944,0.88115716,0.65429366,0.39650095,-0.24134798,-0.8558753,-0.520711,0.56048524,0.8522373,0.7556538,-0.11677733,-0.91988456,-0.45933774,0.8862988,0.32674748,0.07807709,0.7514855,-0.49893045,-0.86130714,0.027794361,0.48940587,0.91926885,0.31292963,-0.19550037,0.858078,-0.5921624,-0.04874277,-0.49273562,0.2451634,0.43062866,-0.81964844,-0.5778309,-0.48902437,-0.5720797,0.91259485,-0.12024547,-0.10853436,-0.1907858,-0.14376305,0.95101047,-0.780864,-0.9042475,-0.019178376,-0.77386975,0.5794723,0.2877369,-0.2059052,0.24426508,-0.87004876,0.27405667,0.81833553,0.6536882,-0.06837106,-0.8394351,-0.3938477,-0.4537921,0.33834577,-0.54738927,-0.859123,-0.979182,-0.64767385,0.5236454,-0.784776,0.33281493,0.8545687,0.40007234,0.5859823,-0.9895873,0.33914685,0.7010801,-0.89338803,0.34114766,0.8369057,0.086185694,0.57394075,-0.51064277,-0.25409985,-0.49783325,-0.6697314,-0.666486,0.77171826,0.06768298,-0.16988626,0.99292237,0.5356491,0.0066132112,0.3653547,0.351759,0.44159487,-0.17164543,0.9629197,0.78915036,0.5014864,-0.3854888,-0.44186428,-0.94370204,-0.51600426,0.19358175,-0.8031897,0.08141942,0.630505,0.88075566,-0.08653569,0.7127199,-0.69127226,0.7121396,0.96086645,-0.3184724,-0.33987808,0.37765956,0.7725025,0.19827513,0.63534003,0.036289666,-0.45873225,0.18173169,-0.84040785,0.5105097,1.0387537,0.13064654,-0.3895042,0.9769292,1.0492389,0.4929295,-0.68519455,0.943498,-0.5777613,-0.4365854,0.045596328,0.90530443,-0.13958372,0.25393954,0.7725358,-0.3207066,0.61108994,-0.495126,-0.13498688,-0.3658383,0.20980883,-0.6408215,-0.3068627,-0.1432113,-0.09034611,0.7823919,-0.8031436,-0.08795982,-0.020815657,-0.2527564,0.24027532,0.220799,0.29181448,0.3069305,-0.6573873,0.9012481,0.9506752,1.0743141,-0.57335746,0.20561741,0.7130189,0.8068955,-0.70029044,0.16007996,-0.62592196,-0.8533356,-0.18453956,-0.7847563,0.6090631,0.037753586,-0.057014484,0.36651316,0.8666095,-0.6774454,0.8850643,0.4834674,0.9734492,-0.48026532,0.1749265,0.26594344,0.22748448,0.38011205,0.4755077,0.5356901,-0.23240222,0.60662794,-0.34230223,-0.7321838,0.66631943,-0.3600473,0.11596447,0.53176594,-0.83489084,0.3694706,-0.4693669,0.83742905,0.25654936,0.7744614,0.9705707,0.66915095,0.9264478,-0.06359805,-0.39172268,0.27198997,-0.2588023,0.76375103,0.021108821,0.40343305,-0.26320076,0.3674479,0.15383363,0.04647255,-0.41125783,0.17575945,0.80904883,0.3531392,-0.58600736,0.37125537,-0.9329945,-0.78746367,0.13095164,-0.3958726,-0.48234826,-0.82011455,0.840972,0.12562202,0.10768971,-0.8271489,0.45599303,0.17656589,0.30698055,-0.3407648,0.26476893,0.24307913,0.043570973,0.3168327,-0.30053002,-0.73225766,-0.29955295,-0.98615617,-0.06377301,0.57251644,-0.087221935,0.63345325,0.39154798,0.28999612,0.8051364,0.07700128,0.20731544,-0.24267372,0.15058142,0.7881672,-0.42484176,0.6168573,0.13983372,0.0779714,0.3082935,0.5406536,0.045889087,0.6380639,-0.27163154,0.17862134,0.1188594,0.17587963,0.62182915,0.048391704,0.12889612,0.13096936,-0.069224246,0.46215156,-0.031090442,0.67053133,0.47870585,-0.090384014,-0.5822822,0.84430605,-0.57350826,0.9004359,-0.54061973,-0.25166708,0.5002122,-0.39282966,0.46871087,0.054631867,0.8526988,0.70192665,0.01426751,-0.23863232,0.18401273,-0.20754655,-0.25407225,0.71446735,-1.139529,0.04786524,-0.63997406,-0.8559927,0.42999813,0.51811385,-0.52988315,-0.36481607,0.15249024,1.3228605,-0.50562644,-0.2501234,0.35618925,0.11604268,-0.5684633,-0.74103755,0.8167515,0.24793044,-0.5764549,0.70641226,0.023197168,0.7196751,0.848393,-0.0013435208,-0.14823227,0.5494343,-0.37359563,-0.68892777,-0.37734863,-0.23609826,0.037165254,0.36667746,-0.027020698,0.1643755,-0.6913965,0.7614405,0.81695956,0.8611674,0.13784552,-0.10674459,0.6053102,0.18050487,0.4258806,-0.5624848,0.55752724,-0.057782784,0.89203537,-0.1771678,-0.36860907,-0.9417077,0.48244578,-0.42088714,-0.3203332,0.7279039,-0.42042047,0.0058563957,0.22025217,-0.8297353,-0.99146026,-0.42034742,-0.20898142,-0.20561497,-0.36777225,0.21450913,0.3808348,-0.27101415,-0.029319253,0.45017,0.5660056,-0.504602,-0.582104,-0.15076585,-0.3697772,0.09856904,-0.68759936,-0.65305364,0.07442726,0.0721697,-0.47294858,-0.09741824,0.49695262,-0.61771995,0.4495637,1.2731882,0.7166949,1.0364546,-0.45222297,-1.1146609,-1.0098107,-1.346253,-1.0659099,-0.9126089,-0.14192107,-0.2265708,0.34441385,-0.19440943,-0.6494885,-0.46431428,-0.12389434,-0.30365708,0.2698598,0.0050095404,-0.59453374,0.1495532,-0.18547776,0.4176528,-0.40120953,-0.3413155,0.16969198,0.5617857,0.87618273,0.6071353,1.1484505,0.37124258,0.26679412,-0.53983223,0.31107512,-0.08744686,-0.37916392,-1.5217888,-0.13830882,-0.9600972,0.64562804,-0.95448655,-0.16127133,0.50511277,0.19180232,-0.64017326,-0.06912563,0.50933856,-0.77942544,-0.24238145,0.30676082,0.50668037,0.590831,0.23397925,0.3387923,0.77503777,-0.0125684105,1.7306395,1.321339,-0.09082778,0.46917817,-0.13244128,-0.20464854,-0.21366732,-1.210379,-0.17999707,-0.1397725,0.27073982,-0.98391664,-0.9246687,0.34058022,-0.45519888,0.40015155,0.7248359,0.9440026,-0.089398436,0.35972738,-0.12901,-0.88530535,-1.154391,0.72438806,-0.33658105,-0.117312916,0.19017334,1.6295009,0.3919766,1.5786791,-0.2787397,-0.5941844,-0.75437677,0.4884374,-0.12659237,0.17469457,0.30181938,0.45178398,-0.12533708,0.8953157,0.54360914,-0.9207783,0.24867229,0.6909645,0.457368,-0.6005621,-0.9994486,0.19469815,-0.44163662,0.10228057,0.19660906,0.292979,-0.747799,0.92391306,1.4009444,1.4060035,0.89105296,1.1996589,0.3194466,-0.0036923361,-0.2926712,0.61075526,-0.91430384,0.31965053,-0.2256847,-0.26050428,-0.060300514,-0.06137132,0.040228605,0.33349228,-0.33788708,-0.8554642,-0.84434074,-0.75138086,-0.75648755,-0.17242174,-0.08964643,0.42998672,-1.0457941,-0.72360986,0.547359,0.1625125,1.6378099,1.6177194,1.3929954,-0.78292286,0.38367385,-0.60501105,-0.32734635,0.05248369,-0.5715093,-0.6824741,0.4019469,0.21079099,-0.6161869,0.86164045,0.106641464,-0.87043214,0.10825962,-0.3525834,0.87160784,0.11974815,0.528402,-0.49642056,-1.0536579,-0.59195817,0.5705268,-0.74553126,1.0718771,0.6621515,1.4564434,1.4615021,-0.42444372,0.11274726,-0.344991,0.34378195,0.07880426,0.4115222,0.1221416,-0.34325686,-0.27637836,-0.28555098,0.15682305,0.498373,-0.6927337,0.80075884,-0.9806971,-0.18295442,0.6060298,0.54036075,0.63223004,-0.12795448,-0.8666667,0.16384445,-0.5029301,-0.3398668,-0.23006338,0.10015913,1.9274156,1.272454,-0.073282465,0.69521594,-0.8293442,-0.42910838,-0.5862351,0.05332043,0.72405857,-0.7362577,-0.20663603,-0.63710904,0.6865954,-0.29897854,0.28634593,0.5381746,-0.5195545,0.38960037,-0.18951324,0.4443633,0.5688567,-0.28231695,-0.053461995,0.36492527,-0.52471983,0.42977062,-0.9962722,-0.005729892,0.43306366,0.0237984,-0.23854722,-0.07276948,0.9016423,-0.08657146,-0.08317444,0.5125015,-0.7841687,0.80600893,0.6776141,-0.030194193,-0.45212844,-0.76294196,0.46605346,0.46406674,0.5640393,-0.22683948,0.50021404,-0.35662234,-0.20114222,-0.55415285,-0.1200484,-0.18370362,0.46755892,-1.0846537,0.20412837,0.12926959,-0.16903807,0.2824253,-0.39342046,-0.038014114,-0.08639279,0.2500368,0.067586645,-0.21701482,0.39929527,-0.2985954,-0.15936832,-0.39792097,-0.8079354,-0.63198376,0.15675092,-0.41092038,-0.38481084,-0.7656619,0.9486636,0.04303509,0.31646332,0.21375035,0.6957768,0.9064405,-0.4690981,-0.37959945,0.07005751,-0.19388781,0.061672777,0.46135587,-0.3855202,0.3654872,1.0445602,-0.23747453,1.0290165,0.1518099,0.25023767,0.3238652,0.4185371,0.58716327,-0.20041206,-0.8461426,-0.30473924,0.94520354,-0.66449606,0.45377117,-0.5843475,-0.20619349,-0.4770253,-0.93437064,-0.049877066,0.11292997,-0.38689476,0.2247435,-0.44560355,-0.11446742,0.57019067,-0.35759637,-0.10549267,0.9709333,-0.27608508,0.80652094,-0.9505291,0.9079556,0.06318235,-0.3370823,0.6753599,-0.1399866,-0.71317184,-0.6392362,0.5506003,-0.77414155,-0.5769055,0.9396043,-0.35014173,0.72264934,-0.17946634,0.06498663,-0.18050475,-0.31653872,-0.1892382,-0.80403465,0.097182475,-0.46415275,-0.13338746,0.2794525,-0.9051088,-0.9408491,0.23629026,0.78522944,-0.33844367,1.0166986,-0.70101744,0.6828596,0.31317192,-0.88520247,0.362614,0.9127635,-0.19273233,0.09825206,0.1203711,0.2578943,-0.3617297,-0.1998437,0.4260418,0.7704815,-0.46352395,-0.094065495,0.21206771,0.68366855,0.54558194,0.43682882,-0.4374235,1.0401437,0.12876551,-0.6951868,1.1247684,-0.6411579,0.2378396,0.15203194,0.42820248,0.6627058,0.4591381,-0.20913239,-0.43985668,-0.51956725,-0.9790888,0.8294337,-0.82974863,-0.48767388,-0.08886675,-0.8176093,0.6222024,-0.92792124,0.9784269,-0.47974208,-0.779118,-0.67313355,-0.71173704,0.28112108,0.3284718,0.8779063,-0.6551461,0.38829774,-0.70130175,-0.7823128,0.18239522,0.8020074,-0.028236862,-0.4778724,-0.6054963,-0.70204693,0.3563335,0.7693429,-0.081487894,0.72573924,0.5748999,0.7477958,-0.47703862,-0.43625012,-0.941102,0.6478537,-0.2628343,0.23513137,-0.2638849,-0.30447218,-0.95633763,0.2895271,-0.8719884,0.1776839,-0.6107461,0.12686282,0.755789,-0.4413431,0.22366638,0.12580028,-0.456048,0.0945467,-0.9338011,0.0856781,-0.7522693,-0.19164443,0.52616405,0.19836283,0.85596585,0.9220638,-0.9956887,-0.6144081,0.4555989,0.52168345,-0.5645786,-0.01564961,0.015883485,-0.21615177,-0.84464586,-0.7546389,-0.65620023,0.8756428,0.8175003,0.9359059,0.84742916,-0.43599945,0.6071774,-0.74632114,-0.9242142,-0.81233156,-0.45335937,-0.5200248,-0.6186757,-0.95133305,-0.64550924,-0.53766465,-0.8856292,-0.7586169,0.0192585,0.4314201,0.82176137,-0.6001687,-0.086615324,0.37830257,-0.3852346,-0.97879195,0.21409583,0.0376091,0.6786289,-0.49287176,-0.08703256,-0.5838845,0.92552805,-0.84682345,0.7119751,-0.66598105,0.49755,-0.6732764,-0.72971725,-0.24706006,-0.6723783,-0.39232087,-0.6776352,-0.807271,-0.5446341,-0.37978745,0.99703693,-0.07141781,0.17960691,-0.13804603,0.9476609,-0.32668146,0.5845471,-0.20157346,-0.14713272,-0.41420406,-0.8021927,-0.29768103,-0.527412,0.45662796,0.008121016,0.550256,-0.32802248,0.7843377,-0.82949346,0.93763477,-0.1186018,-0.26322603,-0.41212296,0.45024228,0.9721613,0.58738065,-0.8764062,0.1651094,-0.032383375,0.36292273,0.8838301,-0.1259942,0.9355705,0.75746536,-0.6644032,0.44179836,-0.031041987,-0.384828,-0.27972543,0.39731175,-0.45973024,0.5175326,0.58569396,-0.3745632,0.9683279,0.006082207,-0.22554658,0.12393537,0.91264385,0.8981977,0.18856913,0.800138,-0.71797323,0.5393405,0.47972345,0.1871891,0.38433337,0.52082604,0.1823955,0.39616832,-0.25379458,0.05332779,0.54577285,0.6087214,-0.020792272,0.16489322,-0.85481066,-0.3774425,0.6769073,-0.5292163,0.88268596,0.2536244,0.5828965,-0.15128556,-0.82212466,0.7985248,0.14107919,0.11840135,-0.90566874,0.01866746,0.2481792,-0.15740395,0.433184,-0.34946892,-0.8555377,-0.025994945,-0.623316,0.11560858,-0.0023284284,0.4218124,0.5359173,-0.8256566,0.85704994,0.6900043,0.45627683,-0.7812636,0.544178,0.21029821,0.38005278,0.0721794,0.74068725,0.31645155,0.03540155,-0.33240536,-0.49902695,0.89460415,0.05792323,0.5518742,0.84191275,0.33807302,-0.13044953,-0.1410811,0.20213898,0.08105941,0.34064275,0.785843,0.7570328,-0.5365183,-0.30333596,0.76878935,0.09771313,0.09367601,0.7926477,-0.90906996,-0.84180975,0.42584255,0.2894626,0.060602605,-0.27766582,-0.3916229,0.4909541,-0.4574383,-0.48642397,0.25960925,-0.94259644,0.80901134,0.85204625,-0.6933346,0.8696056,0.6358729,-0.23334655,0.8514412,-0.8403615,-0.75776005,-0.15378128,0.15039037,0.41849747,0.45783502,-0.046978135,-1.067615,0.07439457,-1.1984724,-0.3438583,0.27153865,-0.6720425,0.39727873,0.24188165,0.31621826,-0.9420608,-0.55963105,-0.54617333,-0.4396117,-1.0517641,-1.0195024,-0.86768013,0.18355258,0.90931827,0.963978,0.09603562,-0.2856185,0.13320619,-0.65313536,0.98019505,-0.09722855,0.5201939,0.05600493,-0.3398465,0.35415587,0.22661792,-1.2522945,-0.09885521,-0.45917293,0.08236124,-0.41317344,-0.8958758,-0.43822864,0.30641094,0.3747351,-0.10579255,0.11353923,0.8526313,0.8504831,0.9131355,-0.033351514,-0.05998367,0.95565784,-0.566582,0.46092746,0.81325203,-0.26863065,0.235819,-0.97878826,-0.020610165,-0.79787076,-0.8313088,-0.3368225,-0.6718902,0.5513196,-0.65603215,-0.93300986,-0.8524721,-0.9192056,-0.5412682,-0.5200074,-0.0010946366,0.52788556,-0.48211804,0.10413575,0.17930453,0.16100201,-0.8898025,0.57896614,0.4780302,-0.98249936,0.46562403,-0.6242338,-0.7052475,0.39716583,-1.0091344,-0.24953648,-1.0898393,0.6315924,-0.56861126,0.37325865,-1.1493769,-0.25845692,-0.8534217,0.49685416,-0.35314593,-0.7900249,-0.52885056,0.24394909,-0.7742653,-1.0700625,0.16365701,-0.64134264,-0.31596237,0.4374606,0.44127515,0.24240658,0.27884477,-0.7322918,0.10181302,-0.25131017,-0.21779464,0.030459005,0.27881408,0.46878365,0.33365962,-1.0252235,0.0866359,0.31189212,0.4337894,-0.11699334,-0.9153238,-0.2286887,-0.23101905,-0.14019506,-1.1815237,0.2564442,-0.06356525,-0.4895291,0.51847047,-1.0906491,-0.61101353,-0.41408557,0.43100673,-0.9879173,0.02671725,0.46446782,0.6169038,-0.5651235,-0.18499027,-0.1375512,-0.0870035,-0.6371285,0.45934293,-0.5701996,0.42362112,-0.5718745,-1.182961,-0.47450343,-0.20430335,-0.77197313,0.4174956,0.1915621,0.30945656,-0.51360095,-0.123601116,-0.671682,0.1723438,0.5019545,0.33860332,-0.68520004,-0.6584931,0.78780556,-0.35727385,-0.05562156,-0.30192733,0.13566981,-0.39856458,0.40756556,-1.0244386,-0.6671319,-0.91506517,-0.39189354,-0.65207523,-0.48694405,-0.6169575,-0.9774906,0.52198476,0.75982845,-0.8278009,0.0031292262,-0.21913654,-0.35439202,-0.6439717,-0.18740326,-0.74868375,0.055190045,-0.54385483,-0.5354376,-0.9964173,-0.8833475,-0.31877747,-0.21195619,0.2039303,-0.2912838,-0.85524184,0.5064566,-0.1379813,-0.2009102,0.60738564,-0.791026,0.45226616,0.17317575,-1.0895008,-0.21435624,0.49065706,-0.87097615,0.76147753,0.5171745,0.7006485,-0.23304424,0.77307624,-0.6815732,-0.68655246,0.53157204,-0.59053326,0.2763722,0.031588316,-0.96688825,0.15604652,-0.36845863,0.9609793,-1.0313917,0.6001932,0.058772407,0.03555147,0.73696715,-0.050913844,0.16273588,0.43474153,0.3018768,-0.116970465,-0.33063835,-0.15153915,0.868357,0.38420686,-0.29060963,-0.069483854,0.33768004,-0.41319597,0.75006694,-0.21536365,0.24070406,-0.64509636,-0.49813798,0.65119505,0.74875927,-0.8383461,-0.75756216,0.41414136,0.50752103,0.1404511,0.87223834,0.12875609,0.46641132,1.0211399,-0.11150248,0.7954846,0.26167113,0.9220102,0.024420792,-0.0060864887,0.83322155,-0.20037542,0.57667917,0.13128082,0.93771803,0.43259943,0.77568257,-0.78971523,-0.8358156,0.22695456,0.5893494,0.7278274,0.053185456,0.24887216,-0.67048126,-0.65805644,-0.06668034,0.41885647,0.83205646,-0.014077061,0.28737482,0.6209541,0.281623,-0.056667753,0.14562264,-0.26658398,0.65111256,0.51747483,0.17048654,0.7667955,0.69522965,-0.5861014,-0.179599,-0.5445094,0.15735129,0.88813967,0.45825306,-0.48196572,-0.74800766,-0.76944786,0.43815517,0.4914233,-0.78735787,-0.27098483,-0.23731843,-0.5542428,-0.61026853,-0.29676285,-0.08672702,0.4515396,0.6414618,0.40844634,-0.039418608,0.45330766,0.8212393,0.6520166,0.6078515,0.38344264,0.051944442,0.7945466,-0.41495967,-0.15264256,0.74061567,0.77392507,0.35683697,0.7789816,0.682788,-0.115117386,0.80064726,0.61104023,0.8466598,-0.37301087,-0.72477293,-0.78189015,0.8927668,0.33933285,0.17453304,0.121103704,0.16950108,0.09825079,0.78917146,1.0438881,-0.07273599,-0.34878924,0.311581,-0.17478551,0.46312466,-0.5259327,0.43909952,0.7379563,0.59997225,-0.63739806,-0.5554383,-0.7232249,0.26088774,-0.8405722,0.99886465,-0.6127827,0.028639726,0.5412302,0.8066376,-0.40052447,-0.10417661,-0.17729875,-0.1843976,-0.6286386,0.25041354,0.05199458,0.06088584,0.7808385,1.3764421,1.0129207,-0.14161684,0.39974603,0.5730081,1.0491488,-0.76779395,0.8749024,1.1180606,0.39169684,-0.3813104,1.0350142,0.85267395,-0.63904464,0.29034686,0.14997326,0.644915,-0.4815782,-0.2891378,-0.19650203,-0.36157575,0.15402573,0.7476088,0.12550266,-0.36545187,-0.27487487,0.033396706,0.1254472,0.234343,0.19917881,0.83360034,-0.20252624,0.6088357,-0.8483816,-0.013300796,0.9272072,0.16340189,0.91376233,-0.43221843,-0.72811687,-0.10944314,0.44153214,-0.86080265,-0.61207896,0.46805966,0.59293336,0.45009944,0.88424647,0.70696515,-0.9392318,0.014708055,-0.91491795,0.5247457,-0.74858695,-0.16621527,0.002732747,0.56955487,-0.22921602,0.61313033,0.14146842,0.7401425,-0.0024599372,0.10679458,0.83676195,-0.6741409,0.13191514,0.730768,-0.840312,0.39691043,0.5283067,0.8525996,-0.3759098,0.8689813,-0.087943286,-0.5734031,-0.03481064,-0.8865235,0.35216668,0.38813025,0.28288642,-0.82960993,0.0010558639,-0.5708594,-1.0198447,-0.6244196,-0.3730007,-0.6776851,-0.09849422,-0.08711419,-0.5615088,0.5623503,0.48076805,-0.16883676,0.03335225,0.76773036,0.9671228,0.8922675,0.56978226,0.1961925,-0.055785418,0.39149278,0.907131,0.39096132,0.5702942,0.3896068,-0.9601057,0.015542952,-1.1542473,-0.16770054,-0.77253485,-0.607503,-1.1785707,-0.54896915,0.04610679,-1.2560558,-0.36506143,-1.0782298,-0.8620633,0.5025602,-0.5679836,-0.57398087,0.32447416,-0.04193709,0.0786012,0.24627501,0.4833393,0.62496924,0.8023715,0.0016034883,-0.6604457,-0.60829705,-0.39970592,0.73759085,-1.0070437,0.18870337,-0.41509098,-0.78266627,-0.5976248,-0.23847386,0.42303494,-0.67742914,-0.051050317,0.24792483,-1.1414417,-1.2136393,-0.041185956,0.14012097,0.70323807,-0.31444058,-0.68470275,-0.21926421,-0.4003657,-0.13326788,-0.0438807,-0.18853974,-0.1723609,-0.34437642,0.6075381,0.22608702,0.60848033,0.8833797,0.46121755,-0.76089597,0.9094004,0.14507262,-0.15139258,-0.3165027,0.3681111,-1.2333392,-0.3823164,-0.526008,-0.89376044,0.13354634,0.17479926,0.2786066,-0.3247761,0.8406668,-0.29513925,0.96160394,-0.044596672,0.8743031,-0.789943,-0.514112,0.78985524,-0.43856263,0.55038,-0.5653231,-0.2946359,0.85825324,0.25447634,0.121242136,0.13097487,-0.7292767,0.7250374,-0.6367461,-0.42419958,-0.374004,-0.0346853,-0.27856413,-0.35087457,-0.47268787,0.10545632,-0.29810295,0.12364721,0.5497439,-0.5201647,-0.952106,-0.9544935,-0.36262703,-0.88767123,0.7340791,-0.7754941,0.4581895,-0.37236667,0.50672716,-0.89665985,0.037765957,-0.96018136,-0.21121682,0.6677555,0.51379263,-0.2122222,0.027097836,0.8416165,-0.6428368,-0.66649413,0.920812,0.33088192,-0.7311284,0.5082856,0.10956639,-0.20891917,-0.7860841,0.26507753,-0.44115925,0.33269453,-0.94512653,-0.46855617,0.5466256,0.8718195,0.08320117,0.7468939,-0.7625656,0.008968115,0.11134267,0.27099133,0.15464544,-0.85578656,-0.082978725,0.48829556,-0.30640307,-0.09099397,-0.076205015,-0.5385802,0.35144472,-0.10677266,-0.42514873,-0.23493147,-0.022857428,-0.30434442,0.7587557,-0.39739394,-0.77572227,0.27062845,0.2843287,0.20439887,-0.5395701,0.40357137,0.65437603,-0.0988853,0.9705086,-0.46533608,-0.2362458,-0.29327208,-0.99713993,-0.9199303,0.30065274,-0.105198376,0.07982905,0.80483145,0.5457392,0.5293588,-0.09066374,0.74066496,0.84509486,-0.28229663,0.10326065,0.8134657,0.31235987,0.03792119,0.61506224,0.005699873,0.33812714,-0.30730677,0.9779978,-0.3614998,-0.31660104,-0.67890614,-0.03715846,-0.106657535,-0.77018154,0.53919953,-0.2974005,-0.97331357,0.6331036,0.42721617,1.0906966,-0.031876173,0.13141705,-0.82063335,-0.771601,-0.26245677,0.8582818,0.1142787,-0.82754433,0.6934,-0.36487204,0.68973345,-0.15954499,-0.6493687,0.24408245,-0.57814074,-0.6282282,0.9461808,0.07928659,-0.108476445,0.3662547,-0.52730733,-0.4146648,-0.41923565,0.75851506,0.47299376,1.0037066,0.7426995,-0.47859237,-0.05600206,-0.24799705,0.31790715,0.5539683,-0.23816283,-0.51206565,0.8036861,-0.12394578,0.23698023,-0.4075766,0.026796764,0.7789983,-0.46940672,0.39207488,0.33073807,-0.7739041,-0.97139037,-0.73801374,0.5792833,0.5889752,0.27663586,0.335442,0.5129072,-0.4852315,-0.82927483,0.74290603,-0.8179444,0.04176389,0.51587933,0.82321954,-0.68222094,0.44757333,0.8498974,-0.89045334,0.40599513,-1.066315,0.6408253,-0.07945224,-0.3392833,-0.5281139,-0.10442359,-0.45774618,0.4653993,0.47255564,0.9264326,0.9781003,-0.33462396,-0.6976267,-0.20968208,-0.23288164,0.06674191,0.053766593,-0.029572422,-0.76121074,-0.429949,-0.67729336,0.051792543,-0.5829224,0.9095405,0.45321533,0.6038573,-0.34540668,1.0058961,0.8873322,0.35336745,0.9142762,-0.15242971,-0.29560983,0.44834903,0.95718104,0.4532052,0.33112502,-0.12532258,0.585662,0.37061423,-0.41852027,-1.221711,-0.35847458,-0.49799675,-0.25130326,0.6663949,-0.20512983,-0.115791775,0.43897453,0.0911953,0.24482132,0.8375631,0.47535792,0.5509666,0.19837147,0.93701136,0.05247407,-0.658331,1.0439162,1.0831409,0.9748286,0.38964584,0.4928606,-0.47895238,-0.89462495,-0.888966,-0.115592115,0.6720416,0.3187606,0.5094826,-0.073790975,-0.61133814,0.60417014,0.30838412,-0.4868655,0.21807997,-0.13841917,0.5699772,-0.12019307,-0.42470294,0.8868344,0.4303596,0.42039633,0.6512607,-0.50833875,0.67765903,-0.62650144,0.7533701,-0.062126428,0.41858897,-0.35723987,0.6684175,-0.81156254,0.8389831,0.8508215,-0.01771232,0.3610191,-1.0646232,0.039937533,-0.22418104,0.08698583,0.8534497,0.07652434,0.2778549,0.05012636,-0.17212008,0.030012874,-0.8568028,-0.95029545,0.4455609,-0.550469,-0.18106627,-0.46793893,0.058507595,-0.7097101,0.54192036,-0.27155903,-0.7797859,0.50283194,-0.6584259,-0.4095466,-0.22995876,0.6529231,-0.87125313,0.5872009,-0.79097587,0.0002608774,0.7130218,-0.75077486,0.10583804,0.011786272,0.017105326,-0.32382852,0.6223798,-0.65950996,-1.4995421,-0.9744375,-0.37804326,-0.4468784,-0.00758401,-0.75785595,0.16976891,-0.37131232,0.513014,-0.2324056,-0.41349277,0.76394683,-0.41155243,-0.6814592,-0.4162976,-0.94603443,-0.4896181,-1.009827,-0.060841657,-0.53598624,0.6764693,0.12049609,-0.267265,1.0390855,1.2409989,-0.46513262,-0.15155362,-0.122425444,-1.1087215,-0.71168023,-0.95536107,-0.70410335,-0.19731683,0.35254863,0.8085805,0.06849084,-0.10780348,-0.6326368,-0.33782998,0.597636,0.83638644,-0.18165922,0.4715582,-0.31337938,0.60936594,-0.92494565,-0.11685417,0.5733871,0.95287544,0.71481556,0.15217468,0.9365295,0.4146536,0.60028017,-1.0454314,0.122278474,-1.5104162,-0.32820374,-0.83443624,-0.9809524,0.65217626,0.29649344,0.12647022,0.51542217,0.54263765,0.88286465,0.22392014,-0.5816199,0.22681242,-0.2521726,0.9378851,-0.3476985,0.15704817,0.78214145,-0.6557,0.45840824,-0.5996866,-0.049838807,-0.32682818,0.63625294,0.45222414,-0.53326225,-0.38069114,-0.43098518,0.03645754,0.6554209,-0.51159585,0.16235748,-0.5633469,-0.20329757,0.41611132,1.2969482,1.151862,-0.06254795,0.11525041,-0.98685753,0.32907534,-0.17058897,-0.173387,-0.3173246,0.7636271,-0.8793379,-0.54340386,-0.62682563,-0.2939067,0.035426587,0.070939384,0.7582734,0.024553696,0.92856413,-0.9099688,-0.35704228,-0.5118879,-0.045510825,-0.21676739,0.3488839,-0.41865328,0.21986048,0.32747236,0.22955526,0.7534233,0.86698824,0.74336624,0.6205322,-0.25289422,0.9131503,-0.71506304,0.7598705,-0.041811366,0.07023917,-0.4458916,1.0974842,0.8979927,0.26305878,-0.55342525,0.053138554,0.12846617,0.34724844,0.23983788,-0.51761466,-0.66309875,0.09731883,0.13139933,-0.6286719,-0.33251372,-0.10840411,0.66072583,-0.5933905,0.53152645,0.31251812,0.4881719,-0.101091735,-0.2888663,0.22041501,-0.2917395,0.51903236,-0.76854634,0.7032753,-0.2500739,1.1442841,1.0066376,-0.097179785,1.2285048,-0.15154715,0.5864756,-0.3222675,0.15911156,-0.5674402,0.25015208,0.20705622,0.30264843,-0.29311946,0.031354997,-0.6907071,-0.6052552,0.12732425,1.0973414,-0.64884263,1.0005615,0.3952138,-0.21352549,0.46037284,-0.040086746,0.4326342,-0.5086034,-0.843713,-0.5103263,-0.53944683,1.144012,0.6930267,1.54202,0.55555916,0.8560139,0.63063985,0.9619897,-0.09741546,0.59056485,0.4864155,-0.10162157,-0.73107415,-0.3482382,0.46539843,0.041180525,0.70997745,-0.7610281,-0.6262842,-0.35776553,0.58262825,0.7061357,-0.4071691,-0.51788706,0.113018,0.787923,-0.82713395,-0.005071765,0.41247323,0.36570764,1.050647,0.3067631,1.4240637,0.47117728,0.09140571,-0.6920982,0.5374764,-0.7117352,-0.3503467,-0.49491116,0.3811824,-0.34073964,-0.019276742,0.49346656,-0.17100023,-0.81426805,-0.63131005,0.00994839,-0.40792453,-0.77801806,0.89602375,-0.6727942,0.5891017,-0.82262427,0.07941186,0.5494234,-0.41858572,1.152974,-0.17037182,0.27086377,0.19497506,0.21912527,-0.3504622,0.23745929,-0.16028035,0.034978677,-0.6641372,0.33532903,-1.0687584,0.21300328,-0.42688787,0.055890962,0.4861215,0.800322,0.54700553,-0.17947228,0.015546648,-0.62047577,0.011254787,-0.05759304,0.030263193,0.7322616,-0.8754763,-0.3093046,0.36334577,-0.4250337,0.2802838,0.19817072,1.3737952,1.2112259,0.22300996,-1.1102287,0.42278242,0.66078967,0.786649,0.17946807,-0.57910055,-0.64653206,-0.6290718,-0.8719989,-0.25739363,0.7604131,0.1547732,1.0107092,-0.5257512,0.4199923,0.93432164,0.9903608,-0.58251154,0.8419279,-0.72189546,0.023646157,0.41485712,-0.69193023,-0.17787394,0.33425805,-0.15457173,-0.05662534,0.26633844,-0.6272462,0.3818104,-0.24180844,0.48455778,-0.23360491,0.8079509,0.15079994,0.7456477,0.20530851,-0.46665812,0.41933167,0.653084,0.31224823,0.32261142,-0.7491506,-0.052722216,0.19438273,-0.48487163,-0.2526333,0.12369977,-1.0450348,-0.018081596,-0.8163417,-0.16232137,-0.014409713,-0.4532138,0.5014779,-0.006586529,0.81647414,0.19441645,-0.6743235,-0.4502164,-0.17597777,0.42678508,-0.035377916,0.110676885,0.98942095,-0.024324251,-0.5954207,-0.22290535,-0.053704046,-0.6187459,-0.08441448,-0.7654462,-0.9869368,0.06267102,-0.15573686,-0.6877855,0.62090665,-0.7688804,-0.38805267,-0.39086813,0.2651299,0.32339376,0.4848872,-0.4363478,0.0325546,0.30741915,-0.077929705,0.7072576,-0.6594403,-0.5832451,-0.24852124,-0.4611931,0.7709045,-0.63166666,0.12739362,-0.8884192,0.6153929,-0.39517742,-0.8658736,0.8402307,0.5645251,-0.2371502,-0.43664727,-0.6839637,-1.0921499,0.009674486,0.11354199,-0.4206498,-0.5461375,-0.47211486,0.2276934,1.0794301,0.29345766,0.29740292,-0.5792576,0.29300782,0.14821757,0.9118978,-0.7820665,0.27880147,-0.3577315,-0.8322072,-0.045543954,-0.3392123,0.4948521,0.0306071,0.48406363,0.82479715,0.2577219,0.107932,0.5681948,0.17082623,0.2959609,0.09109786,-0.53476006,-0.811152,-0.25583446,-1.0169287,0.85506076,-0.7270352,-0.51881665,-0.016256884,0.47057533,-0.25371802,0.8693932,0.40066376,-0.26637453,-0.49545792,0.25948203,0.07662276,0.6516028,-0.17142962,-0.8353067,-0.2886216,0.8885975,0.004942417,0.35995364,-0.7020557,0.72524655,0.66612065,-0.53496647,-0.8899806,0.31407025,-0.47404006,-0.6871381,-0.73057175,-0.7415906,0.24997906,-0.4593436,-0.015013714,0.37199432,0.2394067,0.3130741,-0.23399058,0.78699696,-0.41609716,0.1901893,-0.5695284,0.9462066,0.69618416,0.6312568,-0.7037466,0.3787191,-0.4216485,0.9568949,0.28168893,-0.58208287,-0.017127445,-0.9920864,-0.93123776,-0.6780361,-0.30870366,-1.0868177,-1.0541879,-0.7638186,-0.019143328,-0.0693723,-1.143948,-1.0236825,-0.3445446,-0.021636996,-0.81961995,0.65099096,-0.22453661,0.3900426,-0.1351861,0.93656534,-0.15302213,-0.5298896,0.9077816,-0.94539714,0.6696682,0.74632764,0.21343637,0.666075,-0.24420142,0.9074817,0.52213717,0.47521892,0.5012097,-0.67069215,0.7771794,0.31919983,-1.0004661,-0.58297735,-0.20077792,-0.48125118,0.6275746,-0.84319633,-0.42664784,0.34240633,-0.6947313,0.06410648,-0.5541633,0.37628672,0.08390808,0.16189456,-0.63865733,0.3355565,-0.5200646,0.28199792,-0.63344026,0.42188573,0.4800403,-0.39708877,-0.52654123,0.45439005,-0.9941566,-0.5578029,0.9890418,0.5337126,-0.09599092,-0.56078243,-0.98431134,0.14006472,-0.036009073,-0.1868186,-0.53662634,0.51212144,-0.8635175,0.47912288,0.7962167,0.09300566,0.2464683,0.8223345,-0.96538377,0.3580401,-0.2033906,0.62200046,0.5716858,-0.8913553,-0.74315614,-0.3336508,-0.50900126,-0.943318,0.3000467,-0.89509,0.74178934,0.58383864,-0.6768028,-0.4685052,0.7199,0.15998282,-0.05818211,0.920548,0.28156117,-0.78276587,-0.3080763,0.54460514,0.040278915,-0.7544633,0.1423645,-0.7231574,-0.250839,0.35737348,0.82966137,0.09589982,0.62569594,-0.7094939,-0.26606572,0.17261226,0.043801837,-0.1704026,-0.7308425,-0.82907885,-0.5752445,0.69307965,-0.7301357,0.19580555,1.0462042,-0.78652877,0.45426053,-0.09553739,-0.5689409,-0.41769135,-0.30482075,-0.93536025,-0.2585031,0.7350458,0.8028153,-0.88110393,0.84661627,0.96207833,-0.8437257,-0.45048308,0.058494773,0.51587796,-0.9746022,0.62787473,-0.93786293,-0.29487038,-0.7744759,0.7134395,0.23510484,0.85398436,-0.34566954,-0.07167029,0.59059894,-0.8932005,0.7750499,0.11319035,-0.50462914,0.16382352,-0.3388785,-0.52655053,-0.27640525,-0.41374955,-0.72775966,-0.12160158,-0.13394457,0.57102466,0.70433044,0.9748094,0.9260097,0.5199794,0.78242147,0.76543313,-0.58725864,0.23516592,-0.6373684,0.72718555,-0.88093746,0.50548065,0.10718709,-0.14790887,0.20877928,-0.23522972,0.8683687,0.061788354,0.37376916,-0.45234805,0.67340964,-0.72577006,0.16864173,-0.5303419,-0.7307797,-0.951807,-0.30499858,-0.73422265,0.49483848,0.52895355,-0.32384166,-0.017688077,0.32402703,0.683385,-0.21713702,-0.82363725,0.32077804,1.0438282,-0.45936298,0.33125845,-0.17213567,0.38182947,0.38843322,0.7206107,-0.06374073,0.5703621,0.06911438,0.39029574,-0.7978862,0.55951446,-0.67496747,0.38707602,-0.056142453,0.4846315,0.24911658,-0.5292983,-0.7706232,-0.10157728,-0.8497414,-0.8442864,0.5956936,0.5046133,0.2946856,0.8035845,-0.5391148,0.6344304,-0.11890509,0.35367182,-0.40927762,0.48258576,0.6771536,-0.34569174,-0.40838128,0.07009115,-0.8262262,0.19601943,-0.938295,0.43937674,0.42967266,0.3748649,0.20887555,-0.31736416,-0.007974724,0.48189422,-0.95753294,-0.7238929,0.6976216,-0.21212763,0.39121735,-0.32003468,-0.85333717,-0.009249957,-0.012167517,-0.66160536,0.6783523,-0.10871956,-0.096195325,-0.37813064,0.26755676,0.035959862,0.20538774,0.10009627,0.7064483,0.26841885,-0.47584856,0.22174662,-0.53482616,-0.20292011,-0.9089315,-0.70000064,0.67907655,0.5537952,-0.36770958,0.88332397,0.86836445,-0.7673051,0.24929371,0.05472691,0.043409247,-0.13670188,0.15664239,-0.08227751,-0.19607951,0.72337306,0.08419041,-0.64500284,0.22481641,0.2684922,0.27049056,-0.657272,0.47966936,-0.24494064,0.30034107,-0.7408902,0.81603825,-1.3171126,0.3721875,0.65354866,0.38088867,-0.17483537,0.2860514,0.3302027,-0.33335745,0.61739,0.04224031,0.2978636,-0.687211,0.4265027,0.09086914,0.58863544,0.011926386,0.08089125,0.62587976,-0.48333672,0.40811557,1.0253457,0.57159555,-0.21456726,0.4757333,0.5348028,-0.7449038,0.24314222,-0.82170725,-1.4665523,-0.47146428,-0.007317462,-0.041249804,0.2693547,-0.3893614,0.5939722,0.9166126,-0.8496323,0.12863742,-0.6782157,-0.40744936,-0.21070807,-0.05146936,-0.11415135,-0.24909414,-0.05163529,-0.7242581,-0.44606507,-0.140356,0.36185426,0.37490603,-0.64720863,0.00069895544,-0.82713544,0.30141774,0.023636853,-0.5542299,0.088825926,-0.37730056,-0.16264728,0.24920166,0.38752264,-0.54742163,-0.33981922,-0.30119523,-0.15640195,-0.107003145,-1.1523407,-0.74763596,-1.0345604,-1.4231814,-0.9747338,-0.9311689,-0.73089784,-1.4724377,-1.9025947,-1.2405165,0.2951481,0.10881321,0.6720917,0.38531741,0.7845576,-1.0254116,-0.044056397,0.18850532,-0.9567584,-0.98141706,-0.8496776,0.0171148,-0.27139783,0.023398638,0.58340293,0.23435527,-0.87835526,-0.4003648,-0.19351222,-1.6907841,-1.8870794,-1.2397652,-0.6121227,-0.8576515,-1.6452366,-0.9972175,-1.0210792,-1.1870074,-0.0973463,-1.3070717,-0.32252896,-0.6571281,-0.13714767,0.6693019,-0.836839,-0.35200348,-0.19344981,-0.042720452,-0.6981105,-0.13872719,0.19816029,-0.9683008,0.89978987,-0.05582533,-0.9596935,0.5481248,-0.14412504,-1.3831941,-1.3116008,-1.3687196,0.0070466185,-1.1597531,-0.75459903,-0.2798341,-0.3595055,-0.8536446,-0.4655784,-0.29232723,-0.33224183,-0.7452409,0.19602662,-0.84158516,0.5654571,-0.3974545,0.39911863,0.8232903,0.87413824,-0.7981013,-0.2571593,-0.22749782,-0.13988924,0.35164717,-0.8894537,-0.56931657,0.13700138,-0.35915563,-0.09479457,0.4264176,-0.36942708,-0.4917398,0.69793797,-0.75328434,0.3655553,0.20796043,-0.7296074,-0.029867979,-0.88727635,0.47238353,-0.96995115,0.5249841,-0.58802056,-0.09785968,-0.44609246,0.7465474,-0.09591024,-0.59242773,0.573246,0.41189027,-0.11037421,0.3140241,-0.6179209,0.46801898,-0.04686363,0.5600418,-0.19539855,-0.24441528,-0.2075997,0.66774946,-0.059388407,0.47373605,-0.40111178,-0.5248302,0.5881525,-0.27822247,0.3984497,-0.3811068,0.064928785,-0.6729804,-0.7003089,-1.2963123,-0.35351938,-0.4399515,-0.535958,0.5238125,0.2722069,0.4503839,0.16733761,-0.84479773,-0.85308844,0.21871968,-0.59627444,0.1345966,0.79069334,0.39173093,-0.49753922,0.15468118,0.51160073,0.2218852,0.1694065,-0.2970544,0.92091817,-0.2747909,-0.21477824,-0.061279174,-0.548455,-0.87293047,0.38094303,0.65561044,0.112859115,0.05603719,-0.32148364,0.27215698,0.6015268,-0.10300374,-0.8997619,-0.95824206,-0.6246159,-0.49990958,0.8226423,0.27629486,0.6602226,-0.7556263,0.0018592797,-0.15459836,0.352424,0.46743917,0.15051827,-0.06913218,0.3069959,0.047243267,0.19568889,-0.87037283,0.28756958,0.46271586,0.06105856,-1.0070261,0.7729677,-0.25026262,-0.21175681,0.28853273,-0.086500674,0.8849554,0.40203357,-0.81094515,0.8277929,0.8675601,-0.35744467,0.18621483,0.59228927,0.6205389,-0.32814518,0.83841914,0.6753446,0.9344468,0.75408673,1.0624007,0.017920533,-0.11189537,0.28612882,-0.1473091,0.50643504,0.6020337,-0.3075385,0.97105026,0.6379091,1.3590528,0.5840917,0.35489625,-0.9987406,-0.24784994,0.100649506,0.42209974,-0.68059826,0.90181196,0.7256459,-0.70359075,0.9807066,0.41550854,0.7247109,-0.062000036,0.33997864,0.5387102,0.39087093,-0.6566416,-0.54879713,0.037477393,-0.65041995,-0.02756251,0.50549483,-0.78870815,0.2026547,-0.43971774,1.088184,0.21638289,0.1736067,-0.2631216,0.9721463,-0.6955192,-0.7934938,-0.32194388,0.085843585,0.77051264,0.10752772,0.75966984,-0.65560025,0.25785795,0.45421886,1.1389464,0.5774364,0.18036665,0.19336998,0.7355015,0.05308235,-0.5035934,0.50693727,-0.43496534,0.82318854,0.5484742,0.106809855,0.68411845,0.6624151,-0.37691325,0.17562847,-0.35486424,0.9392662,0.33612132,-0.91781706,0.54971665,-0.60910773,-0.6589879,0.61836505,-0.28957,0.22959456,0.3768379,-0.43098617,-0.20524648,0.17868856,0.2930833,-0.12099826,-0.7365662,-0.8624246,0.16825151,0.41950876,-0.6801973,0.5479847,-0.5468019,0.7915899,0.31133163,0.93265694,0.7830491,0.83154994,-0.84227544,-0.77020407,0.13918424,-0.16624281,-0.48888978,0.03491326,-0.14820847,0.76174974,0.2545294,0.08954096,-0.46561167,0.4661798,-0.3726821,0.015130902,-0.17276275,-0.5707938,-0.26250422,-0.6451542,0.15796073,0.24957982,0.3140376,0.70963806,0.42041054,-0.5569902,0.84754115,0.39259747,1.148516,0.4023091,0.19367328,-0.68927693,0.6556926,0.35195255,-0.5283613,-0.601129,0.50016767,-0.89058787,0.7987355,-0.012143752,0.29446623,0.048443135,0.3957227,-0.74572235,1.1103021,-0.14743601,-0.692172,-1.4029462,-0.68283784,-0.0648282,-0.49809378,-0.2705933,-0.12607653,-0.5714035,0.8010885,0.28231895,-0.12010672,0.4779212,-0.73936564,0.78512025,-0.06529164,-0.6050875,0.19571264,-0.3294423,0.029541088,0.23355143,-0.2826696,0.36378843,0.112422176,-0.40554342,-0.49480078,-0.19099812,0.5307146,-0.26847613,-0.12827504,0.52986676,-0.6063419,-0.55335957,-0.6678284,0.12845322,-0.22942798,-0.1836824,0.4483287,-0.9454999,0.7594581,-0.59909135,-0.05235906,-0.56200147,-0.42187548,-0.14455318,0.9620929,-0.79421633,0.18048929,-0.8440414,0.06516582,0.41043425,-0.72760266,-0.94936574,0.15566383,-0.8525188,0.53949773,-0.586699,-0.28724733,-0.05965808,0.40610352,0.14078571,-0.009939679,-0.59476876,-0.5996263,0.5872389,0.057450112,0.70351213,-0.6117396,-0.3351332,0.7833399,0.5352633,-0.12407756,-0.4964757,-0.5005872,0.012486458,-0.64027584,-0.7332224,-0.44067407,0.8961207,0.6619649,-0.85783076,-0.019197721,-0.045751266,0.7501175,0.070530854,0.0057706162,0.7850551,0.5934013,-0.22681513,0.53648806,0.81748426,-0.60655725,0.70627123,0.86044204,-0.48049465,0.7594645,0.8243072,-0.9688823,-0.07159901,-0.44446087,0.8911214,-0.2563076,-0.2449851,-0.17463653,0.4058102,-0.4285049,0.17027299,-0.67084175,-0.8122093,-0.09009687,-0.7981045,0.5818391,0.4202673,-0.6441392,0.0278378,0.39123568,-0.2828276,0.8205457,0.52559036,0.29906872,0.5087877,0.25697452,0.31714565,-0.23773718,-0.7427039,-0.50714445,-0.8364849,0.22808576,-0.3710699,0.77804255,-0.7218225,0.45243573,-0.3982756,0.05828333,0.65138054,-0.3065467,0.76091623,0.34761667,-0.07272482,0.66798925,0.23218846,-0.401726,0.661232,0.047823906,0.37015986,0.1925509,-0.0039327145,0.8606415,0.74500585,-0.79042864,0.50843,0.93544626,-0.36366796,0.25008988,-0.013643265,-0.98107505,0.7429054,-0.27037454,-0.06819296,0.27850676,0.9967928,0.27127266,0.10130644,-0.7218009,-0.41337866,-0.88375527,-0.21801913,0.29311156,-0.8431175,-0.24760997,0.81015426,-0.8647095,0.14944841,-0.14894792,0.29251483,0.79810125,-0.29342347,-0.7491827,0.44741237,-0.84426975,-0.42372227,0.27237558,-0.489192,-0.8166809,0.84805393,-0.6535511,-0.70148253,-0.5987694,0.8148059,-0.4666686,0.17882979,-0.90928066,0.13753541,0.9485742,-0.05821173,-0.50607926,0.76866174,0.47831175,-0.7934479,0.7775945,-0.26129922,-0.60727733,0.18515514,0.013353839,0.5401856,-0.5403626,0.73679644,0.48013446,-0.47802693,-0.7007084,0.9934733,-0.8321924,-0.22239184,-0.22776031,0.4811671,0.7152593,-0.7991748,0.252234,-0.8192679,0.776496,-0.7721331,-0.77386975,0.062806085,0.45523056,0.18853131,0.13772085,0.4229654,0.85011524,0.9556483,0.1458076,-0.7068518,0.34666756,0.69805974,-0.041790847,-0.37490913,0.21657749,0.7217318,-0.3438766,0.5545747,0.52321744,-0.07222295,-0.1649217,-0.40944293,0.7420487,0.7293287,0.23146634,0.08104466,-0.30142447,-0.04914602,-0.4826142,-0.12905605,-0.61302376,-0.81412256,-0.8271412,0.072458945,0.5560471,0.5466516,0.54240096,-0.7727864,0.2724964,-0.20993891,0.25708324,0.7567852,0.70992196,-0.333129,0.5471222,0.80155706,0.36220694,-0.025113106,0.80993617,-0.67443854,-0.8143461,0.17775054,-0.44361147,0.8877309,-0.12302202,0.6004308,0.5572137,-0.15552808,-0.60411423,-0.49498948,0.14347906,-1.2556219,-0.5468372,0.15837745,-0.025992079,0.670092,0.10717553,-0.0042436724,0.7422122,-0.49601424,0.7750503,0.8946993,0.37343073,0.6118922,0.79675984,-0.28735065,0.5891329,-0.114122026,-0.0076228194,-0.85101134,-0.2913559,-0.14288048,-0.45154166,-0.66792357,-0.46612814,-0.52879834,0.4910626,0.54222786,0.64495295,0.1432353,-0.7719352,-0.18418226,-0.07179254,0.5826581,0.16794598,-0.20570679,0.30460906,-0.6143667,0.45735666,-1.0433365,-0.5093103,0.076603435,-0.15390754,-0.574111,0.6429361,0.20093179,0.4892694,0.122028984,0.6398606,-0.63085526,-1.2730155,0.4943443,0.32684034,0.32903707,-0.1360495,0.8562447,-0.2144683,0.5911573,0.904247,-0.1896779,-0.6995988,-1.0087479,-0.8930315,-0.4312822,-1.1841551,-0.23551719,-0.39645636,0.09856297,0.6458101,-0.13340966,-0.8032601,-0.8972118,0.76410824,-0.6542916,-1.0800802,-0.23047131,-0.48819742,0.5134943,-1.1384392,-0.830669,-0.9281985,-0.921739,-0.7717154,0.3655256,1.1911643,0.08066776,-0.17400654,1.0590478,0.07576167,0.21742813,-0.21269855,0.36775613,0.52219236,-0.6199679,-1.1209456,0.5111684,0.14631543,-0.7865112,0.123147964,-0.8902604,0.968308,-0.5055951,0.25972962,-0.6355837,0.24318206,0.05185771,0.08778452,0.30177462,-0.99513185,0.5826085,-0.11646558,-0.4367132,0.4105633,0.73879284,0.08472343,0.22822407,0.47419733,-0.44875425,0.5554346,-0.5993132,0.42360935,0.5777403,-0.440624,0.90548056,0.93284583,0.7269054,0.48373517,0.09921115,0.9256292,0.5982812,0.5743469,-0.21165834,-0.61279833,-0.680684,-0.9338306,-0.29976484,0.41630778,0.4584903,0.51073104,-0.55403966,0.51641595,-0.5581481,0.67429423,0.10636393,-0.6642575,-0.7981296,-0.2755731,0.24664938,0.442401,0.27034518,-0.85039055,-0.8848532,-0.5117313,-0.65627074,0.9272795,0.21130219,-0.13507922,-0.644581,0.40943375,-0.7085576,0.112905174,0.6764782,0.74710155,-0.596818,-0.56417036,-0.60578096,-0.77630967,0.11395217,-0.15232122,-0.93816864,0.37661418,-0.7319413,-1.1087778,-0.6747892,0.38831967,-0.59447646,-0.74219286,-0.05833916,-0.9792053,0.12875627,0.5450446,0.19035187,0.80471706,-0.5495046,-0.8527369,-0.7308191,0.61075455,-0.16629879,0.48498365,-0.41463688,0.09140024,1.3110355,0.55380553,-0.7037342,-0.17131604,0.29465657,0.6635035,0.6208662,0.6437063,0.10620453,-0.35957873,0.66063005,0.8485659,-0.38218245,-0.25968578,0.6762352,-0.14690953,-0.1397112,-0.6237158,-0.46191105,0.2189722,-0.4625921,-0.03433486,-0.1568874,-0.8110274,-0.8620058,-0.04926136,0.8901061,-0.16651206,-0.11767098,0.12801525,-0.61762846,-0.5027733,0.16725272,-0.42707095,-0.5142657,-0.17995466,0.35700434,0.15612826,-0.124151446,-0.73909026,0.23306759,0.38531882,0.78666174,0.78472936,-0.78617847,0.73629045,0.47904643,-0.80138826,0.9760468,0.7035359,0.75014514,0.8385291,0.49730143,0.9641073,1.1701366,-0.25749657,0.9669237,0.2631633,1.2659158,-0.70369625,-0.16108687,0.15918484,0.13738856,0.003400103,-1.1654027,-0.416191,-0.11157374,1.0722356,0.8056761,-0.04939211,-0.063618794,0.32376486,-0.9608058,0.006785482,-0.11979742,-0.61821866,-0.0027028578,-0.47693413,-0.79747784,0.1018427,0.6480335,0.19390386,0.4927704,0.58343923,1.1388836,1.2025427,-0.5606742,0.58502334,0.4813837,-0.65260935,0.29971287,-0.41158184,0.38781813,-0.5957852,0.46137723,-0.07616609,0.63188934,0.57395995,1.1629812,1.0009712,0.19246842,-0.2589821,-0.5102043,-0.26572776,-0.083432674,0.49007586,-0.27979195,1.0129542,0.33356315,0.53761786,0.6537426,0.59215325,0.7660912,0.67819196,0.9167553,0.29157522,-0.66640633,-0.6792955,-0.67305326,0.21018523,-0.18317911,-0.3959007,-0.12281333,-0.2599294,-0.086981155,-0.10078479,-0.39343023,0.57251024,-0.7151287,0.6165706,0.81789976,0.6147518,0.18701787,-0.736452,0.928152,-0.73902273,-0.19779612,1.1246943,-0.0741432,-0.51313007,-0.3194057,-0.68124366,-0.73602396,0.38726562,0.7078843,-0.29822895,-0.8775354,-0.91681474,0.21483617,0.13863283,0.54223317,0.34675434,0.59282345,-0.20113982,-0.0036797903,0.12724444,0.7516738,-0.08003056,-0.2959055,-0.6505698,0.42157564,0.72799534,-0.26844445,0.21126704,0.3663835,-0.3380049,0.029582728,-0.20794286,0.8951414,-0.48738113,0.93534374,-0.4653912,-0.10189863,0.06400827,0.80044556,-0.0703898,0.1167279,0.3917592,0.54245,-0.61272204,0.119575694,0.46496642,-0.3506046,0.17654243,0.82725453,-0.75793976,0.9782103,0.9162873,0.10319005,0.49652848,-0.67641544,0.18360607,-0.21877943,-0.20565763,-0.42556727,0.8239563,-0.16490537,-0.2991414,0.33263296,0.6972827,0.25310764,0.8714489,0.35592356,-0.5442599,-0.5996197,0.54548573,0.5369167,0.5303186,0.111866854,0.03160241,-0.5783516,-0.8583066,-0.02977615,0.66369265,-0.21862978,-0.21228218,-0.22441047,-0.5874796,0.38940883,-0.6813616,-0.30179167,-0.3036587,-0.86605483,-0.38874894,0.12727231,0.12118927,-0.07154557,-0.7637035,0.86782914,0.33261478,-0.033692386,0.19582923,0.6288777,-0.14802349,-0.31581914,0.17980364,-0.12956633,-0.22629602,0.12940517,0.053808525,-0.0915352,-0.16616678,0.5480795,-0.9769957,-0.099265166,-0.06900751,-0.027983494,-0.52480257,0.7977384,0.06036361,-0.92111814,0.31377205,-1.0544853,-0.84810257,-0.089933805,-0.47671515,0.16034622,0.5866656,-0.8078527,0.18749924,-0.024559503,-0.46598372,0.44766322,0.088885754,-0.2799131,-0.2845467,-0.9060393,-0.14952353,0.216521,0.875189,-0.19683003,-0.113539696,-0.31809872,0.97653234,0.49610847,0.656609,-0.9644487,-0.82355386,-0.36010364,-0.8503636,0.905973,-0.23214819,-0.72903854,0.15023644,0.49782526,-0.23097807,0.7024824,-0.04770514,-0.93767315,-0.09242,0.08136365,-0.9705513,-0.7191745,0.799084,0.89729047,-0.96401244,0.5442387,0.17567894,0.4562204,0.14136147,-0.6202216,-0.7034703,-0.94508755,-1.0148911,0.9343156,-0.41919014,-0.7615553,0.18442209,0.23480785,-0.1536496,-0.84162724,0.4941594,0.24830368,0.4179384,-0.77274406,-0.3403897,0.38993046,0.8618631,-0.076430984,-0.7595085,0.7304199,0.8483944,0.38113567,-0.72358793,-0.05059994,-0.5687515,-0.9215121,-0.0391562,-0.5664785,0.95017886,0.90948397,-0.2053472,0.43969294,0.72093374,-0.28463748,-0.48360294,0.050976444,0.66103613,-0.8516367,0.2600229,-0.07696717,-0.73413754,0.029858937,-0.6519345,-0.5524509,0.48975855,-0.5092362,0.27881426,0.6738769,0.68158853,0.4389099,-0.84824705,-0.7479231,-0.7613721,0.062012196,-0.36538172,0.98091555,-0.5962524,0.41910887,-0.4927893,-0.65074795,0.576486,-0.124511294,-0.28462046,-0.58659077,-0.118550524,-0.68504006,-0.11344778,-0.17109673,-0.3541947,-0.34197736,0.1338994,0.08688044,0.6352229,0.016553111,0.1919409,0.45875752,-0.8352781,0.22665708,-0.6640348,-0.4489838,-0.53026104,0.004019499,0.17861128,-0.01032567,-0.95005393,0.3527832,0.8427502,0.8592883,-0.47641745,-0.768519,-0.43469617,-0.31629422,0.645063,-0.15686047,-0.26569954,0.7810663,0.06173138,0.8496807,0.10877348,-0.7416068,-0.105292,0.99654186,0.1759552,-0.5786318,-0.7595807,0.16268657,0.22470038,0.95467997,0.6341257,0.8958626,0.35383463,0.9280176,-0.0065050125,-0.11672664,-0.52467704,0.81465995,-0.22889037,-0.032045335,-0.44359562,-0.83626,0.8768148,0.8765934,-0.3923356,0.03310223,0.32823706,0.7503314,-0.8581577,-0.87886804,-0.6382275,-0.3459067,0.60447896,-0.1190706,0.4320531,0.4985373,-0.62120175,0.19953275,0.56055737,0.6173601,-0.30014443,0.868068,0.9197738,0.3898089,0.13114953,-0.07543707,-0.07766628,0.7786238,0.9447696,-0.2626021,-0.8751726,-0.81661344,0.69595075,-0.76246834,-0.36100054,-0.34211087,0.36182523,0.52214336,0.8343079,-0.6198597,-0.496413,0.5747771,-0.7369919,0.56449056,-0.6535473,-0.63914204,-0.6038039,-0.6856921,-0.8388164,-0.3462031,0.406487,0.93799806,-0.30879593,0.6069019,0.4222051,0.696256,-0.31515846,0.8205014,-0.13744026,-0.30794767,-0.5274469,0.13740765,0.5452701,-0.021440368,-0.46805376,-0.5299512,0.5589492,0.11351621,0.7640812,0.36593735,0.46592927,0.22397703,0.80822086,-0.34423447,0.23942423,-0.62437725,-0.062473774,0.4818957,-0.20840073,-0.2395351,0.579546,0.54322815,-0.10805191,0.90439427,-0.64368397,0.19369422,-0.22461042,-0.4825172,0.21948345,0.7826221,-0.111323014,0.56462437,0.644542,-0.096846126,-0.8574168,0.70385957,-0.79156715,-0.26714596,-0.60372055,-0.5229613,0.996114,0.12103349,0.5926261,-0.30944586,0.1524055,0.18194938,-0.92803526,0.61963415,0.86056805,0.03805685,-0.55367845,0.78131837,0.6683637,-0.2048178,0.03455136,0.26281014,0.121921994,0.87706023,0.28918827,0.115173295,0.47881925,-0.056128383,-0.47447926,0.29825166,-0.8396023,0.40439618,-0.27204522,0.8775097,-0.3442073,0.363797,0.37788513,0.10334587,-0.56226826,0.14536548,-0.7501899,-0.74509174,0.1723826,-0.8136718,-0.32217494,0.6561295,0.32109538,-1.0160486,-0.8150438,0.17343646,-0.09344681,0.8263341,0.18009375,-0.4024568,-0.6046334,-0.28908467,0.397403,-0.15989426,-0.67503506,0.776347,0.0013473708,0.13562323,0.63514256,0.003536925,-0.41685718,-0.093388796,-0.7087698,0.9943702,-0.50995654,0.115560524,-0.11707286,-0.92525154,-0.62333065,0.3752007,-1.0517683,0.5828571,0.4021936,-0.9764599,-0.70467424,0.26455322,-0.21933004,0.36260554,0.5423273,-0.1807796,-0.07458308,0.7868603,-0.62717813,-0.8389038,0.13567914,-0.98739314,0.073907584,0.61948687,-0.62988067,0.24842978,-0.99472094,0.90788174,0.8283584,-0.54097426,0.10388041,0.11651543,0.35352045,-0.17693105,0.8818253,-1.0685363,-0.2588316,-0.87333363,0.579195,0.51123637,0.6484731,0.35717526,-0.10263361,0.121636994,0.8362474,0.20191295,0.8229478,-0.19179036,-0.8859722,-0.41895035,-0.35676885,-0.92561346,-0.512455,-0.25383472,-0.15456319,-0.8742553,0.11836021,-0.7996331,-0.320032,0.12456998,-0.74505496,-0.0067819506,-0.45072818,-0.13092458,0.6115854,-0.5893865,-0.31613767,0.2126519,0.45464027,-0.26579168,-0.33352652,0.11312331,0.2102393,0.16174576,-0.22032763,0.007317859,-0.701205,-0.2921614,0.04299862,0.25124922,0.8639743,-0.0044095926,0.9617803,-0.22711658,0.76260823,-0.0014854643,0.4885913,-0.61618114,0.22277881,-0.87050563,-0.07120701,-0.23293515,-0.10651668,0.106301054,0.24391343,-0.8375077,-0.47660223,-0.51489943,0.52960473,0.5939774,-0.8198306,-0.8544387,0.6365737,-0.64489335,-0.8023301,-0.7172091,0.95083797,0.46197626,-0.20374082,-0.7857054,0.9848294,-0.6983297,-0.20063187,0.121418834,0.16188625,-0.8389475,-0.3345243,-0.42384616,-0.73786503,-0.3503406,-1.2662041,-0.27490905,-1.1006038,0.85156924,-0.38352993,0.80775976,0.8633909,-0.834567,-0.41945413,0.5772849,-0.10427463,-0.78780234,-0.8282466,-0.27239904,-0.26453778,-0.22759122,-0.703798,0.5449178,0.79917145,0.9343505,0.20857525,0.61217433,0.048857413,-0.2695587,-0.2832721,-0.94906116,0.41794226,0.3369653,-0.008097498,0.34588718,-0.75996274,1.3355938,-0.24086002,1.0891294,-0.27265885,-0.95014375,0.2619582,-0.7422316,0.45163807,-0.6571873,-0.45554867,0.6870903,-0.33205602,0.849435,0.50919366,0.64487725,0.10343528,-0.031926632,0.8770092,0.34759283,0.97167397,-0.56217253,-0.6534161,-0.811895,0.39775607,0.07427327,-1.1936951,-0.30611068,-0.88987154,-0.297977,-0.19796263,1.0829537,-0.839565,-0.068987116,-0.06303729,0.38464606,-0.070224896,0.11475358,-0.26045117,0.34160867,0.7455409,0.831924,0.735285,-0.82011944,0.93094873,0.4146006,-0.15306158,0.3837433,-0.62942106,0.38787562,-0.89913994,0.9101685,0.68846935,-0.5548953,0.12861781,0.6844596,-0.20058782,0.19541398,0.35655957,0.5909669,0.22625007,-0.08134652,-1.1847503,-0.6324163,0.7511901,-0.88659817,-0.6957249,-0.74872994,-0.3316933,0.9799783,0.4446371,0.8919092,0.5143387,-0.7916088,0.9663566,-0.4434689,0.497798,0.49882782,0.02385961,-0.95454705,-0.30657187,0.3091435,-0.58663905,-0.32283506,-0.87331086,0.7439984,0.067895435,0.4214561,0.72516054,-0.69575685,-0.9924011,0.58932596,0.5970631,0.65389395,-0.07754325,-0.045713156,0.40572745,-0.31342736,-0.035630193,0.5326786,0.47397423,0.82711077,0.6704755,0.50026345,-0.32337493,-1.0003757,-0.6756319,-0.4771047,-0.25829524,-0.35219568,0.18537857,-0.61373186,-0.38857585,1.0226321,0.16244042,-0.55375654,-0.25050288,0.74513865,0.50545853,-1.1255517,0.81746715,-0.37385187,-0.7148743,0.28498664,-0.06508766,0.7179493,0.5812406,0.49503395,0.6596825,0.65162086,0.35589918,-0.33444786,-0.43520495,-0.88658726,-0.1998973,-0.784647,-0.08349525,0.11174387,0.45120525,-0.86323047,-0.7176356,-0.42282546,0.9988794,0.09988603,0.5706442,-0.76077914,-0.99640125,-0.25559482,-0.02798725,0.43085802,0.19033279,-0.3760881,-0.9136245,-0.70942724,0.8539044,0.19170387,-0.7160373,-0.9566798,-0.95684916,0.14709711,0.16017967,-0.77267325,0.0014269574,0.5255585,-0.81569135,0.6911615,0.1736104,0.7381332,0.22562486,0.048271347,-0.2062436,-0.112068065,-0.40271258,-0.2533863,0.36621746,0.12997165,0.6421546,-0.10036923,0.7521845,0.15989771,-0.2716239,-0.16347301,-0.24390882,0.689638,-0.32840252,0.9951372,0.41517505,-0.38091996,0.040108625,-0.020659441,-0.83458084,0.5925554,0.4634796,-0.6922737,0.13986786,0.33056098,0.603539,0.4109537,0.17887184,-0.8274771,0.028149167,-0.58645517,-0.3417776,0.30925098,-0.11117185,0.18555813,-0.48160163,0.3295358,-0.55362684,-0.8750345,0.9276954,-0.33309165,0.4804523,-0.18734498,-0.26106647,0.60783076,-0.25803366,0.43640757,0.14461689,-0.068832405,0.44339535,-1.0714144,0.049776137,-0.122623704,-0.38560218,-0.64172214,0.051056672,0.015575147,0.3602787,-1.2089522,-0.937062,-0.9131256,0.7187883,0.8931405,0.23174094,0.9002728,1.0044986,0.15805072,-0.6834919,-0.74458075,-0.97635126,0.0415718,-0.0049867453,-0.9660576,0.5155224,-0.2881039,0.04375877,0.46166036,-1.1740736,0.029047603,0.007984962,-0.6868069,-0.027966969,-0.014108067,0.2668987,0.3418845,-0.95541936,-0.94696844,-1.1464579,-0.10019888,0.5570353,-1.0418627,0.47581446,-0.8963279,-0.06516639,0.48024786,0.37540793,-0.91966856,0.66453576,0.36010793,-0.7099148,-0.5286698,0.9698684,0.16620451,0.6217553,-0.37265262,0.50519913,0.6238108,-0.26154518,0.3258034,-0.31634095,0.95041525,-0.1776387,-0.60594106,-0.7199801,0.26534942,-0.29568392,-0.9594869,-0.92224497,-0.49651024,-0.8858813,0.755156,-0.20349324,-0.0008083356,-0.4124255,0.8607235,-0.7784953,-0.74975586,0.39223397,0.3297115,0.29810092,0.40464622,-1.0123968,0.22325084,-0.7894318,0.5628132,-0.08611559,-0.02132047,-0.26120853,-0.62472564,-0.26003006,-0.67606616,-0.8704177,-0.83525246,-0.48231605,-0.853494,0.6591829,0.048300087,0.5895473,-0.015535872,0.4469244,0.18909639,0.587151,0.74086523,0.5375879,0.768157,-0.32473868,-0.79009813,0.10558112,-0.39356264,-0.7524186,0.91032225,-0.7935828,0.23377773,-0.4473818,0.25265256,-0.2955424,-1.0166805,0.92468745,-0.5591615,0.3466922,0.37740153,-0.5787534,-1.0865935,-0.5334813,0.45763078,0.4353261,0.939695,-0.81468654,0.40413344,0.04386312,-0.9170583,-0.06971741,-0.20473766,-0.49847317,-0.011856227,0.784195,-0.53395617,-0.28991622,0.29582047,-0.88631713,0.5389328,-0.032885212,-0.492954,0.101191275,0.22463161,0.9432851,0.1124777,1.0639844,-0.58046174,-0.8369056,-0.85254985,0.011447234,0.80502135,-1.0129968,-0.4862926,0.86684626,0.24921782,-0.39338243,-0.17993116,-0.00950098,0.36604023,0.6249893,-0.1370373,0.8268653,-0.84882116,-0.2097861,-0.22833261,0.6138197,-0.69771105,-0.2738552,0.45950752,-0.99048185,-0.51844233,0.35114446,-0.045767188,0.3337139,-0.55949265,-0.600895,0.87362117,-0.35321167,-0.04027248,0.11887079,0.50505275,-0.18456496,-0.1541208,0.32022747,0.57333493,0.0053231716,0.48049402,-0.9171524,-0.052667275,0.7803252,-0.17320931,0.1790484,0.53048295,-0.11090368,0.42080918,0.29425657,-0.5176585,-0.10688578,-0.09860825,-0.40924442,-0.116328724,0.7666822,-0.6379569,0.52343345,-0.67896247,-0.08516551,-0.2873116,0.16457939,-0.7558833,-0.3800324,0.5653722,-0.0915823,0.53633714,0.4020412,-0.8659315,-0.64990234,0.088036776,0.5021603,-0.81580484,-0.52310675,0.013768684,0.11854344,-0.15566924,-0.46623877,-0.37272805,-0.45684808,0.1975099,-0.7346981,0.6191076,-0.296486,-0.25521192,0.50925773,0.3744063,0.57516134,-0.940328,0.7458966,0.17124023,0.44584465,-0.80830646,0.5610318,0.8509934,-0.11408234,0.40896964,0.70601416,-0.15735364,0.62542987,0.9908936,0.04604149,-0.6451669,-0.3169639,-0.37989092,0.3716278,0.9747224,-0.63991976,-0.7825384,-0.4718747,0.08608246,-0.13643694,-0.18881655,-0.4099114,-0.21697688,0.5831253,0.026419297,-0.09566004,0.45513058,0.66574335,0.20177937,0.42726088,-0.0031266212,-0.8808918,0.56737447,-0.0022461414,0.89320135,-0.22095442,0.120616436,0.018244505,0.1675446,-0.18607831,0.10720539,-0.005534172,0.687392,0.2268753,0.16947079,-0.99915576,0.6646333,-0.68665195,-0.6034162,-0.21570969,-0.35419416,0.9270711,-0.115199804,0.8464968,0.6435311,-0.47738624,0.52325964,0.7902999,0.09818959,-0.62533,-0.32156062,-0.29736352,-0.77126,0.12579513,-0.15359116,0.7883103,-0.90863323,0.032469273,0.19821048,0.86970115,0.20369124,-0.5632374,0.39047098,0.4680705,-0.67347455,0.1671958,0.7382531,0.32619786,-0.68585944,-0.9074826,0.5670872,0.6242056,-0.776582,0.65305567,0.4365673,-0.4031155,-0.52296567,-0.19153285,0.9853902,-0.56086373,-0.23994541,-0.7263148,-0.026435852,0.9636345,0.17846417,-0.7356374,-0.72376823,0.902143,0.7124593,0.6427176,-0.33428836,-0.5236721,-0.68279284,0.5386629,-0.6054112,-0.38709855,0.15674448,0.5747397,-0.75831604,0.49993563,0.6319492,0.09096789,-0.5458658,-0.6845305,0.7623091,0.48816538,-0.09913492,-0.45985818,0.94479513,0.5299499,0.4232881,-0.84187484,0.8387046,0.98407555,0.39438435,-0.587979,0.98729223,-0.14705795,0.20817146,0.6717612,0.55288905,0.36368853,0.5027035,-0.020419506,-0.2613569,0.5612021,0.35565972,-0.09974933,-0.9036112,-0.010757208,-0.6500571,-0.35900402,-0.7249658,-0.13803577,0.52913165,-0.26305008,-0.41206598,0.9884379,0.53832626,-0.852324,-0.83701044,-0.71910614,0.23792794,-0.06340605,0.94618344,0.7663471,-0.81655306,-0.5452321,0.94155586,0.18326649,0.66734654,-0.71485746,-0.9202558,0.6855355,-0.71585107,0.278723,0.21530461,0.009156704,-0.4133675,0.65067387,-0.78283596,-0.2565751,0.554234,0.41820693,0.70614064,-0.9816838,-0.044581126,-0.82144666,-0.55927086,0.11025507,-0.97012097,-0.2592338,-0.5198738,0.67478627,-1.0038186,-0.73650503,0.7797512,-0.9955809,-0.3009602,-0.84441555,0.013099654,0.4370147,-0.5858877,-0.45912135,0.1827975,0.34640265,-0.86361814,0.6099436,0.110752106,0.8955748,0.17452574,0.6840413,-0.4013726,0.8907291,-0.18691544,-0.009423613,0.6324814,0.422782,0.24113514,-0.2786813,0.087089926,0.95060134,0.3274126,-0.26356512,0.6517986,-0.862398,-0.85912776,0.117908426,-0.9553083,-0.6368601,-0.049170557,-0.48128626,-0.57734203,-0.31467253,0.008767194,-0.062228397,0.026000738,-0.96221733,-0.2064445,-0.8237882,-0.47400478,-0.51092124,-0.026687142,-0.8400516,0.7674252,-0.051003885,0.3372688,0.24815217,-0.15371765,0.17145117,0.94677883,0.15129136,0.5788839,-0.8540764,0.08788932,-0.9620744,-0.50117475,0.5172692,-0.30906916,-0.2520638,-0.33166322,0.3645653,-0.89848214,0.5998063,0.55975366,-0.4903686,0.18486571,-0.73116463,-0.63511366,0.68954426,0.34353238,0.14036848,-0.15314648,-0.8903631,0.576259,-0.7388906,0.7793825,-0.82563394,0.9019295,0.84496576,0.96838087,0.91530544,0.77494985,-0.49993077,-0.2617193,-0.340033,-0.035266288,-0.990603,-0.07794597,-0.31395915,-0.92817146,0.9095323,-0.55733323,-0.16055012,-0.91573167,0.45640406,0.7975188,0.09145803,-0.9835787,0.06010843,0.50232816,-0.02307987,-0.8987692,-0.1772712,0.068898804,0.41899392,0.9784147,0.9766616,0.77549577,-0.5875796,0.605831,-0.47850403,-0.083462335,-0.6919694,0.5923121,0.1995956,-0.50950927,-0.29222792,-0.29126304,-0.0172472,0.43463516,0.586941,0.7299737,0.3364917,0.68525445,0.64870113,0.26549023,0.33552504,-0.25646058,-0.12114547,-0.9516453,0.76250637,0.029420996,0.44835746,-0.041847378,-0.5518086,-0.13274688,0.35982823,-0.7680485,-0.572038,0.35122964,-0.9070641,-0.3089545,-0.018480359,-0.3865913,-0.9306195,-0.8891548,-0.72534776,0.7765906,0.9838054,0.8882716,0.96138155,0.29775906,-0.94723576,-0.96294415,0.38363248,0.010227978,-0.34469256,-0.013507222,0.026342379,0.6655058,0.63670176,-0.33208078,-0.99291205,0.6988622,-0.5205409,-0.5579652,-0.7688797,0.008022,0.5042395,-0.21907829,-0.8513472,0.22181264,0.7824969,0.05067189,0.9306996,0.00074005127,0.2744882,-0.9809924,0.48999703,-0.4537182,0.6577557,-0.13306403,0.85340774,-0.95264107,-0.65570116,-0.7919405,0.9966018,-0.30312964,0.96168846,0.47726965,-0.007345641,-0.7833028,-0.8294169,0.6867835,0.06978368,-0.3362663,0.37295273,0.6423196,-0.35153407,-0.3246207,-0.31603312,-0.054110732,-0.4534471,-0.012886524,-0.73958206,-0.3348341,-0.53579,-0.5130597,0.72781336,0.4857734,-0.525492,0.67206436,-0.9128891,-0.6908861,-1.0062728,-0.17752597,-0.01783349,0.4878927,0.6046467,-0.13770248,-0.52325565,-0.12070081,0.06020941,0.70576346,0.30153444,0.68876624,0.39480397,-0.92936695,0.63255453,0.80906904,-0.7911405,0.4268396,-0.5411837,-0.7594228,0.42105135,-0.4142174,-0.58521414,-0.2646872,0.14670919,0.33721069,-0.30277967,-0.25924486,0.43792078,-0.4862451,-0.27533987,0.3731589,-0.94216144,0.60258996,0.08284866,-0.085703045,0.11523063,-0.34982258,-0.25862536,-0.031796295,-0.8739005,0.4478535,-0.44735324,-0.3835854,0.04207926,-0.23532867,0.63565063,-0.7543571,0.95443785,0.9900636,0.24080928,0.05169308,0.8645889,0.8512692,-0.5691509,-0.6729925,0.23956996,-0.41554672,0.34151146,-0.5524172,-0.32279924,-0.43119133,-0.96167105,0.9171325,0.5175282,0.6122166,-0.38716072,0.53010297,0.8376372,0.22887145,0.7647464,-0.85825616,-0.23466434,-0.6174667,-0.5345824,-0.76987576,0.017372798,0.23254254,-0.5488966,-0.9821782,-0.77711505,0.5649001,0.5721663,-0.051807113,-0.7286036,-0.4360294,-0.48080102,0.52713895,-0.47376138,-0.7309415,0.5383784,-0.5927677,0.44632003,0.47556907,-0.71309316,-0.60218245,-0.74715245,0.4513588,0.8062857,-0.0741855,0.009623062,0.73995423,-0.31673002,-0.3711524,-0.71194434,0.024157185,0.8694596,0.5409814,-0.28194976,0.22308925,0.10388703,-0.63781124,0.2715159,-0.020970136,0.21581289,-0.5978637,-0.17684597,0.6507964,-0.33081502,-0.22092634,0.7416216,-0.7024288,-0.6221579,0.4664053,-0.5765797,-0.877287,-0.9314629,0.21837209,-0.77156544,0.9161351,-0.5333109,-0.7480657,-0.13317537,0.4584437,-0.3058868,-0.9034814,0.27637255,-0.088565335,0.21876867,-0.5310602,-0.929832,-0.9630464,-0.39455068,-0.51470554,-0.06432938,0.34370473,-0.4486909,0.4334152,0.3457244,-0.23273072,0.46752933,0.3281067,-0.008966795,0.22059892,0.17252998,0.5698659,-0.8567511,-0.84579325,-0.5568185,0.8925185,0.9074509,0.4298227,0.1283907,0.2248216,0.51744235,-0.29572356,0.5399602,0.08393184,0.972354,-0.49888578,0.004044951,-0.68576247,-0.9686684,-0.18312187,0.1497699,-0.26141918,-0.8600127,-0.3645964,-0.05107322,-0.19860414,-0.94795734,-0.17189112,0.7663534,0.10128831,-0.49043897,0.23842978,-0.8374288,-0.7072575,0.9396775,-0.74076277,0.6613157,-0.020561464,0.73444307,-0.8429718,-0.084143616,-0.097170785,0.15022378,-0.4478066,-0.9092569,-0.80025256,-0.28124258,-0.7958309,-0.9886955,-0.50508165,-0.5704439,0.43223092,-0.2897425,-0.12954064,-0.19951402,0.16964048,-0.34774336,-0.28613758,-0.7912319,0.5298219,0.33398962,-0.67458916,-0.55464864,-0.63163877,-0.7558409,0.1316714,-0.69754493,-0.0027685505,0.44202068,-0.014531552,0.46698427,-0.94556457,-0.5974132,-0.25789067,0.18132403,-0.67243004,-0.87767094,-0.57521355,-0.43784812,0.4803713,-0.3026019,0.768263,0.5694574,0.9941424,-0.8936662,0.23146224,0.7487707,0.9117992,-0.7605727,-0.1527853,0.90595293,-0.7649746,-0.4282507,-0.37096015,0.30391994,-0.60829306,0.26472893,-0.44965878,-0.9088937,0.35069543,0.9287008,0.7535689,-0.7701418,-0.53495365,-0.8437325,-0.7593693,0.7020708,-0.4620424,-0.839397,-0.08555839,0.013328992,0.9898565,-0.8039442,0.85847485,0.91850185,0.16915846,-0.24506235,0.39505458,0.93558836,-0.20390354,0.54866123,-0.11617764,0.4907886,-0.40646872,0.18602255,-0.37794876,-0.22791609,0.7616513,0.9464729,-0.01139971,0.3420069,-0.67250013,-0.96997845,-0.8977529,0.6582962,0.3921656,0.95964235,-0.5511282,0.83799684,-0.32476723,-0.14261408,0.5898394,0.054131508,0.43200183,-0.52160954,0.9566364,-0.33673596,0.38639933,0.19819178,-0.5378478,-0.11932946,-0.6894683,-0.18222448,-0.70470977,-0.09407642,-0.49156207,0.42142564,-0.27407125,-0.91578555,0.45200533,-0.37465844,0.47325665,0.8789883,0.08861377,-0.026519546,0.41093424,-0.79246336,-0.31943843,-0.14843583,-0.30885816,-0.7706723,-0.28159714,0.09648514,-0.51110506,-0.84313893,-0.22765255,-0.8928573,-0.53641146,0.4750331,-0.94903946,-0.48469442,0.91972333,0.26707447,-0.43874374,0.7889684,-0.9409625,-0.42628577,-0.14603853,0.68679184,0.9582935,-0.5994568,-0.957301,-0.5254692,-0.67138916,-0.1697947,-0.4654473,0.51059365,0.43025875,0.5434706,0.17038226,-0.28349853,0.14632392,-0.4819963,-0.98168135,-0.86046505,-0.23146701,0.4409256,0.25382793,0.978898,-0.35267013,-0.2846876,0.36163467,-0.63050914,-0.39082888,-0.98761636,0.76007354,0.13895594,0.04348052,-0.3621317,-0.7798236,-0.61322784,0.43892005,-0.8818526,0.18744779,0.30789566,0.8291142,-0.7601149,0.082947254,-0.61326456,-0.7668488,0.06982994,0.98304605,0.22980475,-0.87225485,-0.48100162,-0.44208246,0.9325067,0.14334682,-0.7843633,-0.9921985,-0.5232731,-0.5228865,-0.56503546,-0.32212484,0.37016094,0.44168183,-0.7786072,0.028465228,0.56801474,0.17161943,0.0469327,-0.8388252,0.25940967,0.37934446,-0.3728211,-0.7798302,0.9972794,0.33314538,-0.17617273,-0.9656446,-0.2677722,-0.012148142,0.95854044,0.010000944,-0.89553475,-0.09509635,0.9858265,-0.21785259,-0.65354854,-0.8947268,0.89974564,-0.3381594,0.029249191,-0.28747177,0.29729176,-0.6086457,0.11942601,-0.14940262,0.87716436,-0.79194593,0.94814825,-0.72113085,-0.47232985,0.7888386,0.3649075,0.966619,-0.34451294,-0.80985284,0.27620983,0.30757022,0.36376023,-0.6214279,-0.26387063,-0.96736723,0.012579345,0.6004651,0.56920034,0.04440431,-0.048224624,0.9235455,0.11387707,0.15196852,-0.36921275,0.12312209,-0.15544023,0.4242782,0.7070234,-0.5554998,-0.5327704,-0.66790843,0.75871825,0.114114046,0.29874372,-0.81301427,0.25401044,-0.6847553,0.18826889,0.5468713,0.5219527,0.96963936,-0.5777067,-0.2745584,0.22757858,0.953643,-0.38908723,-0.75335115,0.48919374,-0.7839202,-0.9018496,0.3771722,-0.5289449,-0.99954367,-0.22229524,-0.33273953,0.7588513,0.76219314,-0.7071176,0.06975444,-0.6648929,0.20328975,0.3810246,0.5049803,0.87294745,-0.38724235,-0.4898463,-0.339271,-0.83625734,0.22890857,-0.7763869,0.14198782,-0.70512605,1.0729201,0.7641374,-0.042851448,-0.09380286,-0.877494,0.27372006,-0.3254677,0.28638786,-0.0052758986,-0.1744924,0.3771566,-1.0878763,-0.4266618,-0.2075257,0.7266618,0.189882,0.14337158,0.8517256,0.18963689,-0.24881266,-0.56414676,0.9368178,-0.093999505,0.58917797,-0.43221992,0.081302024,1.0424516,-0.07142482,1.2789828,0.68897355,0.24660228,0.5261485,0.07085903,0.8643017,-1.0511265,-0.918673,-0.2337972,-1.1598067,0.4636981,0.4722152,-0.028238392,-0.03936516,-0.8647651,0.08174373,-0.7216701,0.6113007,0.35770726,0.1359974,-0.62106264,0.45416653,-0.43051654,-0.26884088,-0.6856106,0.35723934,0.7111594,-0.021268321,1.1509166,0.86812645,0.079025455,0.84488595,-0.29268518,-0.2921759,-0.13227683,0.20873044,-0.64768857,0.3729498,-0.097833745,-1.074639,0.078282036,0.54708326,0.029288316,0.041986745,-0.42994633,0.9909735,0.82184744,-0.7193133,-0.9266883,-0.29409096,-0.082629025,0.22100003,-0.47992468,-0.46570078,-0.61815023,0.9081315,0.31603304,0.90339684,1.3629885,1.006217,1.4051974,0.97857267,0.51005715,1.2459584,0.47505876,0.9073594,-0.4072159,0.5455166,-1.1657864,-0.28867134,-0.7092182,0.93785614,0.07384745,0.23390889,-0.10499002,0.701866,0.3842022,-0.7010337,0.67398787,0.40560225,0.10561945,0.83589363,0.8804356,0.1845899,0.31892103,0.37841913,1.3441991,0.52011096,1.0556177,1.0585837,0.8437786,1.1675981,-0.063859336,0.6652745,0.13259228,-0.7103843,-0.15940586,-0.7010328,0.08233626,0.21328285,0.5612314,-0.40975666,0.9486385,0.51939005,-0.48346785,-0.9752452,-0.14571989,0.31715563,0.38595262,-0.22874488,0.42213184,1.2665381,0.6299506,1.6110872,0.73393863,1.8878323,1.9342402,1.4963619,0.21769354,0.37495193,0.83779573,0.07662535,0.9512495,0.63059145,0.9289026,0.91004246,0.49439517,-0.92215055,-0.6577431,-0.56494284,-0.7539847,0.17963186,-0.26942757,0.09616423,0.9676103,-0.31395957,0.9454425,0.7456223,-0.3420538,1.0013206,0.3671887,0.85143924,0.77457494,1.6633196,1.4663622,0.54083776,0.6724515,0.9293543,0.5119518,0.5747197,-0.464742,0.58247226,0.71480304,0.81262463,-0.13083427,0.42485058,-0.9002642,-0.56929207,0.37861127,-0.43984663,-0.3935584,-0.1380977,-0.43508837,-0.311307,-0.66540253,0.20684174,0.09390307,0.6891043,-0.22092004,0.69874156,0.7365241,1.0321805,0.21632001,-0.4483242,0.09250731,-0.78984624,-0.6200092,-0.08307781,0.42587385,0.037593465,-0.35930124,-0.1397374,0.75048596,-0.5720059,0.07557885,-0.24217667,-0.41905186,0.70397896,-0.7700493,0.78930175,0.98860914,0.054340765,0.6395456,-0.814469,-0.82658076,-0.0015074832,0.080325365,0.33992046,-0.7146447,0.69011575,0.14881463,-0.77710176,0.2796951,0.9189971,0.2418954,0.39211294,0.70846087,-0.2453369,-0.39005148,0.6188754,-0.43605855,0.5126976,-0.7596259,-0.017097846,0.5854128,-0.08210113,0.5200588,0.11172106,-0.1478757,-0.4074366,-0.15042165,0.1302481,-0.93910795,-0.9800914,-1.712645,-1.9343029,-0.40969017,0.6170284,0.19486137,0.3938067,-0.017746307,0.5919164,0.3675602,0.028905166,-0.4628113,0.7001823,-0.78035223,0.64067715,0.039553504,0.20198357,0.70211667,-0.3141582,-0.39259204,0.3750475,-0.11656311,0.6532394,0.01060742,-1.1148435,-0.103649706,-0.5625041,-0.34854433,-1.7164782,-1.1536843,-1.1671968,0.7305222,0.24601866,-0.5170358,0.43909794,-0.39242017,0.22095437,-0.10714253,0.5849387,0.21644086,-0.016374862,0.3645902,0.43640006,0.15784028,0.7474213,0.66974705,-0.69576037,0.46697447,-0.8491481,-0.2693595,0.7175904,-0.33445507,-0.4211276,-1.0326741,-0.98278785,-1.0386574,-0.08572518,-0.6101198,-1.1245582,-0.6669767,0.7130387,0.28201348,-0.10645023,-0.6411437,-0.80594647,-0.07208451,-0.6618735,-0.2595133,-0.49228793,-0.868867,-0.49689484,-0.45845288,-0.5796917,0.7406911,0.5696512,-0.6862494,0.35866797,-0.04906129,-0.5472542,-0.7487699,-0.50529766,-0.56927115,-0.95713913,0.30776125,-0.70776254,-0.8011679,-1.1668923,-0.34813106,0.14093319,-0.66898733,-0.31361213,-0.6540956,0.26648545,-0.597842,0.12103532,-0.8445407,-0.091915004,-0.49883318,-0.9721536,-0.36089608,0.49699077,0.50633883,0.31442624,-0.86675566,-0.11887893,-0.2197583,-0.5217752,-0.9586166,-0.49914837,0.3800445,0.4537384,-1.037058,0.22197403,-0.6374677,0.5771376,-1.1329287,-0.54940504,-0.30216327,-0.26899248,-0.39502573,-0.22692716,-0.88150716,-0.5352058,-0.43809715,-0.87933415,0.6398289,-0.7774529,-0.22757441,-0.78245705,-0.46999863,0.008900642,-0.87690943,-0.47241443,-0.89700145,0.480957,0.59810334,0.42818567,-0.9327421,-1.0079955,0.37628484,0.104052275,-0.6167572,0.34622598,-0.26397032,-1.2767583,0.05737464,-0.9017031,0.45000926,0.3868393,-0.48082182,0.09910274,-0.029385455,0.6563907,-0.28569645,-0.5763056,0.30423748,0.68596953,0.93672425,-0.9456017,0.61030567,0.61598206,0.8422595,0.43826124,0.7592384,0.04749663,-0.23676108,-0.19800693,-0.7493426,-0.69585013,0.009180956,-0.8304355,-0.66020966,-0.20157586,-0.87505263,0.19824511,0.14108261,-0.6177951,-0.24806063,0.83113056,-0.21530138,0.007705285,-0.5176151,1.1847783,-0.7364056,0.277893,-0.21231318,0.021477938,0.54117423,-0.85317534,-0.16935292,0.87785774,0.021841329,0.012402531,0.23547414,0.46671718,0.67743623,0.07985204,-0.42479467,0.6296271,0.110663205,0.17500404,-0.038770206,-0.7662625,0.03156415,0.5225638,-0.045376603,0.111001454,1.3256623,0.41351852,0.029000038,-0.27869332,-0.2249162,-0.8711033,0.102231376,0.8352456,-0.9056846,0.93653923,-0.16437532,-0.70916796,1.1293063,-0.2210775,0.69226515,0.037791,0.6001743,-0.19582686,-0.42708588,-0.59309006,0.011950465,-0.98783326,-0.30700836,-0.5745524,-0.28392148,0.19152707,0.8141577,0.9226055,1.4909135,0.23504026,-0.34967536,0.58118767,-0.2399322,0.029992701,-0.047424078,-0.036215067,0.12357225,0.69002366,-0.24543051,-0.15137443,0.07263901,0.71199983,-0.14065601,1.155401,0.21894136,0.037823442,-0.078382306,-0.62148106,-0.5445584,-0.104743525,-0.14818223,0.10292375,-0.81300855,-0.4987023,0.6649544,0.20388784,-0.25388056,1.1294945,1.1692369,-0.3153301,0.29993382,0.8172329,-0.52328414,-0.7147331,0.36761686,-0.19102028,-0.08525019,0.5222282,0.6647995,0.81595045,0.9656112,0.42638785,1.0283034,0.45183742,-0.85179573,-0.443791,0.29998592,0.22374114,-0.11367521,-0.11974369,0.4744403,-0.4682678,0.012632811,0.25128555,0.17452674,-0.29989526,-0.58454865,-0.3544126,0.026683101,-0.3247069,0.19728163,0.030269861,0.853693,0.58227086,-0.43870813,0.7178691,-0.89359283,-0.40662813,0.6442844,0.5257306,-0.48841885,1.251988,0.5441134,0.15892975,0.6252648,0.5278097,0.56882155,1.07255,-0.68827635,0.5800697,-0.2993183,-0.5309149,-0.05056979,-0.27277917,-0.3989141,1.0996428,0.7313766,0.27054533,-0.9173529,-0.771914,0.26169252,-0.0008440022,-0.83535177,0.76700574,0.5437976,-0.33161822,0.82405174,-0.48965847,0.7984566,0.036711555,1.0127611,0.6615713,0.12574731,0.10222665,0.0076539246,-0.1764655,-0.3482411,0.34559137,-0.43702263,-0.70620656,0.340878,-0.7293006,-0.65225154,-0.41326934,0.968635,0.8669272,0.76095057,0.73464584,0.27460527,-0.12020421,-0.093275785,0.15506418,0.11568545,0.48434785,-0.13841152,-0.3029393,1.4511387,0.65967107,0.7432656,-0.23263666,0.98377985,0.17371681,0.2583041,1.2323326,0.7689397,1.3274654,0.39552683,1.145559,-0.27317396,0.49103034,0.15147908,0.39204183,-0.8726602,-0.20438042,-0.38128924,0.4587896,-0.84687257,0.33588004,-0.0330441,-0.45647573,0.47988844,0.33585644,-0.05901245,-0.6818232,-0.052453056,-0.07282629,-0.14780502,0.025172433,-0.013764431,0.87025946,0.10349535,1.4032482,0.6214883,0.69935876,-0.44146246,0.64776534,0.8512608,0.93774366,0.43434823,-0.26645207,-0.71309566,0.20762205,-0.42907763,0.99643373,-0.06505132,0.08450937,0.85268927,-0.6775186,0.34915173,-0.44464558,-0.5988957,-0.6153559,-0.49261442,0.3787851,0.71323574,-0.70913666,0.012958637,0.16563207,0.39942035,0.62759286,-0.7962234,-0.44685137,0.42746276,0.035154533,0.39581075,-0.56935775,-0.54439926,-0.40843463,-0.65637255,0.37630916,-0.085954666,0.8142643,0.032262325,-0.984442,0.7164581,-0.5906277,0.22569108,0.15684414,0.9156649,0.33694267,0.98486686,-0.5703802,0.8202393,-0.93476975,0.71651393,0.51019144,0.51175046,0.22333837,-0.9223285,0.007897377,-0.51384616,-0.85927415,-0.27784038,-0.32674527,0.7267215,0.3044479,-0.86237144,0.7587149,0.06958771,0.37664127,0.022238731,-0.11308837,-0.8668411,-0.96389437,0.8287165,0.95613843,-0.8682826,0.578331,-0.4376098,-0.2920221,-0.20938662,1.003319,-0.26367724,-0.8789818,0.6877426,0.119460136,0.8430938,-0.095944755,0.36030626,0.5842678,-0.059449006,-0.7511273,0.6080036,0.37637973,-0.601424,0.93249583,-0.82483006,0.40412283,-0.99068546,0.033132166,0.7596997,-0.87103426,0.24688663,0.18194106,-0.267229,-0.52685225,-0.522283,0.16682109,-0.13681777,0.07774538,-0.19921072,0.4578029,-0.6678064,-0.5965739,-0.097607926,-0.67771745,-0.4326612,0.48940068,-0.84061337,0.6217971,0.7518293,-0.043328796,0.19412468,-0.19974089,-0.19777799,0.70483065,-0.3521273,-0.78537416,0.6203289,0.86849254,0.6599153,0.4776487,-0.80443484,0.6785953,0.42443547,0.57831496,0.6410938,0.4348432,1.4509094,-0.020725861,0.7217407,0.83991677,1.3076687,0.64262855,-0.22307773,0.9188724,-0.48732013,0.6098148,0.16397959,-0.68115485,0.79883456,-0.75926137,-0.6302619,-0.36922932,0.8276684,-0.038629346,-0.68421435,0.6484834,0.7543479,-0.100261986,-0.5351389,-0.48711255,1.0438124,0.09656239,-0.44508216,1.0147116,1.2844301,0.51183504,0.434138,-0.46966228,-0.22705504,0.017805357,0.07164968,0.2895131,0.1225917,0.6560105,-0.58901346,-0.8050815,0.66515356,-0.60368544,0.5903348,-0.1126554,0.19029903,0.8125002,-0.20394109,-0.81624603,0.8129119,0.08174209,-0.2859314,0.28942204,1.3147529,0.81915045,-0.065514915,0.75839627,-0.56304127,-0.14091775,0.87943137,0.695353,-0.55035007,0.40441182,0.5618432,0.8706192,0.32982036,0.46068487,-0.626491,-0.019142156,0.011078179,0.49065298,-0.41467354,0.53451467,0.35329342,-0.3614147,0.7732924,0.7816267,-0.46442068,0.667891,-0.5466724,-0.5369937,0.44819006,0.05877046,0.5708141,0.7352573,0.32279652,0.30219087,0.69276005,0.1314423,0.12689075,0.7283074,-0.23172963,-0.48328412,0.15853125,0.86742646,0.36181468,-0.3079598,-0.044078108,0.1465074,-0.36025685,0.49589324,0.93237424,-0.6617396,0.1492921,0.87486535,0.82888365,0.81206316,0.11686477,-0.3362568,0.40192342,-0.2733739,-0.6747722,-0.64766604,0.21478389,0.54935765,-0.5184279,-0.47522295,-0.42469874,-0.40647793,-0.64761305,0.7970615,0.55361706,-0.44017133,-0.8339417,0.89030856,0.85979164,-0.081643805,0.5661873,-0.7401681,-0.3898094,-0.10777909,0.012131091,0.8077649,-1.0051461,-0.37684405,-0.89921445,0.4362423,0.40239117,-0.44375286,0.78207225,0.70933056,0.07304518,0.4499463,0.2046799,0.8689007,0.88400996,0.52777034,0.40898186,-0.2112502,-0.53352976,0.16226447,0.35574654,0.96757084,0.38337034,-0.18409081,0.016125247,-0.5420685,0.31703594,0.6671789,0.08306662,-0.912484,-0.68369704,-1.057193,-0.60194385,-0.053270042,-1.1346705,0.16883647,-0.5451459,0.255818,-0.40154213,-0.2047815,0.42326957,-0.26586756,-0.65716904,-0.62643605,-0.4852588,-0.23928338,-0.61780113,-0.08188108,0.7032048,0.6314358,-0.048819806,0.4142365,0.90658426,0.3448658,-0.45319736,-0.25321677,-0.56398076,0.50456214,0.5477583,0.14905721,-0.36368915,-0.028199524,-0.30193925,-0.13494013,-0.5156976,-0.84806615,-0.50326276,0.3379414,-0.19065863,-0.9420461,0.04255521,-1.1278012,0.27120516,-0.54352397,-0.13617577,0.121076174,0.12150046,0.688826,-0.28377768,0.37124115,-0.6545685,0.239784,0.475769,-0.8748752,-0.83534104,0.573213,0.3113724,-0.5864939,-0.6084828,-0.2602079,-0.20142812,-0.8105586,0.44268584,0.13702354,1.0312781,0.52362317,0.3122397,-1.0457944,-0.35378164,-0.9520124,-0.9391556,-1.143465,-1.2544001,0.17358208,0.7383371,0.005778955,0.46780947,0.0678918,0.8778407,-0.34302926,0.061253857,-0.57125336,0.1615994,0.39675558,-0.6683528,0.25834957,-0.35528794,0.43857697,-0.17315115,-0.78305495,0.23729666,-0.2701384,-0.32700425,0.3091287,0.55013597,-0.7801893,-0.54171014,-0.5023884,-0.2252508,-1.3897876,-0.9885414,0.1975025,0.8531949,-0.7785699,0.17783189,0.27103463,-0.9275077,0.99060774,0.8846391,0.21302524,0.75916374,0.62166476,0.23814765,0.12665392,0.016797246,-0.012267867,0.7247516,0.95965147,-0.24680196,0.36269417,0.7287483,-0.076414414,-0.29032284,-0.88474274,-0.5936527,-0.24717999,-0.5418685,0.3214544,-0.5186882,-0.72612315,1.1297781,-0.6401515,-0.6509913,0.6799588,0.5853239,-0.7359078,0.7317669,0.74498093,0.7188738,-0.5162835,-0.8675208,-0.14350286,-0.37761804,-0.048756108,0.12721987,0.5461821,-0.39098328,-0.5398698,-0.69210446,0.9464313,0.23576187,-0.41806203,-1.175032,-0.5257306,-0.16180897,0.8206377,0.9138696,0.41413492,0.380117,-0.6274727,-0.6079838,-0.772901,-0.5370823,0.11772432,0.855956,0.5361603,-0.62737864,0.0244066,-0.1794834,0.4069615,0.017126448,0.56161946,0.54457206,0.13284816,0.76665264,0.33995357,-0.29713303,-0.08823584,-1.3063829,-0.046638608,-1.386847,-0.15872538,-0.51375914,-0.01682313,0.22834381,0.8832845,0.45158076,0.37843207,-0.6546707,-0.5308788,0.5099325,0.59961915,0.8819448,0.048378248,0.54477894,-0.44237015,0.49100345,-0.91869354,-0.7910289,0.23202103,0.28233615,-0.04744289,-1.3851765,0.019979801,-0.27944294,-0.19683237,-0.1676812,-1.1482433,-0.56540465,0.8676061,0.30971485,0.67435527,1.0726141,-0.12608276,0.41301024,0.035373095,0.89599025,-0.8273266,-0.117149435,0.53610134,0.99136066,-0.52286106,0.66754925,0.34522086,0.72370267,0.7936928,0.071465224,-0.01167426,-0.3936949,-0.04746891,-1.4365008,-0.3118548,0.24563436,-0.38923296,-0.58329016,-0.6206098,-0.30844304,0.7761369,-0.052419186,0.9374442,0.16189335,-0.28908145,0.75575435,0.16878517,0.9457064,-0.57067364,-0.008185444,-0.15453328,-0.42826077,0.84519863,-0.53769284,1.0415443,-0.03659176,-0.46134964,-0.30386877,-0.795158,-0.6726876,-0.13170089,-1.2624261,-0.2062868,-0.816144,-0.61886173,0.0048973323,1.1817983,0.106929086,0.5194612,0.44520122,0.818724,0.26499942,-0.18550187,0.94103914,-0.75051713,-0.9383842,-0.34458962,-0.772564,-0.534039,0.31483313,0.67270637,-0.088235125,0.046674985,-0.30647177,0.69964355,0.67331547,-0.20688735,0.060116615,1.0407225,-0.112114295,0.6675795,0.20755693,1.2589945,1.135222,0.8308235,1.386569,0.881159,-0.13407484,-0.2367684,0.38621464,0.6722867,0.7313326,-0.4128521,-0.5810928,0.96202105,-0.78848284,0.34922647,-0.15074049,-0.2079221,-0.34411126,0.1263488,0.8349806,-0.42151016,0.41986382,0.9947612,0.91181004,0.1757814,1.6534923,1.486841,0.35259402,1.0733153,0.91741097,0.8038838,-0.4841089,0.8426435,0.071638465,1.1701177,-0.04257721,-0.07394879,0.4370984,-0.42670235,-0.63363427,0.3759342,-0.9947808,-0.65427756,0.69141024,-0.6569559,0.11822069,-0.4786354,-0.25823066,0.55844873,-0.07256887,0.062107526,0.19958748,1.1755489,-0.41392535,0.53091717,-0.5150803,-0.4149386,0.18119974,-0.34451553,1.2138761,0.1163201,0.060012624,1.1094694,-0.25781214,0.29646248,0.9089334,-0.01195718,-0.20954916,0.1196602,0.58279204,0.0125357,-0.44280842,-0.042598937,-0.4375713,-0.5768583,0.5964192,1.2579123,-0.2479211,0.47720668,0.13069424,-0.2602716,0.1903367,0.07022495,-0.55047023,-0.11363186,-0.3373711,0.09274018,-0.48720914,0.63328147,0.39435574,-0.42619273,0.07628544,0.8807391,-0.10313583,0.12380351,0.2823475,0.036892507,-0.92260504,-0.9955387,-0.76723003,-0.6225827,0.76169187,-0.6681527,-0.65167683,0.84383774,-0.16513634,0.16161668,1.1636666,0.28753352,-0.87093997,0.36766797,-0.89630944,0.63098156,-0.52970105,0.27610785,-0.9384281,0.04274769,-0.74128336,-0.6927086,-0.15868303,-0.7024658,0.8971405,0.88741565,-0.43465492,0.90635,0.77472067,0.73796034,-0.3231988,0.6104886,0.020818241,-0.17363404,0.27002513,-0.5398455,0.22263294,0.68069583,0.017825905,-0.37123227,0.9781726,0.4050628,-0.29526144,-0.26830918,-0.6327642,-0.09644397,0.6169554,-0.44683614,-0.9488892,-0.28731084,-0.46851924,-0.5512755,0.13780513,-0.15412147,0.67059374,-0.49311256,0.4934528,-0.12741995,0.8577206,0.876038,-0.74045646,0.19452788,-0.009274822,-0.6860983,0.6163961,-0.62308455,-0.84690726,0.51112735,0.5029472,-0.14237432,0.8612186,-0.69733244,0.13084956,-0.16965616,-0.8481344,-0.106513895,0.47699925,0.35245612,0.7812662,0.30269036,-0.6533441,0.14422613,-0.20685196,-0.2110982,-0.06471276,0.19269156,0.84817266,-0.020038128,-0.7845628,0.034044612,0.5619701,0.8586549,0.22312175,-0.9356817,0.5779931,-0.028028905,-0.7618342,0.31371632,-0.047925636,0.9087867,-0.7136837,0.104640454,0.68787056,0.41449896,-0.19711277,0.2542018,0.4900541,0.9069868,0.8705919,0.9290073,-0.44493365,0.4036069,0.20749807,-0.28714442,0.6398039,-0.6897087,-0.9508786,0.55621743,0.038211476,0.38724977,0.24450287,0.09989301,-0.40996566,0.9666777,-0.044474818,-0.21007052,-0.9763735,-0.44570905,-0.33052507,0.40671495,0.017176947,-0.13970484,0.9907873,0.9808291,0.25747567,0.6854188,-0.6735685,0.43259478,0.057934284,0.28147554,0.27614236,0.73915267,0.11551976,0.7039945,-0.22232175,0.4800923,-0.7256985,0.5819516,0.20357108,0.26724958,0.68611217,-0.75574493,-0.92233753,0.50139993,-0.30255422,-0.5693673,-0.79697835,0.031067848,0.6145539,0.30656195,-0.3483107,0.9927709,-0.7846453,0.4436803,0.07864785,-0.27881455,0.7145617,-0.98917484,-0.46853828,0.8097222,0.154706,0.6058309,0.40515518,-0.76985663,-0.947361,-0.15800865,-0.34034002,0.19622302,-0.38972777,-0.51883006,0.120300665,0.16297404,0.89205956,0.99351424,-0.08165483,0.80281043,0.68597895,0.1771363,0.27073228,-0.48396093,0.96818596,0.739323,-0.7442373,0.56175184,-0.93400073,-0.08782768,-0.41593742,0.9230082,-0.8306234,-0.8965449,-0.14093447,-0.066890866,-0.90561515,0.47792086,-0.49784514,-0.5301472,-0.44641736,-0.23207723,0.07068386,-0.21659209,0.27689737,-0.803167,0.13313514,-0.79781157,-0.75248295,0.9910505,0.84422535,-0.6196944,0.521545,-0.20591922,0.8293753,-0.75764465,0.621825,0.8895645,-0.58161974,-0.5086355,0.31189156,-0.49260142,0.28318265,-0.38797104,-0.10793904,-0.7904065,0.82914954,0.33412153,0.63550884,1.0037054,0.20385997,0.22866166,0.91053003,0.32246628,-0.6819292,0.2714371,0.07990346,-0.28618065,0.38009587,-0.8289667,-0.62737465,-0.6693377,-0.03858009,-0.6337475,0.46232894,0.5450316,-0.49099064,0.31541777,-0.7446785,-0.35830715,-0.05177737,-0.45370585,0.22961721,-0.46833587,0.07872591,-0.43637973,-0.42199004,-0.57850456,0.51717037,0.09962365,-0.2936331,-0.24837768,-0.10366004,1.0073636,0.5801761,0.45824325,-0.22730106,-0.26114097,-0.8351129,0.55203646,0.5518719,-0.121223845,0.40005514,-0.8183449,-0.08330967,0.20309567,-0.8234799,-0.22859016,0.851263,1.0102819,-0.60370266,-0.7487002,0.4020336,1.1672126,-0.47741607,0.56417423,0.7211015,-0.24791452,0.091405295,0.7564794,0.5029383,0.08727295,0.9189284,0.6363723,-0.39329475,0.2747455,-0.7940009,-0.34842914,-0.5278816,0.76851326,-0.80567193,-0.9160651,0.2254881,-0.6851063,-0.5780996,0.0002833078,0.9274225,-0.0168476,0.44653806,0.48128608,-0.23827235,-0.041474633,-0.56204736,1.0148202,0.042902455,0.30060095,0.5363897,-0.43593633,0.8272108,-0.60215914,0.7901619,0.3621473,-0.06727718,-0.5675779,0.026047383,0.25343642,-0.95647466,0.48694956,0.42905644,0.16174585,-0.5063693,-0.3409748,0.8749333,-0.20180564,-0.10213239,-0.86351985,-0.27652287,-0.75587267,0.42381603,0.76364523,-0.21693909,0.75717837,0.24815485,-0.106795646,-0.27862114,-0.25520235,0.9347968,-0.13053803,0.052364755,0.2559477,0.058037244,0.7527165,0.02691698,-0.4786982,0.13104375,0.94270664,0.058439873,-0.8118809,-0.7399813,0.73165035,0.83166826,-0.43647918,-0.11405224,0.012881936,0.25459772,-0.6335928,0.3148706,0.540553,-0.44898942,-0.3345973,0.047955975,-0.7676251,0.6456294,0.030851467,-0.19740662,0.31924942,-0.43694955,-0.38957813,-0.6052873,0.38708723,0.06422645,1.116898,0.69290763,1.1832385,0.86432046,-0.15579182,-0.90894204,-0.72449994,0.3979018,0.372562,0.28395697,0.53728914,-0.40717044,0.7125274,-0.7638148,0.62277097,-0.1899204,0.13310426,-0.0075184125,-0.50050586,-0.8611656,-0.7397466,0.3127635,-0.36084563,-0.9683945,-0.11305304,-0.062404584,-0.37749097,-0.8404317,1.1419039,0.7405198,0.92878854,-0.25400868,0.27056956,-0.34951228,-0.82871103,0.35943243,-0.20818019,-0.90474343,0.064806946,0.9064481,-0.45271605,-0.18822792,0.10375278,0.36093542,-0.40116104,-0.013464071,-0.50260025,0.97450477,-0.009973828,-0.42967546,-0.16304974,-0.41916946,-0.56954986,-0.35505408,0.20485699,0.03319591,-0.02939895,-0.24121097,1.4651376,0.3445022,-0.053338364,-0.83942235,0.30365968,-0.4444913,-0.8064062,0.6759222,-1.0061231,-0.6072783,0.059860576,-0.7446388,-0.7340493,0.44851455,0.35447857,-0.15778647,0.79639405,-0.08093829,-0.82548857,-1.3136724,-0.397945,-0.46439725,-0.77179694,-0.5435694,-0.0932442,-0.01148624,0.55391943,0.61299866,1.3904496,-0.50080925,-0.36281157,-0.44805443,0.9595001,-0.47154227,-0.9377928,0.39931342,-0.64537233,0.19606692,0.5024336,-0.30022237,-0.18250905,-0.20112906,0.07977375,0.58019066,0.26260749,0.87040913,-0.44161725,-0.013879018,-0.70470965,-0.5690846,0.015008825,0.33019432,0.01675797,-0.03762762,1.2023336,-0.12670256,-0.34211057,0.13362575,0.93141663,0.6030055,-0.19419456,0.6298472,0.23506016,-0.043436304,-0.8033035,-0.51120263,-0.5229618,0.35256115,-0.43102992,-0.6647204,-0.23116979,0.8959414,0.8497623,-0.30421206,-0.8540373,-0.64277226,-0.3326987,-0.7002239,-0.9578501,-1.1190568,-0.75133073,-0.88806933,-0.5944367,0.3901319,1.0039532,0.09358416,0.3431148,0.6214911,0.8691759,0.7841584,-0.4917086,0.72986853,-0.7396927,-0.67729855,0.7595105,-0.96779543,0.47452128,0.25843275,0.8782925,-0.13112728,0.34891018,-0.007256454,-0.8840076,0.7846628,-0.42260718,0.0005706274,-0.31234568,-0.5149719,-1.2284218,-0.11324669,-0.0707257,0.8917686,0.9616098,0.12803333,0.94446236,-0.73343766,0.68878484,0.371074,0.48027155,-0.025422888,0.088764325,0.180554,-0.9164486,-0.46266633,0.06467995,-0.26246437,-0.10405265,1.221335,-0.77151424,0.4898381,-0.4817274,0.2671167,-0.4978194,-0.7691517,-0.58101565,-0.43788654,0.18049479,0.84068763,-0.41337577,0.9135797,0.5614352,0.5072753,0.5046869,-0.76264536,0.7339802,0.33786774,-0.80702233,0.81208396,0.9176708,-0.70351106,0.29330972,-0.6537209,0.23854269,0.12238043,-0.74528545,0.38886058,-0.038017575,-0.8511987,-0.69864386,-0.8854245,-0.7092348,-0.7520743,-1.2272534,-0.27963048,0.057618707,0.2637876,0.69423777,0.53317606,-0.24678977,-0.30264908,-0.012484184,-0.39176324,0.7925427,0.025307655,0.9012478,0.08967472,0.5847059,-0.81983066,-1.2099633,0.43128663,-0.9280788,0.0048870053,0.9737218,-0.13352968,0.6408693,-0.21484195,-0.42547294,-0.94822156,-0.5729748,0.30119509,0.26684648,0.049092323,-0.6367802,-0.23951298,0.901841,-0.505284,0.94362015,0.5358203,-0.39156026,-0.22181731,0.6153012,-0.675801,-0.34170145,-0.75705594,-0.21670361,0.6726109,0.28689012,0.5604541,-0.29950503,0.06236252,0.5943843,0.4951047,-0.7468662,-0.6494048,-0.7196686,-0.024760379,-0.21417892,0.062152892,0.083605215,1.3499078,1.1206,0.7023271,0.50760406,-0.56899476,0.8358999,-0.3863701,-0.50437653,0.38559258,-0.6689001,-0.025908956,-0.59809226,0.45635572,0.94842625,1.4142221,-0.08649517,1.2454041,-0.15486796,0.9808027,0.3822464,0.8308471,0.50023234,0.052132756,-0.6457698,0.14103219,0.17635596,0.36522296,0.590426,0.0894339,1.477209,0.7335961,0.9298053,-0.15988106,-0.34941015,-0.04335202,-0.06167164,0.8554424,-0.31721187,0.09680538,1.0059086,-0.7155021,0.6947805,0.7580314,-0.1583475,1.2875227,0.95902383,1.0848558,0.9425927,0.07600094,1.5434703,-0.28902984,0.7324945,0.8379958,-0.42444813,1.3815343,0.1910637,1.1156632,-0.26557207,-0.12209365,0.5264266,0.392135,-0.088474266,-0.026802994,-0.3775476,0.019616295,-0.780892,0.6989104,-0.7891873,-0.37589517,0.89339054,-0.2385932,0.87810713,-0.23935297,0.3878608,0.4010465,0.6376984,0.8660818,0.67435163,1.1780843,-0.24515995,0.8775649,0.7912137,-0.48130876,0.5652898,0.26600143,-0.65617687,0.8589835,-0.25683275,0.65822655,-0.84939635,-0.50692385,0.106554925,0.33310103,0.14389871,0.24034691,0.810975,0.081645556,-0.46764442,-0.032555297,0.7070711,-0.33538625,1.2352028,-0.052348476,1.125838,0.35096112,-0.1386896,0.76778543,-0.12879857,-0.575254,-0.04020638,0.25222257,0.28987607,-0.2900941,0.6885057,-0.5454651,0.41447288,0.66575396,0.15111038,0.21066892,-0.8976591,0.55484986,-0.38471556,-0.5113239,0.46430597,-0.7982576,0.7030501,0.98203427,-0.6722905,0.023531172,0.786077,-0.2982644,-0.32592306,1.1075666,1.4368054,1.1511896,1.6336516,0.7218377,0.84301704,0.7421414,0.305512,-0.2876143,0.10531581,0.29931954,0.5180666,0.58637327,-0.14480515,0.12774758,-0.44412166,-0.13670492,0.16858506,-0.5513294,0.6844895,0.9797593,-0.90971434,-0.48550045,-0.47319576,-0.28673518,0.36911738,-0.32109562,0.7506887,-0.20488591,0.8553919,0.21895368,0.7079925,1.3025045,0.12764733,-0.31458187,0.3256561,0.38730326,0.513138,0.6315202,-0.00649069,-0.13112447,-0.7468424,-0.77763975,0.6988085,-0.42557096,-0.97245765,0.054450035,0.6083737,0.7238583,-0.94603515,-1.0651604,-0.56737244,-0.5941637,-0.6730506,0.40421128,-0.13468271,0.10094149,-0.19002269,-0.77204114,-0.22362801,-0.18701328,-0.67310894,0.39325228,-0.35676888,0.70259356,0.105045825,-0.5105807,-0.9420058,0.18862186,0.7773408,-0.9799888,0.22765422,-0.13762188,0.60241246,-0.98830724,0.2775991,0.541034,0.747706,-0.93876374,0.7089569,0.38407382,-0.12635419,-1.0707762,0.25211638,0.049440384,-0.23021992,0.6675341,-0.86018836,0.66379297,-0.35992205,0.8418297,0.7915101,-0.39651904,-0.19088922,-0.061916247,-0.24231327,0.8966502,-0.22888666,-0.28020978,0.81601954,-0.51128006,-0.33019876,-0.45864296,0.8444874,-0.99770546,0.9731431,-0.27135205,0.27775013,0.46765813,0.23907758,-0.6326423,0.212165,-0.39561078,0.1667343,-0.22916354,-0.2262411,0.49226883,0.58687943,0.09557376,0.1074717,0.67579687,0.16803284,0.39076865,0.4868794,0.2053495,0.96877885,-0.8234532,0.45790267,-0.941936,-0.92817783,-0.72925663,0.42637563,0.4879868,0.54053545,0.3942678,0.09856343,0.16974783,-0.04172635,-0.9411094,-0.19542956,0.2109909,-0.36683106,0.7500334,0.80069494,-0.2932682,-0.57302094,-0.75067425,0.967855,0.16051269,-0.6406956,-0.8477566,-0.6549754,-0.5657766,0.64232874,-0.097979546,0.9956789,-0.71375704,-0.7037358,0.5849502,0.5250704,-0.78539133,-0.107813835,-0.020211935,-0.72748566,0.22383933,0.44421852,-0.8873562,0.6986828,-0.7204244,-0.052079335,0.72703177,-0.629351,0.9785788,-0.055896997,-0.6593878,-0.069266796,0.7476902,0.2977662,0.4356587,0.122858286,0.44277644,-0.3706138,0.36390185,-0.29792953,-0.13976216,0.074879885,-0.17731881,0.97155,0.2724774,-0.93717384,0.12354055,-0.786062,0.19968382,-0.7329904,0.9331386,-0.59662986,0.15034105,-0.25583726,-0.15496722,-0.1783812,0.938965,-0.55525565,-0.7393042,0.7739713,0.9925161,0.24552897,-0.70581126,-0.7456633,-0.18206042,0.037400007,0.4497037,0.7391465,0.07181382,-0.6694932,-0.72089386,-0.099784136,-0.4938705,-0.5597768,-0.18650599,-0.24274921,0.24834743,0.17672215,0.70535785,0.5256566,-0.9124317,0.6402161,0.084324956,0.38744968,0.2518744,0.35864353,-1.0746328,-0.5006454,-0.46625137,-0.96201164,0.24771856,-0.25998124,0.9663518,-0.3575686,0.4772439,0.7241471,-0.35485196,-0.3770702,0.8551947,-0.9862779,-0.68768656,-0.6660273,-0.8581681,0.8280948,-0.61069673,-0.5371669,0.10368244,0.184494,-0.11560789,-0.46737808,-0.87837815,-0.100337215,-0.2540162,0.3832408,0.8931016,-0.9592788,0.75860643,0.8891299,-0.17003742,0.62474275,-0.37658232,0.61879504,0.008294458,0.13140249,0.25610542,-0.73488927,-0.7031708,0.76316714,0.51408213,-1.0376407,-0.3915139,-0.11018028,0.14167294,-0.031002488,0.24072972,0.048397657,-0.67409784,-0.71093947,0.32448873,-0.1429707,-0.5915107,0.42738482,-0.35390842,0.5121518,-0.3944019,0.28647277,-0.31592417,0.9751741,1.1843923,0.03322704,0.2514065,0.12798856,-0.64168686,0.23393416,-0.8055678,0.11085623,0.88534856,0.25204194,-0.36590376,0.06818428,0.1811939,-0.35395518,-1.2839798,0.45091152,-0.35539818,-0.32868248,-0.22744088,-0.8080563,-0.20328556,-0.007916814,-0.012889087,-0.05489676,0.88755876,0.09319114,0.9108939,0.1768578,-0.40642077,-0.5833817,0.7504164,-0.72620136,0.3332879,0.40004158,-0.44861636,-0.039213873,-0.10541995,-0.42208916,-0.54835016,-1.346129,0.12086805,-0.791293,0.20514491,0.2021818,0.35357115,-0.7661039,0.5524627,-0.56015223,0.2801587,-0.6843573,0.14390714,-0.16375099,-0.55751824,0.19235264,0.12652698,-0.497592,0.44551682,1.1814864,0.950681,-0.24705908,0.48153076,-0.32936764,0.33201024,-0.5550262,0.6119809,-1.2834662,-0.7395813,-0.43927473,-0.015401791,0.90725464,-0.25920326,-0.56293535,0.011087111,0.0012097411,-0.6250981,0.047590055,0.64244854,-0.4750245,-0.60517126,0.13200074,0.3809376,-0.56173855,0.2813681,0.23264135,-0.07510441,0.5198718,0.38610914,0.49269274,0.84514254,0.93233156,-0.05156973,-0.65362567,0.28290722,-0.5770177,0.18174358,0.21192575,-0.64329773,0.3667995,0.53735477,-0.08172884,-0.1004365,0.74239266,-0.4038576,-1.2035886,-1.0729628,-0.39385438,-0.93592274,-0.7710402,-1.1165196,-0.81020194,-0.72317654,-0.07185306,1.2004031,-0.4117172,0.7889312,-0.86435455,-0.9747343,0.6515424,0.17791717,-0.7941401,-0.5783409,0.64016175,-0.8910092,0.8177758,-0.15200484,0.23502214,1.236963,0.6071075,0.70979214,0.08374848,0.47717145,0.25427964,-1.4196763,-0.27106702,-0.15268093,-0.5427422,-0.46206558,-0.7467791,0.14443016,-0.8888769,1.0566543,-0.28612518,-0.30787677,-0.004414525,-0.92987144,-0.28815436,-0.011463946,0.6848354,0.14028892,0.020335749,0.21502967,0.7155218,0.4875378,0.35610598,0.9355724,0.53750056,0.70224434,0.6997227,0.47311702,-0.42588726,-0.27154258,-0.89393914,-1.1471905,0.11204227,0.40271157,-0.68551713,-1.1051103,0.45485002,0.2987203,-0.5171367,-0.8452183,0.7484462,0.2192821,0.35336274,-0.62626505,-0.8302386,-0.72494483,-0.41799855,0.9576452,0.29488483,1.1825272,0.6375985,-0.42849308,0.8724291,0.50711596,0.37484932,0.38011062,0.81291944,0.78559583,0.4700039,-0.3440237,-0.44278792,0.48878258,0.3728042,